solver_type L2R_L2LOSS_SVC
nr_class 4
label 0 1 2 3
nr_feature 1475
bias -1
w
0.1152879701197837 -0.07709519528588273 -0.05873052253252128 0.006479898407201692 
-0.01829672610022289 0.05613380542422637 -0.005320645876421288 -0.01985284868012742 
0.06536508052819177 -0.02197177953670235 -0.04063552763857401 -0.008579858929223862 
0.010894657227518 0.03348551243945427 -0.02495296203172611 -0.000782848410301963 
0.02246061752214784 -0.03747387162651059 0.02806862624807286 -0.02124931382353269 
0.05660761371749785 -0.04009075178881547 -0.01697580554929761 -0.02145420445107497 
-0.02634938887601764 -0.004952067651832203 0.01385368202289821 -0.03369437050361763 
0.08113650755731192 -0.01611124348022809 -0.02979309728671696 -0.04030476243202836 
-0.00159620188439187 -0.03077764054557746 -0.00980805391276824 0.01123382072088773 
0.1424690354308429 -0.06043951277839317 -0.04579654348162995 -0.05653178531687993 
0.02394334095313628 0.1115194525117931 -0.09565006458850969 -0.0514755365338713 
-0.01120621977280752 0.004708927764366159 0.01767023735130071 0.004372242355928187 
-0.005003266417962317 0.04189764478470288 -0.05530635146471696 0.004367856233329749 
-0.02353694377340836 -0.02935245520979118 -0.01009950630189889 0.07551153985684646 
0.04442835100810939 -0.0582959284887444 -0.01338666833240863 0.05245511695697271 
-0.08112255585083124 -0.02248918448269256 0.06599929655413694 0.06970230026211062 
0.02289994780433715 0.03919417627468133 -0.03302197710520712 -0.01475500861324039 
0.01359162666002525 -0.007587022189458554 0.03774996752630596 -0.07300188283357803 
0.04179608736843349 0.02001630910810538 -0.04935641587867921 -0.03219561712801305 
0.04610388142470397 -0.04215150702694943 -0.007216443469141373 0.0053267338259795 
0.02358629054587655 0.01409689087472383 -0.04459151574234977 0.01226722677739683 
-0.05436220469863837 0.06655189608277104 0.005720026780732281 -0.01209892612843205 
0.05993882082179807 -0.03543727380535661 0.01922831839109603 -0.05035979819793363 
0.003654383423386329 0.01127870740718711 -0.009816069240965333 -0.001916681206904052 
0.02280966785011326 -0.0179784538317266 0.03352424446430418 -0.04973801467354143 
-0.01145178791173236 -0.04167490641818946 -0.01774162371859186 0.05357879708561023 
-0.01315075569066714 -0.06538252375348887 0.02612001884134546 0.06350098767442787 
0.01450143948843187 0.01224535215608068 0.006857961117335445 -0.01987315680219838 
-0.08177118015353825 0.0001360415232680784 0.0405694064851367 0.04345759890513311 
0.007164675699800561 0.01162937629004918 -0.03138557176389048 -0.003068781506386356 
-0.01683761307346534 0.004197217890099244 0.01695866456550827 -0.02720936191096312 
0.04782633413964999 -0.03939428164870003 -0.001771529662619199 -0.03214805933793274 
0.04873061714245767 -0.01390142087111197 0.01723561824350507 -0.03398800999405133 
0.05247645660098986 0.05530920502851661 -0.05103430411956481 -0.04554385535967524 
-0.07035405193414684 -0.06553904697697817 0.09726074123406768 0.04087970101101503 
0.07355835458610656 -0.02979168040285267 -0.05563108354333139 -0.02771881704103216 
0.05839442903949847 -0.003598029186941981 -0.0352677072187093 -0.02663138860193046 
-0.02559725251100002 0.02687182888443583 0.01251980950213871 -0.04669888045547065 
0.06412961261209779 -0.0570519883904446 -0.000461106917016419 -0.02522557422995812 
-0.005213510519755003 0.09977643132156332 0.002065535057768863 -0.05801227562360614 
0.02247335628348968 0.02977977101893821 -0.03987596888960403 -0.01183499002178643 
-0.02612083683958429 -0.02049535285011204 0.03514661276279466 0.03247380841028247 
0.01465774347538591 0.03758910607624701 -0.04133620892102176 -0.01495443126950091 
0.0579412674070213 0.01000826962565293 -0.009795964695304296 -0.0227751968851577 
0.01495857095216727 -0.004346370162854995 0.002407376201288054 -0.005170343942550802 
-0.03152317025859379 0.07647915108397878 -0.04096113619694978 0.002366529951848577 
0.1215040799895099 -0.03687182965159198 -0.09688005402165521 -0.03039574712687712 
0.01350325452764543 0.09535909210709781 -0.01766054552534036 -0.05920225251006542 
-0.1359313404599923 -0.0410262440405541 0.08178874685043791 0.05152143059457086 
0.04066627291541952 0.01692418798246607 -0.02447648030409477 -0.01144632831667935 
-0.04219112503649283 -0.0138617560535919 0.01821573884658976 0.04958114740967479 
0.01195302246590477 0.117562708533992 -0.08511396917876772 -0.06977589552023478 
0.06069453543147172 0.03888810798134096 -0.05984912365514244 -0.03505035397649957 
0.07613780400441432 -0.01849429892010353 -0.02840815370329374 -0.03395057083824358 
-0.02537222775497919 0.004409814279269239 0.03442940277901244 0.002454209113113506 
-0.01558640985954989 -0.0386701327350499 0.05298830190087767 0.01855194175074846 
0.03924378628068297 0.05546437544303982 -0.04963859733422592 -0.03711018555642336 
-0.04708169119441019 -0.0840323615152616 0.04538896600930215 0.05701855135199138 
-0.0374670018673315 -0.02932985004187453 0.0455155283882749 0.03756791929411633 
-0.008187005717120312 -0.05928442775407838 0.01946799637012583 0.04371679694291691 
-0.009095753779886244 0.03462755609823161 -0.03180236479173176 -0.02478519556485731 
0.04443224935769829 -0.00890986833441746 -0.04438470722955277 -0.02107371217006313 
-0.01563330221472881 0.02805104264075059 0.002718781023499148 -0.009547496007054358 
0.01250091163058218 0.01191917033324898 -0.06221753167535941 0.02449394461786667 
-0.0005307793111581296 -0.02166058264791049 0.02443030801357003 0.008755128821857295 
-0.02565111417477254 0.06321988687579139 -0.02906239541312687 0.01994747024495145 
0.006106285515817293 0.001762303249711214 -0.02671508721750223 -0.004878593673684865 
0.01567545719807974 0.01986739596737204 -0.03420965331803998 0.003184474859206805 
0.07530650227984934 -0.04036759555426777 -0.004398348966332442 -0.04818689947761354 
-0.0281084011200784 0.1127488093867941 -0.1597007521848955 0.06927184221526442 
0.05723095397550762 -0.04977436670846639 0.01613625000524341 -0.01698681269664911 
-0.04209074753861236 0.01969011211370502 0.002660699304128692 -0.005336518204028549 
-0.003526965966601958 0.03254072596455965 -0.01058968524578918 0.0004647737284229167 
0.01836345203692863 -0.01637822929301579 0.01661947899042294 -0.009381207146456788 
-0.02622203869360245 -0.03132221717903504 0.05850819550013745 0.03645635556644116 
0.04481674512054847 -0.0456340978300999 -0.01234298451637273 -0.008600797027639061 
0.02480950699344153 -0.005266947449491959 0.006121810524087428 -0.05552215710699846 
0.07591832142628445 -0.01011803365904734 -0.08486566025478152 -0.008252670582011883 
0.02687960814953564 -0.002708554316986771 -0.05965296127290588 0.02828633117571925 
-0.02517102327265941 0.01440299296453069 0.01248276624831316 0.01361783650924345 
-0.05917054121917086 -0.01588917058285195 -0.02064721734192633 0.07866622344578363 
0.04973815435161908 -0.04620178856329978 -0.004172875973175819 -0.03180470369328608 
-0.01139280075120716 -0.02977843912236291 0.04751386506330102 0.01318758688168668 
-0.004211654576085671 0.04569537580304846 -0.0157054113069919 -0.06108930380971057 
0.03497040824490021 -0.02156420370127137 -0.04618677968991106 0.006367109327175761 
0.04482606622989926 -0.02154992768331156 -0.04358645759748607 0.007307782609449203 
0.04446641557604011 0.008044298067087799 0.005389160955694475 -0.05951195680223031 
-0.01399860088354774 0.02136638202745081 0.02065387765027276 0.00234588134981777 
0.0059984705415872 -0.04889351557869125 0.04747660670209608 -0.004002669959882414 
0.03232946496297973 -0.002511885705705632 0.03826293694480691 -0.09813993832121395 
0.02366383050779636 -0.02719908165634904 -0.0230151236795307 -0.04545692924550504 
0.05661297185924408 -0.01988158988263633 -0.003905753303533653 -0.06216991486006013 
0.01513864057270206 0.04314722433115185 -0.0877458157008697 0.01333922491088022 
-0.04886197464415975 0.02161015582704926 0.06213750831215598 0.0326299773031445 
-0.009444089850358604 -0.05256404901558798 0.005399667583902389 0.02754162353576827 
-0.05389184505059971 -0.02159550115489513 0.02694440763902243 0.03496616041298511 
0.019613001208807 -0.01553065969148541 0.04144433806118512 0.007507876601755714 
0.001808828937331995 -0.03731929130717842 -0.02472631542866905 0.03709406267351085 
-0.009180259898862564 0.02149030546292085 0.02644068770207189 -0.03147265285700093 
-0.01929564511574717 -0.01493953608704523 0.05996881881911652 -0.01234418006076675 
0.00557775754129989 0.01199587128685922 0.04237192228771704 -0.0188394430962919 
0.00885535361512068 0.002122736820105142 -0.0398651429821449 0.05485556987831616 
0.04304393264818118 -0.02433162851847472 -0.01134917200913107 0.01669650921454694 
0.02967476610274034 -0.02825780466363439 -0.02417954194603609 0.02205426951948165 
-0.05137353515837616 0.04656720180343783 -0.03559423185347198 0.07319025102780168 
0.03407300375612069 -0.01183788361831002 -0.05606390085191065 0.02072900426512373 
-0.001539267382459219 0.007030921058092725 0.009303264004697475 -0.01202288791272167 
-0.08603646954107902 -0.04383551738692423 0.1125572726898497 0.01835046888293733 
-0.005187671267817387 0.04029890170663164 -0.01253438420094288 0.01003500878028891 
-0.04512326426996905 0.02474680522738145 0.005516672948289117 0.0509417869917722 
0.0246535788747108 0.0087932531885823 -0.03466763135061324 -0.008337603963166622 
0.04289595510789943 -0.02622364994031353 -0.01482051695261722 7.029366147718522e-06 
0.01056102842562763 0.02159081703109629 -0.05019022634251064 -0.004025344863122907 
-0.03685279287784338 0.03946029961244853 0.01575448622693938 -0.01176697134547762 
-0.003358945642985887 -0.007623268781054015 0.02771801095087753 0.006964902427146788 
0.0777464195330341 -0.001948621089369839 -0.0296683860481859 -0.03985270847882399 
0.006086529104986972 -0.04614534874950332 0.06925145102595497 -0.02075674473469521 
-0.08994977899280766 -0.03328803257694161 0.09097354334937593 -0.02684249735633746 
-0.005472950358795766 -0.02953578966769347 0.06712113070415841 -0.0193901128082757 
-0.005212718627567552 -0.05620820023236503 0.05523488921167514 -0.02133226997179749 
0.04898218235954251 -0.01236146371714751 -0.01089691049342057 -0.03179058366076874 
-0.02833738811169173 0.03985614801408786 -0.01650624201676184 0.003800364484528415 
0.04858368840435959 -0.0168948769156359 -0.03392679309787546 -0.01570218367841186 
0.004424739855897462 -0.03752540685837231 0.002016425516861363 0.01672300765232693 
-0.1042003896948283 0.1193189144770896 -0.1408782121203165 0.1151112496877593 
0.01027761695590876 -0.01895662355367119 -0.01319988360666119 0.01531606076106419 
0.0276756237990598 -0.04700953236177757 0.02734875432195355 0.00834947051579016 
0.0789422932787245 -0.0671666770113061 0.0660262238295707 -0.05031927959618834 
-0.1193961440436782 0.06415449309348141 -0.1035572493914635 0.08501723526011247 
0.02461921104191224 -0.05781210546203476 0.03513871659710769 -0.03475278523784613 
-0.0145929017908374 0.02181811939754305 -0.0251255247349598 0.03598372712164374 
-0.05894588311537595 0.01631203741202748 -0.1148786925251055 0.1642097111974342 
-0.06921610716922366 0.05838282599422431 -0.0542455013184558 0.07436201631262719 
-0.005480641057303272 0.0004476527088821511 0.04424685633129927 0.001773411962564146 
0.01992440342768214 -0.05513692197053485 0.04094225740455537 -0.02643702019833396 
0.05000853185455403 -0.04553946767807095 0.03310981014150997 -0.06671207562570042 
0.04637598650257629 -0.002016878050929294 -0.01645715204718431 -0.04836865352094732 
0.05387297999992226 -0.0350771597057656 -0.1038542493000522 0.07148569281290847 
-0.05032398163543923 0.01500834155116346 -0.04719912096305564 0.09797692371004185 
-0.08249470996429312 -0.003241034696054315 0.05645812069568949 0.01810740521903716 
-0.005981573181185204 -0.04005236955490159 0.07587457465597551 -0.03646866296287256 
0.0002514751523902605 -0.00596832945599537 0.03183569369246278 -0.01384094489508131 
-0.01583377495486018 -0.007389605572432748 0.05581203332452137 -0.02523136715951289 
0.0461577524680588 0.0138804048227321 -0.02368832905841589 -0.06023760461375141 
0.01318994708429759 0.003546946680247607 0.04268727515244918 -0.0394635946969724 
0.04733488177989857 -0.009934285907813558 0.00265402898492274 -0.03141958022951469 
-0.009355667313287713 0.01229777867509959 0.0201079803150274 -0.002731886373128124 
0.0045713948655937 -0.01386019854465638 0.02875497749145548 -0.006821697851155114 
0.04936651299399233 0.01430555383589915 0.02978509244067212 -0.091117358780612 
0.05604872190659888 -0.00178274403319432 -0.00828834090855249 -0.0494619838026654 
0.02245030582149034 0.01489827632689732 -0.05579608634329016 0.03274613832743547 
-0.09829054386641524 0.1199729747059262 -0.1708724210146064 0.09700490927939596 
-0.01093515202361874 -0.005676557622454301 0.02633107441799063 -0.003194253045472912 
0.008510256181831934 -0.01314492382493422 -0.0004084836810885846 0.0211307066298657 
-0.02331650417794785 -0.01331057632628625 -0.004787481578838943 0.04239057321125912 
-0.006650104369446758 0.003814797590977532 0.07427563383691083 -0.05031565670812587 
0.04276122089518232 -0.02965659251580304 -0.0159100292049538 -0.03014819948934975 
0.03556462803031174 -0.00184230160943437 -0.002227667111713088 -0.02702515537089135 
0.03640701699251899 -0.02815828929795022 0.0350100342697273 -0.04732547991320308 
0.04212043854082652 -0.01858577050887413 0.03096589519132175 -0.02918075753004301 
0.02324248395706846 -0.00457724945436276 0.001540647515396018 -0.001065954410426643 
0.02452997070734208 -0.02696231057104334 -0.01135485105528719 0.004924870784831317 
0.0154340544264906 -0.001445897557991314 -0.05547721711384503 0.02778497754264322 
-0.004522333893193621 0.003278513588907259 -0.02168851321685808 0.01616640235429547 
0.1104159868620351 -0.07802741324546905 -0.0163426865122159 -0.03174132836987216 
-0.01507251128435214 0.003225259698174744 0.007372234653679661 0.03048959343608099 
-0.08592833119507481 -0.01181741241744158 0.0790937079852346 -0.01446557820701562 
-0.002759002140644217 0.03932773484197626 -0.04092028680691172 0.02955840944322514 
-0.01160463549861848 0.04862996237827447 -0.02491987002047691 0.03434337955479091 
0.00628112043127854 -0.02114452427680947 -0.01855140526497558 0.04044783635818951 
0.009696332019305264 0.02106872138712474 -0.05733099614375124 0.03809139809257629 
0.0444905713432556 -0.02327829293899452 -0.03433756756003387 0.02135909654385008 
-0.007883280798768592 0.02840537051730172 0.02438606836644253 -0.02421833527828448 
0.002154831799043132 -0.001368712692653162 0.04251242125742177 -0.003482064071694915 
0.09604856968329578 -0.04381927042050281 -0.02608473696972934 -0.02105600258441284 
0.03932896758465716 -0.03173853764387334 0.05188781842943491 -0.07146414163251118 
-0.02482835925508712 -0.04401849274671027 0.08241857602447139 -0.01806834081018595 
-0.04095169084692422 -0.01215422450859714 0.03942412274632319 0.02157069803094752 
-0.01437596727722355 -0.01142761394779762 0.02784295987569328 0.008489014997531132 
0.03940671430635002 -0.03010561050412759 -0.05742906294907223 0.01170245137974064 
-0.03498631645285277 0.01918510938444877 0.01193543225381897 0.02203540524783977 
0.01776751959819387 -0.01003392872907908 -0.02100210446434172 -0.00408569217226488 
0.025329855190422 -0.05801502389053782 0.005363367481670787 0.001587773957444594 
-0.09296311285900812 0.06426944567262817 -0.02747485673214918 0.07169469250492498 
0.02851222259651712 0.003933826843231745 -0.007980857514705718 0.002993303413605063 
-0.01887992301139985 0.01309482774204463 0.02383855641893128 -0.002185065086263093 
0.07456370799163239 -0.06273083788412392 0.009234008794269378 -0.02860017278139451 
-0.05343311541157926 -0.03943385711893177 0.05019628404300038 0.02231720658555296 
-0.003512095479763315 0.002078318634836639 0.02958897580108109 -0.0310166061446512 
-0.00242694412562714 0.04750119739949792 0.008928278641264152 -0.02004881270407632 
-0.0508884818240654 0.03659100950122381 -0.03011519631706759 0.07578783687078945 
-0.04921110799088475 0.1107804380732225 -0.2283204220286483 0.127902346581253 
0.00188892280885045 -0.0396370685272914 -0.006347294696594816 0.06282192785608147 
0.02372906165894745 -0.03192941360632615 0.008985522008406552 -0.012380721542347 
0.03369245852354279 0.003835500186397381 0.05709609102669497 -0.08531121119451041 
0.01008880626138626 0.01290922161481398 -0.01771756641428521 -0.02478447083736952 
0.03160741935228618 -0.03124145184451078 -0.01386727716897808 -0.008801121540963594 
-0.04526730700948271 0.01786230350591291 -0.06978216736129537 0.1151376351449722 
-0.01444318727129237 0.02077204112518775 0.03405098193684366 -0.001606458441889665 
0.01359447228406253 0.004124177881223143 0.02053781944892532 -0.03060788166169831 
-0.02284655543509603 0.002461346205792493 0.03281115444214165 0.001064592013121335 
0.00264806265324884 0.01299238592674085 0.04489728943858701 -0.06634719901650159 
0.03150377783793372 0.01472006469181501 -0.004382906878158681 -0.05411351974832415 
1.631488111667621e-05 -0.007569281968178667 0.01593465545298582 -0.02747251700387448 
0.03082716931311445 -0.03748209944859505 0.02871661923528801 0.01000362896441976 
0.003066171556521337 0.01373370239027859 0.03685068272917292 -0.01694098899499575 
-0.005030897805425871 -0.008362138816525273 0.0009433996378331932 0.007193599531004035 
0.0731649539675306 0.001866931474500467 0.05054196887677945 -0.1157762478147941 
0.05835509350418669 -0.01615627407922014 -0.007690923915912995 -0.04975586012108617 
-0.02161314871847 0.03660722538217639 -0.04807250601257249 0.04182903795560813 
-0.08804454273896109 0.05733927651721295 -0.0298248446113614 0.06344059186465653 
-0.04565896988245517 -0.0295187771552634 0.02165167720573122 0.04517857741825052 
-0.01334090454113281 0.02270082160199188 -0.01978175260846012 0.01077341062390737 
0.01352614020985393 -0.01097111422302972 0.00492750974732268 -0.001231300753472675 
0.03033010018453935 -0.01933199262474468 0.06171939056813352 -0.07941382150472236 
0.08075219047568719 -0.0006504260395094292 -0.04735395713544679 -0.06735923608019041 
0.07852848203539753 -0.02795451659621847 -0.0320452428857493 -0.0255492253982527 
0.03504887408076367 -0.0001250931341929533 0.02560906008469058 -0.03654946862503806 
-0.0004347997352910674 -0.004577475710341352 0.03891861538602735 -0.0107239259982226 
0.0350787681542873 -0.05128446704282688 0.01710932586504773 -0.01276552814191385 
0.05111548370247516 -0.0420029742708196 -0.003932894973187539 -0.002416541403732768 
0.03628937369975137 -0.02627064034302722 -0.02551151916099533 0.005702181773100765 
-0.01547138370830971 0.002961038083920925 0.02925749890729744 0.007798419486947987 
0.04733392781151245 -0.02972341792935633 -0.01046961404528998 -0.04059780628274397 
0.04487875130515993 -0.03952929668787822 -0.02126180422913405 0.002711115725959851 
-0.0978103364060663 -0.01535611760435016 0.06591183405395798 0.01317116336326167 
0.02023464362211303 0.006937860623066096 -0.05081558666618445 0.01457602367907271 
-0.006213913311965523 0.02808875160742416 -0.01171371939738664 0.009077229873945249 
0.01591395338368282 -0.01454919461770645 -0.01820101399379161 0.02194682918925509 
0.008577689247310151 0.01758838516360268 -0.02566131101653098 -0.01411557521222676 
0.0442161741955198 0.001519989833333794 -0.02996530313552391 -0.02581417281205962 
-0.01566889969214825 0.02905639576969664 -0.01295178186987402 0.03133242082755404 
-0.009126797647950392 0.03115141180971784 -0.004004084909795835 0.01775834946157302 
0.1238193519799343 -0.06140808073506513 -0.03583246434004757 -0.000346184811531766 
0.01755279468910104 -0.04045221039456144 0.02359930450836447 -0.00811887453809601 
-0.04026871229166716 -0.01606173691356202 0.05221794507288526 -0.02430681608873898 
0.09552069977546432 -0.02304081660434611 -0.05870412327635025 -0.008916297411812176 
-0.03604742384349022 0.0138760506314359 0.007428860877859696 0.02086021814427808 
0.09208390711689615 -0.006971299784211492 -0.05068525015292629 -0.04013257830051602 
0.03753852427321685 -0.04247589808098132 -0.01028298460894503 0.01866646462642196 
0.03052484089294085 -0.008292508171936242 -0.03909231800312574 0.04772039989290458 
0.01873658768839435 -0.02192514667060907 -0.01540392853422064 0.01476907902695713 
-0.08599915167446481 0.03460016706977619 0.007119892853271487 0.05753843669614203 
0.0309406566213288 -0.007547893422844515 -0.02505127307211197 -0.0023967982797487 
0.2144115731373709 -0.0465715196270992 -0.03777150140377537 -0.1064698385293498 
0.08111464781065192 -0.0768376888274622 0.05101906016252063 -0.07195535439530489 
-0.04619534727290123 -0.002267585735715244 0.03589916039361774 0.04869598886272131 
-0.009088879796759878 0.03113449186449155 0.0108966841142335 -0.03227060573633175 
-0.01752315410911866 0.03560993099794656 -0.03448656797330627 -0.0005549143889411752 
0.05313883825434892 -0.01198201228424744 -0.01174145979391177 -0.01592353376555632 
-0.02368103407455461 0.1981308487574425 -0.1815593746383513 -0.03877194871390249 
-0.1170587312505467 -0.009207565873411934 0.02894282250485355 0.06666377257898573 
0.02081956857928549 -0.02649120878168825 -0.01004170250637237 -0.002916847001710876 
0.009977453237363005 -0.03911233480148198 0.08138140428195949 -0.05913304064928339 
-0.01443235006001521 -0.006728279911853096 -0.004065396042960209 0.03064677008989709 
0.004800501598013258 -0.02863233523611287 0.02720906513458541 -0.03160719275978761 
-0.01952660572815596 0.03555122582358557 -0.006855323910805252 0.01392632864176859 
-0.08774331066149614 0.01039371079166959 0.07064235266046592 0.04257889440501028 
0.1157510474644935 -0.03000116473577689 0.01732002647208071 -0.106330980310584 
0.1222446765452604 -0.04504864350953614 -0.02216988229371262 -0.06677122595851544 
0.02070324054164728 0.000256930045964356 0.01536503099624914 -0.05253742104069515 
0.04442037531307104 -0.04785867007390678 0.008132259496740211 -0.02690328102574313 
0.01225591961837392 0.04586227380516882 -0.02388281433728762 -0.02463137783504063 
0.01639906716340695 -0.01109498083583356 -0.008698667751822689 0.004950979943373468 
-0.04563364722632157 0.009470600372171572 0.02730606103898018 0.02069399346463952 
0.08648628452238551 -0.0333205109301094 0.0007034734959961247 -0.05487060380811822 
0.0676262556991223 0.01373245615094525 0.0126874093682994 -0.09476346214130596 
0.1379521748024182 -0.05448494431165651 -0.04707358790991541 -0.07291902270102921 
0.02542217639652213 0.02293797749422817 -0.02915554219049544 -0.032190279353428 
0.01383615996774388 -0.0292481602768282 -0.03034415969498237 0.04701861736582673 
0.1088898672174095 -0.08137904860792079 -0.02222400132002735 -0.01975912972193966 
0.09685466486048365 -0.05844609308874261 -0.05458008919484042 -0.02837353301131397 
-0.03854541378793449 0.05001054692845877 -0.003500160394906444 0.005454156851334398 
-0.02576006132603537 -0.02674086016877409 0.07568927542626948 -0.02733177701997082 
0.01732920193638469 -0.04444190791770108 -0.02244815519328185 0.04019586479412707 
-0.05309318304827582 -0.01806092106320317 -0.004123039735646023 0.0938324718980353 
-0.01429419526438072 0.0342871919996371 -0.01179719708372636 0.008576619115782665 
-0.01923849673822959 0.009338139217410954 0.002788563871122117 0.02534568473338199 
0.02675668761788769 -0.01183757746254653 0.02295824632725682 -0.0005173777868736785 
-0.008447025559132418 -0.0206268081725263 0.03276057450703469 0.01651447458900226 
0.0710617968756608 -0.009197140794026344 -0.03634752782691943 -0.01761437284776824 
-0.02409992971230128 0.008608845887639762 0.01251318519645175 0.00961448969539459 
0.04751630355576424 0.03471996418539289 -0.05910364461656554 -0.001793418026539356 
0.02601565342767754 -0.0408543805852431 0.04064860457529287 0.001297138924917804 
-0.1422286044195549 -0.05225396684867674 0.0989367372518762 0.02207803923985848 
0.1567453617765403 -0.01756901018920079 -0.06419241460503229 -0.08462533148747091 
-0.01226994892737302 -0.0008834922068269531 0.01993157641217467 0.02393917542372237 
-0.02564106957370402 0.01384992680521593 0.02119244479388 0.01621309829082228 
-0.007033594469196219 0.0253459360567658 0.01217853594604967 0.005109039240009029 
0.1031899348592868 -0.02845459070261199 -0.0519571977876114 -0.04353392148015795 
-0.05482542865447207 0.04961520629486407 -0.01002693048900913 0.04367649728507417 
-0.0163373183521566 0.01357794740722835 -0.01383090527851202 0.03171306596978171 
0.09447696629306752 -0.02891981274727413 -0.03513979759820415 -0.01700607166110821 
-0.003808905685915799 -0.0454978236339457 -0.006479582923663924 0.04479258902405452 
-0.02396356826756302 0.006338742731710201 0.03066008781532314 -0.03840408692486979 
0.07805477976500293 0.03904948344940518 -0.05886547174331436 -0.04588294186789722 
-0.008283840463292745 0.06253006180144165 -0.01266659701436866 -0.01873203645843616 
0.02360786687505267 -0.01499834360445605 -0.003937543751387825 -0.02180332612773736 
-0.006742934067302381 -0.01022262268665692 0.03633284828287026 -0.008863890438275896 
0.02512295665535506 0.008186527226812087 -0.03261825035400701 0.00331368101533808 
0.1081452786649337 -0.02068479515511528 -0.06691850495892639 -0.04739267499522202 
-0.0193494223124376 0.00708869685035259 -0.009883116189088482 0.02171356963964416 
0.02075015353879984 0.02853305914293031 -0.02393747539494911 -0.008750768359124313 
-0.04329326176790441 -0.03818648912171382 0.04161118472437268 0.07348769594329925 
0.01492914516200999 -0.02198236042484011 0.01403226167021199 0.03836887301384839 
0.0721739281422681 -0.07637600612469882 -0.0254731977289602 0.03555005032768063 
0.02009600654158044 0.03408701639719759 -0.06491274398466755 0.01126968814923083 
-0.006857776608683787 0.001990722763201253 -0.01007842960455438 0.02907488637695585 
-0.04563016150289575 -0.009098914414547646 -0.003326779848191702 0.0691116394484501 
-0.01906764988165366 -0.05639604226650293 0.07659043121140448 0.01750035282887908 
-0.01055069657926722 -0.08649780223460174 0.02809419083995595 0.07436684406362716 
0.04698288290217081 0.001419650033657172 -0.03935718354303986 -0.03965998935230554 
0.003000238160841052 0.07875512851720458 -0.09466978167114554 -0.02677132035318708 
0.03959999205121158 0.0664199245905036 -0.02810408406608725 -0.08662984940805538 
0.05288460831275067 -0.002980512282617455 0.03369874008671586 -0.08944899956317255 
-0.04460854849317179 0.07790855264603021 0.03962448648266075 -0.06693014159944466 
-0.0262653706938213 -0.01964276780657022 0.02351536278251274 -0.00737086087120457 
0.06929017117434241 -0.02341653861064823 0.005247264781760299 -0.06337619261452401 
-0.03327994061047575 0.02421067879163628 -0.008078312507944279 -0.004371807139177177 
-0.01402984102319406 0.04396956978605507 -0.05445842492852492 0.02530829079629304 
-0.1082533963267146 -0.07295280095144398 -0.02398017671636145 0.2173479289954557 
-0.03557236415720067 -0.03352052953035455 0.009000232189875553 0.06746377162282015 
-0.09678159423465078 0.01978988809064748 0.06361586384704426 0.007466788683823181 
-0.02309357350712508 -0.01267823523886145 0.0589298335291786 -0.009736187233214007 
0.04115158309686552 -0.01164589708273756 -0.01695883061826319 -0.04009428990498647 
-0.0560174716906705 0.04804906310791006 0.05427438203999885 -0.009690104039101052 
0.04118474630986161 -0.03602133727614907 -0.002918792631102313 -0.0365526022717872 
0.01401019037975544 0.01663969672216882 -0.01685390091376328 -0.01896393042181346 
0.01118657608461991 -0.04170052468319443 0.02506756037248965 0.001020530529837585 
-0.0289622825781666 -0.02913675207288276 0.0530150998392537 -0.01443579134894113 
0.003822602845626643 -0.04397473886999636 0.08312087973540823 -0.07478977971122007 
0.06056003715988985 0.00782625414472538 -0.06836393039672693 -0.04526088978483508 
0.009952414980669658 0.02688174796847828 -0.01253787488785049 -0.05296933487959663 
0.07491731895672904 -0.03895317545720878 -0.01306028947591457 -0.04658739919656409 
-0.0103613992046698 0.06710735123391327 0.0243686930328912 -0.06929231048864687 
-0.07333988216264015 -0.01061228422375806 0.01351537752595676 0.07354674139237996 
-0.01548268691862084 -0.05025360108076334 0.06367139774213482 0.006751096061420142 
-0.00873446816169704 0.06937599615878355 -0.06825417222093023 -0.03407007635970515 
-0.00266271799832301 0.05230447580788439 -0.01463360359380641 -0.04592897496491041 
0.0233802440050925 0.02661320684579843 -0.04243914305128495 -0.01845338981392309 
-0.009963743577877077 0.1071746199661141 -0.07326764905079786 0.01060067969505087 
0.05324811339264374 0.02259320790281527 -0.08628587845940547 -0.0001563657451068973 
-0.005052562301725665 0.0897398565845338 -0.09820795269709177 -0.01466796972447029 
0.03692892214030599 0.009782929162092528 -0.03185598837354709 -0.01891931653460025 
0.01353097108641022 -0.001412733003999903 -0.03689463148409915 0.03558356085670277 
-0.02544528597710694 -0.01922067213790478 0.02228814348068148 0.03876166945735881 
0.002861631401504034 0.0577955092868701 -0.05309989309290514 -0.01085036853719085 
0.05423071962904478 0.05118581830794735 -0.07773519350918627 -0.05755031433869337 
0.05233321156247339 0.006120331124010877 -0.0309555614485452 -0.01029022177098558 
-0.05736502138057023 0.0836235767266692 -0.01094713218237815 0.01872494820539374 
-0.009257411163841609 -0.02185886227603365 0.03170201018671176 0.02590692217268157 
-0.001205627543635571 -0.004770222294071438 0.02031448909865673 -0.004866768380216066 
0.005967652617439812 -0.07418586578038361 0.03236575987081156 0.01203261977228689 
-0.01417167962246833 -0.02485061579063336 0.04737705233149474 0.02182058467825423 
-0.005093166288355697 0.003285741328769929 0.03852756587449382 -0.05715839427818215 
-0.04261603097099422 -0.01455699541206654 0.07083339991527686 -0.02222652940328184 
-0.0008615845864172391 -0.003054722162439813 0.03143461042709619 -0.006774517217064403 
-0.0224784501694097 0.05038194806334296 -0.01748875149956169 0.02089065503594977 
-0.004290399760767404 -0.02396023876940922 -0.05561405450453887 0.05303056124421265 
-0.008951007015151896 0.01627892758063356 -0.00993558771192361 0.02661436864986703 
-0.003359596790407573 -0.04738675742052406 -0.008217889423678114 0.06223764453605996 
0.01635097499408014 0.008146017914721831 -0.01051605486380227 -0.01145204608230671 
0.0009969924842063999 0.01776539203877263 -0.04005987939881733 0.02178213788603993 
-0.02639332432450878 0.04165054685505524 -0.03287171314258314 0.03147092031053474 
0.09425348697062191 0.05312979287975561 -0.08694253737610697 -0.02245381249754587 
-0.01793725315536224 0.05279748180815224 -0.007234682020827248 -0.02757254612824162 
-0.06377657988288847 0.06467871168280026 0.0332564810424631 -0.02725218501210802 
-0.05931870879384746 0.0496294092236176 0.01196934757761152 0.001572526739150648 
-0.116162316723895 -0.01111933922967597 0.06887486488935139 0.0309320596298425 
0.05651524169217357 0.09221183927828154 -0.0559185494564633 -0.01721922412444727 
0.001265787530943689 0.00967270351018989 0.04668266477432097 -0.05763992783169734 
-0.03540016262834586 0.05198236407716601 0.04147751128966243 -0.03449884890308652 
0.001695316930489805 0.002796969051549523 -0.05419462242096251 0.06174585873445498 
0.03316136335377334 -0.03228107645328659 0.1089087815361596 -0.0951304566967803 
-0.1250260131198527 0.05463713471615719 0.1216180959135075 -0.1348139783066511 
-0.04157969515045924 0.08092821536600646 0.03527032608954495 -0.0692943906363056 
-0.02579285499216096 0.0111708919079769 0.05081147029160716 -0.02423293471436676 
-0.02160934279277333 0.04457645604600134 0.04980739258832512 -0.04991180313830662 
-0.04767825097509164 0.08183522193358947 -0.04161974752272769 0.005364608360993161 
-0.1162269636534667 -0.0858769446622414 -0.09236620749474231 0.2462120314849542 
0.05899943677471435 -0.04353014708923351 -0.05935710048382884 0.04516511735996148 
-0.03298720872520549 0.00757657486124754 0.1023983441265007 -0.09283096661752001 
0.06083959243436418 -0.008208732253447711 0.02677689459467153 -0.0459460487017828 
-0.0008906714083856015 -0.002863311020945032 0.02126510333143626 -0.0114041395024055 
-0.01680276370387877 0.01442232282850723 0.02391958954254164 -0.006885891389906915 
-0.07300292316229827 -0.07434324525330054 -0.04626988718122697 0.145166244247073 
-0.07680088319914649 -0.08882667708729063 -0.02277719748063781 0.1403080180212454 
0.006372263277736601 0.05088889464884782 -0.04738071982259601 0.002368150584481602 
-0.03473162011299934 0.128612205499151 -0.06064628648501731 -0.0004134139689651339 
-0.06875482390138225 0.001674499410275675 -0.04357213749699326 0.08313384432216644 
-0.02928836057646433 0.04625824852233962 0.004885377515277504 -0.01361268124098411 
-0.03554828227712184 0.01283862366819693 0.02869997605649437 0.02503230527496679 
-0.02381621410648541 -0.04444418879635196 -0.01234431043696478 0.0408111561556174 
-0.05068661994937593 -0.04116509868228423 0.0003671823495581903 0.03873606214378909 
-0.04467397999964939 0.05670392852440719 -0.01369631952741713 0.01946361266900522 
0.05143802256238567 -0.0005768092857537086 0.02675340970525974 -0.04426807573516624 
-0.02453546932250268 0.02019501999989596 0.03995409486296954 -0.0380636620299137 
0.02612090582891735 -0.04295682468104883 0.0821520206355453 -0.03630027218371657 
0.02004716749095294 -0.006577539257870397 0.01517120543146295 -0.01246831469805944 
-0.004265378896952621 0.04780219749945506 -0.031448481037938 0.01801272959327003 
0.02361709472195418 0.04249105538999697 -0.03414039018173176 -0.009392624410149321 
0.03716942913140021 0.02776760719573499 -0.00900882145812573 -0.05682918690636166 
0.1135557365615783 -0.0505583030348435 -0.03828020197685118 -0.05960114292127793 
0.02847703932789402 -0.0541018843186665 -0.01634650236464455 0.0286333819720891 
0.005475531634515162 -0.01703739539625505 0.001024954561565119 0.008077194270279871 
-0.02241499306966422 0.01360722189749672 0.02496929601205928 0.004489233271420488 
0.07057969227679096 -0.07881348031853679 -0.01349505031165339 0.004798602877827287 
-0.04611897338259696 -0.05355278251286191 -0.08092151120246674 0.1387478609539864 
0.03150460363625066 -0.00781662472069156 0.03449976991512779 -0.03549921878153309 
0.02532778895199642 -0.04105787136061262 0.02271394473648727 0.0006652787737592089 
-0.0123007983437634 -0.03626673834180526 0.1209619753179313 -0.06362620250083133 
0.09245907396020343 -0.04389544968167937 0.0006318489285530725 -0.07868072075711877 
0.08659200951844993 -0.007666221805995212 0.0137835706857812 -0.07043135578477573 
0.03594043587914864 -0.06190515133343849 0.07453247311275342 -0.03837855568558946 
-0.0008535790130160584 -0.0791112072719555 0.09949803860730447 -0.006743406540933623 
0.02632088911661977 -0.0069281413757658 -0.005268806613349824 0.007260917392979532 
-0.01764713189015153 0.04125227986749194 -0.02893733472699294 0.06045844814965948 
0.02440873123462673 0.03686931883351291 -0.03205825731925921 -0.01614255581563279 
-0.000112138908446166 -0.01824514758133535 -0.05947941878866238 0.04088981560772668 
-0.0635808881475261 0.06726896096589521 -0.09691754494874723 0.1312896621369247 
-0.004390509868187677 -0.01303875827820827 0.08195227131830622 -0.03669447592483035 
-0.02560232784587043 0.03982860881706261 -0.05982547693104436 0.04804875365373194 
-0.001981259983230183 0.05480313664416685 -0.04379385454487068 -0.03610875777182401 
-0.07476822676270428 0.05611721710042756 0.03097105347730488 -0.04488229988313714 
-0.02377557361212725 -0.03488758732981347 0.05946102258428237 0.005549427163622539 
-0.04677869115156064 0.0662063738321985 -0.00506347536847603 0.02194804001675255 
-0.07438335775737923 0.0247185979163683 -0.06950585490104851 0.1865275654347699 
-0.1072725522210314 0.07745742532251859 -0.02023232767053245 -0.004575768248887222 
0.009879375704924443 0.07358152921497459 -0.03826666313045299 -0.09843420202307362 
0.02059039954067922 0.0185954866055703 -0.01904363303807765 -0.009879266049454195 
-0.01907220303387181 0.04132107514852573 -0.01825280740006389 0.03814280145434294 
0.007068253087267684 0.02749727637230196 -0.04931427384697673 0.002210721782010077 
0.02656248210743517 -0.03381660144192891 0.0005274391214206542 -0.006815805189668871 
-0.07627889752921366 0.1184917795097832 -0.002928416148210481 -0.03427647400675293 
-0.02694862913746057 0.06296011557157796 -0.006901485316288312 -0.06084112460666815 
-0.001044458470009491 0.005322311743735394 -0.00607149251940817 -0.01050114830121387 
-0.02043311038043089 -0.01751279056248863 0.01017546177080989 0.02082083237816313 
-0.03776927053451806 0.0341148229554611 -0.03796477029217601 0.08336730125855879 
0.02655970629425391 -0.01646321701154378 -0.03587336894475818 -0.01013687765821473 
0.05010671934698228 -0.01897099979095189 -0.06623345117423818 0.009226992583905792 
-0.03106141035485391 0.05658287181406554 -0.04352799784706916 0.02284212489103194 
0.06179883767301576 0.008786288140665188 -0.01125749024837197 -0.03031523016576799 
-0.002220389182988827 -0.008848651764776349 0.02816366059052237 -0.01753277072987882 
-0.04361670747801371 0.05275091291302757 -0.0244561420805794 0.05114507311731584 
-0.03891916861767624 -0.0209973353906019 -0.1088343187804079 0.1310104323687554 
0.002369929705646503 -0.02406291394433209 -0.04198342822134591 0.05736057046394717 
-0.09081372998324604 0.112585230225271 -0.02814697598463606 0.03541572585344444 
-0.0249656609030747 0.1300209305888841 -0.03010046305868675 -0.0382353517192022 
-0.0004554516403118805 0.1167398506713105 -0.04670087572102453 -0.02913119630500583 
-0.09112116664051123 0.02668592761778694 -0.0165944033463166 0.0673843194465535 
-0.06686072243783701 0.02804252216159073 0.03684889214648426 0.03955827180170965 
-0.02415734131809437 -0.008427692730144775 -0.0789835267866915 0.08870512711722202 
-0.01035680537580451 -0.03564249304313971 -0.07384370460504558 0.1013304413914301 
-0.04304883112226245 0.0612983828432507 -0.04600191847372521 0.03847017186651974 
0.05776539471708135 0.007804729606764879 -0.02550712014092229 -0.02216413946939139 
-0.03401486520801447 -0.1059330888112964 0.2225501246312405 -0.05837785680498619 
-0.02066275631695609 -0.1104347634227086 0.2468387809103998 -0.07516002030554221 
-0.0004325146060255426 -0.02981697652626051 0.0605820377668232 -0.005104470079501358 
-0.01240332085565543 -0.03390628353983637 0.03414628555638016 0.03646992612205335 
-0.04740010096782667 -0.1184402490275256 0.2144334985187491 -0.05782985939040382 
0.02419957305693408 -0.0938446514013155 0.09989333984322274 -0.01689229356337159 
0.05936172312654125 -0.08186920509608021 0.03306142656776593 -0.03734645251694078 
0.001172149210858033 -0.01909202812593252 -0.001452976387149028 0.01904926521450527 
0.05060217338552327 -0.07047653661735402 0.02344769275316678 0.01795721182126218 
0.01225592067454282 -0.0353241733079222 0.005842220130216194 0.03986748307234912 
0.01069598815690845 -0.07016012105553264 0.002474665228028866 0.05758095837623015 
0.01520479395688495 -0.02190723145582975 -0.07794950088710198 0.07494246132938809 
0.03842280246765013 0.002867592371412294 -0.04096862498305291 0.01589221126318101 
0.02596345391784122 -0.02815034890504061 0.006127849072460221 0.01076906472692963 
-0.02709073010814755 -0.05218339050331113 0.1375024368302111 -0.05830188499704946 
0.1143535823475312 -0.04072645481597957 -0.01566690407560355 -0.1339618574975443 
0.0806960868688575 0.006722220444288301 -0.03714473669026687 0.02334428579412015 
-0.04357748590957031 -0.0730555134518892 0.1152433521725854 -0.001351650465673197 
0.01664676741289669 -0.002953698553497315 0.01261148791298149 0.02287001587680995 
0.03576826798710689 0.0002877055410182016 -0.03554789195390437 -0.0260033498765854 
-0.04312345191800464 0.07768701317511907 -0.02593068963968261 0.02802366507968567 
0.02982214568874069 -0.02137660589905016 -0.02175431836955461 0.00579592492314232 
0.01743008484522134 0.02317570124955443 -0.04060287643771234 0.02167804476425536 
-0.09746338924985999 0.06933308658133058 -0.05217522495809887 0.05997808448945197 
-0.03078651551904345 -0.02878071218804418 0.0682920517728811 0.01860188948304446 
-0.02123584485820522 0.01906602910190625 -0.007305696791393494 0.0343057290164038 
0.006844439681449926 0.01984890701330889 -0.03770417741579069 0.04767649205646178 
-0.1645809014667659 -0.005362689884992954 0.08330223740254938 -0.02405108814443448 
-0.03324222129619715 -0.09230113668995739 0.09177679571476123 0.007546928633531225 
-0.05332985006597228 0.02249357803189506 -0.01555228736459067 0.07431801711377678 
-0.05175518283149547 -0.0610859542648285 -0.02310348345904076 0.138297585232194 
0.06213721775652886 0.08787185084129737 -0.1203908721496446 -0.01705316311381046 
0.06820873868597147 0.07610767987292247 -0.01817251659772103 -0.08970439081090263 
-0.04068055825185712 -0.01174877086307485 0.02765174217994575 0.007022563802305148 
-0.07085331267111469 0.01026080913863198 0.04067646156716168 0.08451840758291995 
-0.02799714537747235 -0.009796473453171382 -0.03161915577450404 0.05308097931091202 
-0.03873616635638355 -0.05945981365373313 -0.02129642339934085 0.08756332755850084 
-0.02865009884741022 0.06325540071858125 -0.04828426366750793 0.01311702616489733 
-0.0196181865855059 0.09221486606304216 -0.02552187362929466 -0.01957526464461616 
0.01321538890642264 0.009329609706615723 -0.008852358956790462 -0.02943850866905578 
-0.05957081010839043 0.02187459264543382 0.01843256326372102 0.01394262393148597 
-0.08166553229214321 -0.0005115233103417257 0.03150001362063462 0.07613183578296143 
-0.0168137152443729 0.01628364606492931 -0.01575371456362117 0.02496012208668397 
0.01182415540673124 -0.03200375241860205 -0.02097549118992164 0.01531188744472248 
0.005485150290704699 -0.02903249146299871 -0.0005796136794595403 0.04549539843644672 
0.06644327616333985 0.003758254861985191 0.0142018834770481 -0.05045020278395865 
-0.004703882272509393 -0.02687350685191411 0.05507210435290317 -0.04037965578474417 
-0.08510214552724225 0.06751460401761775 -0.008378298883915364 0.03479340909969141 
0.01514766533020553 0.03602555763624307 -0.04640991403193351 0.01966630049043788 
-0.008884650633485817 0.01857962747556456 0.09478180382659535 -0.03527667296082608 
-0.149258479038317 0.1031537829638146 0.0834552525741613 -0.109087282579144 
-0.06125519823769555 0.06812006210518001 0.006082196418684959 -0.03066795853284516 
-0.05119736597502687 0.005852669139097278 0.04904798379926605 0.03349917034367387 
-0.0357791203704259 0.02866431309637081 0.0191948254106625 0.0006866277463397088 
0.005324549508593224 0.04171757322953126 -0.077569465276893 0.03917317011998615 
-0.01687420899802831 -0.01630191573708836 -0.07099348525117347 0.08903305902231644 
0.1024770252372958 -0.01705128138519637 -0.06916571902858142 0.007016385675380833 
-0.0329076983630659 0.05705242704991362 0.007614041356217374 -0.05720805423848298 
0.06168890496699257 -0.01340588343827788 0.007646237077084664 -0.04587333038820633 
-0.02762098588982767 0.0361685652888729 0.05866092135359326 -0.03864803561793111 
0.03546297616203384 -0.06810723586938726 0.07155515154839069 -0.03612490992314019 
-0.01080352427541046 0.00528092694686618 0.0149181728996277 0.009179867659869355 
-0.03744003300512402 -0.02164847126083049 0.08820507167335806 -0.02063860319272527 
-0.0248120661312955 -0.05781336736871284 0.09054939326625271 -0.05110987709602473 
0.01628985617476144 -0.07373908873338253 0.05273225038663752 0.00210055894844988 
0.07585673716697515 -0.05609818815913248 -0.0523909449544333 -0.02454076466452949 
-0.01483004850481718 -0.03435977177503123 0.01840268416802505 0.04050612035713883 
0.01239704285724948 -0.02147451887056147 0.03115358083111181 -0.005826031394501767 
-0.04564141062446325 -0.02858938238982864 -0.02932300538276962 0.1120594493380036 
0.0235645029308852 -0.04011362717781839 -0.03533181041737072 0.02743193712069343 
-0.07065895757166904 -0.0003307461179708747 -0.08575166953767271 0.1400943687197058 
0.008277631028464188 0.01970161147413714 -0.03439182097008199 0.02388396422518183 
0.02591827432319826 -0.01846359675773395 -0.008430269457640959 0.009822575984551074 
0.006927646905305258 -0.03577257228931296 -0.01284256052748658 0.06273410641049119 
0.1488503274181703 -0.05412419067756727 -0.0235421658152313 -0.114761604556134 
0.05057444385768978 -0.007990309372120726 0.01613163989784556 -0.01565643896500564 
0.07106068627079654 -0.01236226500346919 -0.02894057309581559 -0.001366053865649816 
-0.02649114098413502 0.002749905400475192 0.02913546265842671 0.01517530661807254 
0.03218840183485289 -0.05811960360887521 0.004401609255599714 -0.001218475678291427 
-0.04286306639301656 0.02360614174094066 0.007486096904297366 0.04403005478152201 
0.09076935339296355 -0.03639417866923321 -0.036302769321356 -0.02886673610369785 
-0.0483735983392282 0.01845508635243236 -0.0185553908575937 0.05603931608208104 
-0.1101247938787902 0.02858881558427524 0.0138106916930645 0.06726029057303547 
-0.03775870099980322 0.02522990159471393 0.01033637256930216 0.01284882082310253 
0.2246744630125651 -0.07258764763732758 -0.0731292843921772 -0.07497789062180571 
-0.0008039828048955952 -0.05850081719872128 0.03062568008241832 0.05692334979530843 
-0.1345565102453807 -0.07588577705615612 0.1229624228507963 0.08832294305478583 
-0.01579519740340096 -0.04307200253446775 0.05709573459020888 0.002215037770075596 
-0.03164654858895385 -0.02627860176858078 0.03467613469771955 0.05652563298220396 
0.09229745367290028 -0.08613625140130052 -0.02035619432067897 0.0297669892352566 
0.01874284920556195 -0.03851462411125745 -0.01685304685262013 0.06395292073561884 
-0.03048234504550821 -0.06024816124801022 0.04171932220320889 0.06587194047972988 
0.02166027243932536 -0.01880391946749074 0.01748892305092017 -0.03885688080133765 
-0.04521864928238529 0.04518339646986894 0.02403272090121548 -0.008087933740009235 
-0.02979161598426665 0.01221617412153832 0.01859075296549335 -0.007464446993527081 
-0.01903081607997638 -0.03648666543404522 0.01202537331734111 0.01514139223543768 
-0.01100796354287938 0.003403046723209763 -0.01100489955743236 0.008342877259948917 
-0.07342844558115207 0.05292249738091583 0.03467407766179108 0.02931969594755658 
0.07337345618134396 -0.0515232900803132 0.02073889475103494 -0.07866125579002112 
0.07862737243407998 0.006978659477514411 -0.0487359619237366 -0.08299264963606835 
0.02271294852331989 0.03478286971311045 -0.01226509006779218 -0.06246627581201027 
-0.01394441307989295 0.07408027403306054 0.0194049026054088 -0.07238126375305547 
0.03530432409192667 0.02658558336572828 -0.005634643279316746 -0.06130108532381 
-0.0440863423115669 0.02438000538144993 -0.003946893224307586 0.05394153483193766 
-0.0203453985682627 0.02659700764733682 0.038053644321104 -0.02269145936540249 
0.02225042618778603 0.01502849992726806 -0.01651814651330762 -0.04115567938437165 
-0.02565251400566396 0.02806571198046829 -0.01367017624888912 -0.008313750620122368 
0.131581444473161 -0.0242726195709774 -0.0713118426164344 -0.06382911833546373 
-0.02374412352913764 0.08224880964334319 0.01064166604795468 -0.07409480207200973 
-0.0443242173829736 0.07292455830965175 0.009345916819490716 -0.05929256499871981 
0.1227604770825869 -0.04050580362289959 -0.007487714657016261 -0.09879586236004437 
0.05209312336853884 0.0005129724730234188 0.006388731189319217 -0.08903340546373745 
-0.01359242636674413 0.03029321644000725 0.001951232513514868 -0.01925320988412598 
0.008424641815247385 0.0007597002257829014 -0.01402504831420676 0.01317188356285886 
-0.08220783737405896 -0.1156839815673683 -0.06448077411064307 0.2269703110073202 
0.01562359701036617 -0.0395944403856089 -0.05155451629720999 0.06852533033214538 
-0.1253675150759824 0.08958732332575206 0.02566103084488263 -0.01984855457135395 
-0.004185017205218605 0.01616455002017438 0.01605322480659159 -0.03053465672690327 
0.01803199631542655 0.103516950260842 -0.07953499667913626 -0.03214354993119019 
-0.02555987967305162 0.01495574011522324 0.03942210709788252 0.0009752038656017174 
0.03591008244686008 -0.03749582250047338 -0.01936029453505841 0.01271504328500506 
-0.05127372734023217 0.009170593205696737 0.04990987432166708 0.01980695831493721 
-0.06712404537366258 0.03576448484515134 0.05005759736339794 -0.01122239139236864 
0.04320433149617492 -0.01541885454960083 -0.02909494412624092 -0.01388602478976105 
0.05053111370644882 -0.00204864254989842 -0.03544854780462853 -0.02511316699993487 
0.1902915529217662 -0.08821159236042078 -0.06688768042690003 -0.06871394933694636 
0.001811529219989268 -0.01284555053764276 0.03222973270482854 0.0046665115344577 
-0.008159525018244096 0.03139856002099679 -0.008857345424924152 0.01228536595305622 
-0.03775502383824433 0.03480997381180126 -0.008534886675030499 0.03856436609488363 
0.08447312352940349 -0.07309732302061756 -0.06989873199435886 0.02154990326202979 
0.008251630376918621 0.009507237390434518 -0.00736548984758751 -0.003364598822547211 
-0.007741595820455949 0.009562206687012825 0.005677510360457523 0.006952317352407368 
0.004772657201143131 0.05985853792735206 -0.09566995714996653 0.02510278999557658 
0.0286740795879724 -0.0179782246271694 0.03430901476720154 -0.05251766447030776 
0.008896188645223378 0.02783437272248927 -0.009535340544867899 -0.02587273358659412 
0.04165786769416942 0.009412661563251764 0.03053067859734967 -0.1194653619932291 
0.004878237809939848 0.01765948346671308 -0.02283899938774086 -0.004487290206257696 
-0.002723783893697672 0.01146712133479086 0.01536776392935758 -0.05792460659346799 
-0.01290399477197693 0.05688509890099895 -0.01354941755272393 -0.04756861155582134 
0.08014628038382869 -0.02058579707244857 0.03172328570816281 -0.07991517628602855 
0.0762983348853483 0.01955486602054342 -0.04040878558773928 -0.05641156199801637 
-0.05663176173649334 0.0271767130045328 -0.01085115058069811 0.02506808430600618 
0.0006838735191304513 -0.02294787415540809 0.03254766709919382 -0.02469534024676098 
-0.02165504606431162 -0.003153111228251217 0.0936773713787608 -0.02090964140111362 
-0.04513128940332808 -0.02033689133486503 0.08961170347159357 0.03097687538524506 
-0.0752574609264574 -0.04307099011217549 0.04151137693340769 0.09727967002675406 
0.04226191779634918 0.001398505096674833 -0.009500472395586346 0.03187562495341015 
-0.03625500984891457 0.06548060110044303 -0.01143923016040925 0.002625058579596541 
-0.05323387193363111 -0.05607143795862567 0.08638198272906004 0.05630153979325705 
-0.07100392840020121 -0.1415961768246293 0.1410640836334678 0.06395084888476964 
-0.1097589312069585 -0.04405035444372199 -0.02177475109030826 0.1562401156697465 
0.07026800465544769 0.02300227277560734 -0.03851839074494321 -0.07069652092704165 
-0.02125370506732736 0.1185585087505955 -0.08411275203683415 -0.0225348766110476 
0.0290214331993586 0.07242735109014781 -0.06317304760091629 -0.0609823821010727 
0.02026487133334581 -0.02425630092219572 0.06259376974142113 -0.04816371886294618 
-0.09654912322703843 -0.03680211822632284 0.08522297571319395 0.02735496567261037 
-0.05450626627234271 -0.01358191153179352 0.01907668788371741 0.03962444786337355 
0.05719887859663099 0.01263950267375325 0.005185436557411324 -0.08811594925463268 
-0.02221846765457201 0.01937454548045612 0.02450774586985375 -0.03298355203856235 
-0.02578290376953314 0.0785290968592359 -0.03910175376458081 0.01373384488229158 
0.04456829763333574 0.02360888084163782 -0.01150555706787712 -0.0444368787437403 
-0.003058790578743004 0.04581818611645633 0.01179861169928475 -0.05687522463287251 
-0.07990946863882684 0.01882295822835735 0.05745579435882985 -0.03146405140058792 
-0.01267407092484014 0.007279378657580256 -0.01138639567325515 0.03357017075268768 
-0.02221177884147614 0.0184422341306658 -0.008409751221057603 -0.01428707958193851 
-0.05537268055480771 0.08069686279312595 0.02177027300929878 -0.0690762722004456 
0.02073592147719943 0.06452737706549178 -0.02284691595790311 -0.07285876670503406 
0.06837153568005952 -0.008018213495985832 -0.03322825099357701 -0.03599903140203022 
0.01608242770099988 -0.008863761431877738 -0.02305837838111736 -0.004578867062617876 
-0.003509647221777704 -0.06418868732076811 0.02721471949324688 0.05207904416919909 
0.08287559297982076 0.005913844087030309 0.03773294330062221 -0.1277948805769831 
0.0431221501985922 0.1050185639698821 -0.142012101349455 -0.05191358444969238 
0.03111146946702553 0.02154201972028066 -0.002668960906614349 -0.04500711737549489 
0.06603491298212195 -0.02058425052887709 -0.006479795277622795 -0.05897577808237584 
0.0004631298102189174 -0.04071617187771375 0.0006011232749780714 0.05472478505348199 
-0.003395442931034406 -0.04111588531249626 0.01263935833493156 0.03780785148715347 
0.02964002066995908 -0.04992327457068003 0.02142215638944768 0.01352396933001188 
-0.000499595431161079 0.1312014733700892 -0.1239316464996979 -0.006028080013718334 
0.05888935151146223 0.05692039135565877 -0.08629783955474468 -0.03030558382007544 
0.01642882630521138 -0.03395022164102041 -0.002032622369128604 -0.01221141933574433 
-0.04180427604827405 0.01806626441555193 -0.01144418403575543 0.04914231084841843 
0.03962038687543497 -0.03268085634337808 -0.03150324510172375 0.08075561786870622 
0.009377556832610193 0.04254755774556582 -0.05028785666315263 0.02256308404435509 
0.09192975141990811 -0.03680643841433544 -0.1077195892256273 0.04465345293439205 
0.04544767357857874 -0.04396640618410193 -0.02495962120735495 -0.002626389318513468 
-0.005452324047319594 -0.01550759722664409 -0.02943818336823823 0.04708532177995069 
-0.025156107279823 0.07420895467915432 -0.0121422130188798 -0.02209258281181171 
0.05531675635299749 -0.02337970800831621 -0.02944364064467552 -0.01946567873288537 
0.1140496022915549 -0.0148281637659884 -0.06595346356415037 -0.1026215643898246 
-0.09798245403326607 0.02612868752498493 0.06769266329400278 -0.04012260504697652 
-0.008110252406480932 -0.02879334494634445 0.02905266681746869 0.02876792355254397 
-0.07269850095235098 -0.05109302141573342 0.105734448011042 -0.001550273401893432 
-0.01581423850057628 -0.04569639545392713 0.006684749620727609 0.03201104680485792 
0.02665688379063275 -0.002669367251766283 0.0262361095847563 -0.00819660483669666 
-0.05968113530919958 0.02862743701798886 0.05295572619245659 0.004333729006139547 
-0.03562082888532953 0.0198188692418514 0.04669989623411126 -0.01614257264297412 
-0.02643618517573216 -0.01839114818889653 0.03711968164157784 -0.005537009648953884 
-0.03626747294192788 0.08617497346663164 -0.0593099678279035 0.01625140791503613 
-0.05568634253245075 0.02551106683494709 -0.03995450305337899 0.08287190746335792 
0.006789108244454855 0.006078072942080616 -0.007815500368640559 -0.01364098663695013 
-0.009312686918937812 -0.01387821775603142 -0.02947956865403518 0.03193680813655179 
-0.01838412924975685 0.05017439766744872 0.04280715508933535 -0.0396533444540989 
-0.0590690455410493 0.06729918482787156 0.03277750087428834 -0.007081488691933011 
0.03915540880803853 0.02813759152707081 -0.05493336985622242 0.006885442005240823 
0.05755497103359551 0.07031292885173518 -0.1263235239101809 0.01183857124434205 
-0.0007720885662356716 0.005348510171262095 0.02373555383301554 -0.02067345546352736 
-0.07881043209016658 0.06842243337768734 0.007591402102077188 0.03904143023500565 
-0.07504901201223212 -0.06041171435284707 0.1028078688997411 0.04008952085363639 
-0.0428592365999073 -0.1708069174283045 0.209513221680522 -0.02760177823756733 
0.1211648179288838 0.03731533279642425 -0.1195238469493018 0.002369994515241036 
-0.01865017498902221 -0.005847501461127376 0.06132244404810055 -0.013132588031227 
-0.0626942242641917 0.1252077288863441 -0.03585494531184982 0.001046387518044814 
-0.08410625221355052 -0.001959640122253511 -0.02115449193855121 0.1332771551170606 
-0.03343927524484287 -0.1063113691371672 0.1061850029650667 0.02066083102794195 
-0.05926759128614453 0.02748708005829491 0.1313496223361113 -0.09488662617661155 
0.04288601893847933 0.09080629100833486 -0.06016842312745658 -0.02757696974262156 
0.04094023836645025 -0.04594773997071251 0.02570643820527567 0.001864429873425032 
-0.04128168738702459 0.04963317632809158 0.03761838344743816 -0.01537205998950486 
-0.03849014263812844 0.06499560467230149 -0.06026317046121851 0.0736712021204836 
-0.1025068709188736 -0.03955484010040846 -0.05648192744747249 0.174983983483632 
0.004070428733982858 0.03693350674987514 -0.04435651137040793 0.02381959260056666 
0.02977777319817784 0.08625874416353764 -0.04253773454311537 -0.0508007000034914 
0.0689545526935253 0.01525772718049419 -0.04910450322212898 -0.008541714539568849 
-0.01461878437011689 0.09703552806587354 -0.02836009072058607 -0.05079126470161863 
-0.02256557138229383 0.06634840941796293 -0.01877527242682495 -0.02288002789995045 
0.01708220945824145 -0.007526799094658406 -0.02187464184682296 -0.01337765088533579 
-0.02018651294946014 -0.02631390934853476 -0.04722919419495947 0.04649796216691635 
-0.02230690869465034 0.05256387339629309 -0.08143798965614206 0.02466722815164731 
0.02222741456181503 0.05610306437177018 -0.08511048568067782 0.01720895554956559 
-0.06947102488685861 -0.001544395646384114 -0.03183677686819678 0.1054771426818352 
-0.02821673044554056 0.1163890457723564 -0.06178213448449875 -0.01754738762830114 
-0.004579708615372826 -0.04082754290088974 0.07979352048234914 -0.0243604108040325 
0.01050839082516341 -0.05996297964053224 0.02141595506258934 -0.0005005658154978889 
0.04660034518071159 -0.0573096805873738 -0.03552283322992244 0.0008409990570037444 
0.02312320093636038 -0.03673039417584374 0.0001514198074473416 0.0286800463897177 
0.05199411018960782 -0.01199987185797043 -0.01245603937890824 -0.01393180652209291 
-0.03164982061526823 0.05207400288641408 0.05259127684434999 -0.08353545532286447 
0.002704980031290799 -0.07317039299318862 0.1394020653244878 -0.1039264910931375 
-0.01389564822743361 -0.0473096973342693 0.1161667847968991 -0.01511116395338958 
-0.05968195255338475 0.05098262734354884 -0.01597401276860595 0.05500079023183015 
-0.03047178168157466 0.02501747014039133 0.01260628301358996 0.0182577945573322 
-0.04925683433023362 -0.01361061812437806 0.1485342754038296 -0.08421128167065488 
0.09300475666043732 -0.03553438050933699 -0.03470842093600982 -0.04648991842377901 
0.0415559391053132 -0.005831221282914798 0.006016184747000905 -0.00267972406268218 
0.06354684191013393 -0.02533869920289342 -0.05140086929317777 0.0006018503535869229 
-0.08527659382428326 0.135633210462175 -0.061896982967296 0.0309949587525075 
0.002599794449285095 -0.0001335016169838727 0.001681601198898455 0.0005779616006615849 
-0.1173595217180776 0.009201769579466498 0.01974462034466236 0.1232935049057273 
-0.05079969538094376 0.07804480212577829 -0.0436252921043278 -0.05203331313521815 
0.0156489720175081 -0.03057721637083623 0.0249675067401781 -0.01035290104168065 
-0.02678683165644319 0.002089343577479399 0.03649249615633684 -0.08036940806985335 
0.06440479437907207 -0.007773567907194637 -0.06881880177107012 -0.06843636983988848 
0.08615451679514062 -0.01522505394242914 -0.03488940609016346 0.05029037858148599 
0.06725712908702693 0.02012516210806588 -0.01171389598967379 -0.04111240500483471 
0.02041702562730211 -0.03323467994147215 0.04560432052595438 -0.003045585638047394 
0.008211234275022445 0.01575864369725615 -0.008193635017053601 -0.008089191993291224 
0.04190044372472424 -0.03093362913243419 0.001676874849842933 0.03551838066157621 
-0.02366495637586476 -0.01505208966759785 -0.08475023782186449 0.04672221963348826 
-0.04462288925644076 0.007829170090721064 -0.03592117521440207 0.06289976478349452 
-0.01019340537406184 -0.06479133352622331 -0.01789111321289828 0.1002770681846074 
-0.02614451125363948 0.03108762471391176 0.06949384245086956 -0.03754690220791796 
-0.07054993786530073 0.05990072722248255 -0.04237295633737458 0.03937624667091613 
0.05491969012682553 0.07719109983109744 -0.07777095379221892 -0.04202100392524125 
0.06904446544434278 0.0007962918446565119 -0.001714710239347276 -0.04650399373462565 
0.01562070933191735 0.009576104225602431 -0.002859023631558709 0.006534560135255767 
0.004009840816662648 -0.03263177384065876 0.02724688551683709 0.04311195805193471 
-0.03463654701229033 0.005949288375564613 -0.0398441582186496 0.0912016494475836 
0.0009680708435698789 -0.01393906256251695 0.06478318980628685 -0.05422870938619715 
0.1035230641788061 0.06695661152345932 -0.06731339377759256 -0.05645922555219145 
-0.06460212737166728 0.1114147229637549 -0.03654111361373782 -0.03548701048341397 
-0.03721262196364631 0.1185275489393697 -0.066726554196824 0.0215446530478859 
-0.01295313470674525 -0.0256580435796191 -0.07931884399174943 0.07382579288819004 
-0.01369309589036171 -0.03319278212827433 -0.001241454292117909 0.02214614010593136 
0.006090527825522938 0.05499576696221728 0.01127122147607977 -0.03083508895936117 
0.03023300649489031 0.05723637564030507 -0.1359465942249907 0.06782355432081744 
0.02014820846308579 -0.005295016639360417 -0.008544149837948344 0.01303387057694166 
-0.08739001638257821 0.09295415677957633 -0.007935457856120204 0.01077233760236462 
-0.06983686567255512 0.07020385256075852 0.02677563932481454 0.03217971099517132 
-0.005099005842864636 -0.01037029328989767 -0.0148884772928862 0.03423018037656868 
0.004855556617539268 0.0008614203187884281 -0.08038238796793006 0.07666214979018432 
-0.04555066148794321 0.08910720276810824 -0.0887690078557368 0.08450873501894504 
0.08618344306180438 -0.003766805006683977 -0.045653708082119 -0.0186352008548057 
0.01340576267165574 0.07063214687693117 -0.05857817503922487 -0.01713770347532782 
-0.01450973008730789 0.01803061522846875 0.0356019615171293 0.04259457374170579 
-0.04013099209423361 -0.01483132890308521 -0.09136336867670844 0.1355439289124587 
-0.025910967132826 -0.003122152054273537 -0.05645547847592865 0.05844738066585893 
-0.03292621428009858 0.05546497057099221 -0.05923052565546497 0.05841325984231436 
0.02515541313660451 0.08237143294913171 -0.1834507736218076 0.06758302698487016 
-0.02924368990090265 0.02423731096554579 -0.1054425147650591 0.08796220011556609 
-0.028887497230998 0.0857593202181824 -0.02943350326161295 0.007872940888245356 
-0.01790716252852964 -0.02167183555422262 0.06916559830205792 -0.0009366300510991202 
-0.02700425133962771 -0.0465222601008598 -0.02978387818911046 0.08877800247967917 
-0.04456364336452559 -0.01959649840976389 -0.08323996398488828 0.1137591399514429 
-0.06875028219914016 0.05874776328959661 -0.06781697730909099 0.09398126763350322 
0.06535784481114314 -0.007324153496118739 -0.03636506685137202 -0.01904595723186714 
-0.1367076005742416 0.07161181954472148 0.0470722578329519 -0.09538370760029675 
-0.08238673603942456 -0.07042811074275115 0.2479384732705914 -0.1596538873682868 
-0.03789887421839817 0.04126364057350798 0.07567446013985134 -0.06432603067742156 
-0.01996381560104344 -0.008056771884037627 0.04250495482468722 0.02005622136925981 
-0.08506761384009541 -0.04813700779143599 0.1557653493988525 -0.05939980048462867 
-0.07394057982420578 -0.07881861763675739 0.2549407648862831 -0.1508486952318974 
0.05032090739794688 -0.1057839058818083 0.09745969450810565 -0.08880830562556469 
0.01087239263127845 0.01534279429510532 -0.009868666592328637 -0.006578992705199256 
0.02754280449843137 -0.07446328226910541 0.0300901233130353 0.04658202495285448 
-0.009867116973304306 0.06198750857242805 0.04360640280953209 -0.06834603897437845 
-0.0002291103156194142 -0.04294967964631908 0.07297429668943575 0.001064393306242903 
-0.05014272140607076 -0.05635637329002487 -0.00762027450865411 0.09733848518158894 
-0.0125998955138764 0.0209973632474753 -0.010344405422029 0.01136342700220412 
0.02561440666497285 -0.01600251367155404 0.001989338039522729 0.005619529612750221 
-0.05882557210479368 0.02746002121498548 0.03742495892366836 -0.02605584287817514 
0.07843977669123268 -0.001072728511519339 -0.07929163153406603 -0.02878492324834128 
0.07197087154455106 -0.05699852978534231 -0.02179871148813627 0.04414311849146536 
0.009341954351959119 -0.01939701507391891 0.03088943652560166 -0.001483650834000305 
0.06089286592573484 -0.02121503277610502 -0.0225518614097867 0.05090235177315144 
-0.01454729049679366 0.02378901908033028 0.01552434722226617 -0.01211334282055287 
-0.07316326000347326 0.05679263638653975 -0.02226107644718826 0.08427445721943658 
0.01856972669004161 -0.006264625655088425 0.004006342328805423 -0.007586110638813559 
-0.04008457231829993 0.03403156093739503 -0.007608477416913123 0.0577218506235311 
-0.05054934204842618 -0.05896351336193041 0.07728116701251976 0.06330542229328694 
0.01017704691525388 -0.02841897344707413 0.02559372225643152 0.01006883352862692 
-0.04569876980503468 0.001742141574219411 0.01287998695801175 0.09100376061952067 
0.02429009153287707 0.03344827220158986 -0.07269204253749784 0.03863975490282772 
-0.07138374079757169 -0.09334132518294927 0.1878315556090301 -0.04978318487665674 
-0.02917832853004976 0.01768166528359506 0.02954871682457181 0.003862656285939887 
-0.05258601756530189 0.03004993913283802 -0.0060756728096841 0.08779833181556376 
-0.02926392489316873 -0.0401866018030692 -0.03642463910005886 0.07987508623854131 
0.03937596380706274 0.05331204835567639 -0.0668917463096016 -0.02853700382501925 
0.1073630565988596 0.09263446228420348 -0.1079346174485281 -0.04996193169616627 
-0.02248091489185204 0.08825870081654932 -0.05870669078333077 -0.02970209513254065 
0.007364277704708966 0.04811736531198309 -0.04252065496348917 -0.01934256365861459 
0.02077373783514265 -0.0187140169510613 -0.001028249934131764 -0.02393943317990859 
0.02065400275637718 -0.0300769660733571 -0.04792069421596919 -0.004426310802570456 
-0.031762765817718 0.05809775532745022 -0.08186442237549421 0.02912021276148903 
0.04567305248280703 0.07473723824817502 -0.1057377882283514 -0.02606256151196196 
-0.0158656351907342 0.02025751786198333 -0.0230664760969474 0.03110957880565966 
-0.01661881274101565 0.09556542592762733 -0.03505140333697841 -0.01463130061457001 
0.01664133753306013 -0.01660997921838946 0.001520344051525962 0.01231672831052198 
0.001026774466975803 -0.02430093507786677 0.0420870773376052 -0.02022161764730463 
0.0473883514041273 -0.04081290680396844 -0.06091038202341238 0.02445940368615115 
-0.01807393171902528 0.01888026827382248 -0.07510381209349501 0.07872096541115924 
0.07553476683279317 -0.01416882358594836 -0.01599252044752058 -0.0348999629914209 
-0.02071423278916496 0.00181546080620413 0.0400739724681668 0.009049300824956226 
-0.03629369316373885 0.06485665998780871 -0.05252114590828254 0.07866367721981853 
-0.05986829198713302 -0.05063871250580694 -0.07686705304691289 0.1820295728428044 
-0.02541475915686621 -0.08158070439760651 0.1657560413072499 -0.03011354147240385 
-0.06430819504552843 -0.006565310531138863 0.1369162528781095 -0.08478317852279142 
-0.01543980660294554 0.09825384377899306 -0.09034388877217983 0.01698214025789089 
-0.06558237842989739 0.04277135870482793 -0.04966198054806088 0.0898007575665425 
-0.02194841875675821 0.07222603998052658 -0.04892886508814109 0.0351292747513743 
-0.031858036913137 0.05130465902362725 -0.1100863687926492 0.09278600247411913 
-0.08730820686204764 -0.06271491626372142 -0.08024425122000761 0.1791137441414748 
0.06567480545743172 -0.03255983760974083 -0.06634512629188555 0.01738998108541923 
-0.0249206251157578 0.04547185057967987 -0.03115555946395388 0.009550913275248868 
0.07607360052803296 0.009138277472384118 -0.04174036295905818 -0.03748057971689196 
-0.08703155167361459 0.0937474154759315 0.04299762659496448 -0.05924913885446416 
-0.06544260639729282 0.02541970978779444 0.1462263110761484 -0.06825943832380241 
-0.02660924506168874 0.072929367380845 -0.06693353184461635 0.009504978273617962 
-0.007058556786992315 0.0005072151706763707 -0.006294293006870914 -0.02866461005692341 
-0.07696180363436646 -0.05906017495415934 0.09628648415562363 -0.06987335478951305 
-0.03712636086520248 -0.07076021328051244 0.210835155663362 -0.07507106167053587 
0.0627824038409573 -0.06804288499770283 0.01293122360067825 -0.02636683986298948 
-0.03595959212362897 0.002641500093569444 0.01327621045891814 -4.975674210492339e-06 
-0.003902003061370017 -0.09163432399225295 0.0703376517602978 -0.02987287072382235 
-0.010052799360687 -0.001418612956057322 0.04140886164264179 0.002929637873871448 
0.02464401077873354 0.03563307113165259 -0.019506909477491 0.02237206005744941 
-0.07616748577149336 0.004112179466590576 0.03730562518959802 0.08409776007271719 
-0.02015062976995978 0.04294229535404291 -0.06963689995683048 0.05219022739243519 
0.003503314305603778 0.002052608763544794 -0.007094580571382971 0.01908403690059458 
-0.03763126069010463 0.02443933631319405 -0.006885189152529627 0.0163904083796314 
0.04175124022738087 0.01841187287245493 -0.06039939874533171 -0.07202934498214442 
0.1186745352913642 0.000467308806804106 -0.104961164474429 0.01078626433002727 
0.01522379249948541 -0.005201288241896241 0.0321739989663081 -0.1099448177906251 
-0.07106799940811448 -0.03103593519927425 0.0534428239355324 0.03334563312974356 
0.02331196294025195 -0.02199475851551584 0.02102209658660134 -0.004358112729486456 
-0.03535728341620414 0.009527659247584586 0.009606369519514303 0.02698449037539404 
0.07737665506798699 -0.004305882460332563 0.007771078158141831 -0.07780181880010703 
-0.02224237735182938 -0.006493596873424212 0.005502695650415038 0.03323453304420661 
-0.1511829584259031 -0.07274332044396664 0.1476948616907984 0.05774135600063681 
-0.03748373322507387 0.01674818873555521 0.01768173443862699 -0.01433237036186747 
0.1868468012292497 -0.06556392010426196 -0.03858271940559396 -0.07266957069860347 
0.006758890171682472 -0.06937155215962033 -0.01020640024989103 0.09653037067019801 
-0.1819690350360554 -0.1907728825751463 0.256714941630913 0.06471332050593757 
-0.04449255950281255 -0.04517213039760287 0.07915086191983618 -0.004775228896062832 
-0.07634550635390594 0.1232219792600647 -0.05920964318402111 -0.01015021615472309 
0.06532162656004173 0.04858777781724819 -0.03302594214939857 -0.08505416209301186 
-0.0478222863161409 -0.05577541465400814 0.01906539416376872 0.09727580538023484 
-0.01395133155872212 -0.07859259518624952 0.003191672392127456 0.1366651966217612 
-0.03671523398322266 0.06863523721581308 -0.004057092286973874 -0.02073261692961238 
-0.04361748116944016 0.09627615979475046 0.004661720418436868 -0.03492372635775 
-0.02235746041247115 0.1004053666744631 -0.01992600840298575 -0.07586018352955046 
0.0443454336414564 -0.01226994954377151 -0.006436104945158433 -0.06601957966380702 
-0.03394961320027203 -0.02259472073907542 0.001889721526477213 0.01872249806847472 
-0.05165947563007861 0.05339407809501658 -0.02409129297805454 0.04452225376964303 
0.08493266996191606 -0.0166747662633882 0.06062438607457685 -0.1244314080426401 
0.1264742317128019 0.02264796765982221 -0.07939856231602488 -0.0775339781538355 
0.05283179363729093 0.0560737643583442 -0.0594294432750235 -0.03462955121325696 
0.01835605344619026 0.03117777956294634 0.01718601439029961 -0.07343783776632229 
0.09264283681765774 -0.08121179229156542 0.01281152771868513 -0.04519771168876087 
-0.02422320182605996 -0.02344877360682768 0.02400272276020914 0.03284540101197949 
0.03335413680149781 -0.008462842111535458 0.01299223748518281 -0.004802100696856628 
0.001702284597430452 -0.002735169741203259 0.03263820150424217 -0.0391162204324528 
-0.03580124084241812 0.124825005538103 -0.07171096989322545 0.01122300619843416 
0.0897606530483996 0.06141966703883805 -0.08692928601918604 -0.06708448824525132 
-0.07072145803260853 0.01147639337258135 0.1259497285012894 -0.07445905817539056 
-0.06776765964310651 0.08524546281523282 0.03474351818875564 -0.08473540044154204 
0.1113124005371189 0.008119532591102796 -0.03717951923158032 -0.04483737803108064 
0.09174731593100065 0.04008507077971512 -0.04796231954317065 -0.1076154522347903 
-0.03318520185011365 0.06554202210868652 -0.01117008969202024 -0.008130476165025394 
-0.05422151344221789 0.0881236234610944 -0.119615728670408 0.08501957012063982 
-0.07631326410792399 -0.01368971575042139 -0.04886010747447744 0.1047304429476463 
-0.0101727296628552 0.1164030598364783 -0.07692952236853087 -0.03680967254944143 
-0.09713153554025845 0.1058706650522952 0.001726165957535206 -0.009892046384062022 
0.03498686774352758 0.00864628307547868 -0.01288344307381968 -0.003625514588306674 
-0.01875404617844316 0.1569547936430195 -0.1856416069980678 0.02233194303768928 
-0.01997460513592244 -0.05943844191257528 0.05784198110023234 0.03940542412812692 
0.008864972822850993 0.03730411766230142 -0.0635622315371879 -0.005115223449894274 
-0.157484886310792 0.0625463108478817 0.04331171602058217 0.02498524096066239 
-0.1013493845149535 -0.04602675061507579 0.09800386414124355 0.02523989209745905 
0.00605415061396525 0.01864306695821919 -0.07061812620389957 0.05309790335175511 
0.07566564445620992 -0.08707370999458119 -0.08601887508482225 0.07287477509181373 
0.1428302454611917 -0.02641788429499113 -0.07017327109421494 -0.04761662594336773 
-0.05389104423360598 -0.03026462998527748 0.05354586638337033 0.06763403847132968 
-0.03121010350542468 -0.02842808385647621 0.04009204684721679 0.0498331017609675 
-0.0229888342690964 0.006179760995320055 0.003680275113100307 0.01772582758761929 
0.1064565160933158 -0.01196402742322512 -0.06294718539179688 -0.05880916844323885 
0.039851501492515 -0.03011857887855151 -0.0404613532017166 0.02937615489237543 
0.008832705521468238 -0.009167220198506623 -0.01432347356095459 0.0198858787085606 
-0.03382100728930224 0.02193666471142074 -0.03614309581909908 0.08953753825710706 
0.06923295224597677 0.009599731033579063 -0.03217686248490842 -0.01931321771950303 
0.0827764731773995 -0.01042104696853526 0.003867110713108521 -0.05048302372874408 
0.05730677425550896 0.0006457791182828023 -0.02583899910310306 -0.03938146958605139 
-0.03971211086158177 0.01530780542717821 0.01714286022421048 0.0233716863560753 
-0.01560506029322752 0.01170168077043187 0.03849737249076536 -0.02190380022858815 
-0.05677158013695585 0.09934279805748367 -0.0108179802947128 -0.03577686790658038 
0.01679997061021299 0.04040297494502083 -0.01711715221685721 -0.07427452821465316 
0.0412625995751713 -0.02175754624996301 -0.01988162785223897 -0.04222228901177415 
-0.06039736818185946 0.1325236675185572 -0.1283947172610888 0.01649975658517567 
-0.03416818342547873 0.03203131998702635 0.0200652421012022 -0.05201966013786628 
-0.04462124810894722 -0.04454199090951211 0.08020359731721581 0.01806366042572707 
-0.03475152289314567 0.02552498223420944 0.03643759475313696 -0.02115298701825143 
-0.05873855873646964 0.1119308616613048 -0.02798205915918335 -0.04111176714958702 
0.02212085287068977 -0.05824554560601269 0.02519324125286529 0.04918837896787727 
-0.002921019854341511 0.03427548750873756 -0.002707794879057633 -0.006866149334098858 
-0.03929028864724627 -0.1565501091964203 0.1701281098317513 0.02424217346628717 
-0.03971436052275506 -0.0603045813368117 0.1205870657713773 0.0132592365666249 
-0.04166429108702213 -0.02971876180950512 -0.01064960008549107 0.07754679549698795 
0.01697614834676113 -0.04205038972947437 0.04971960803942246 -0.03153856914800656 
-0.01965326383629634 0.03397332385531331 0.003129694322239243 0.01159664477167489 
0.07518886191784381 0.06379731719464844 -0.04532073255225857 -0.1215347013937848 
-0.06517175855935263 -0.07558985100197804 0.02850244144688877 0.1256847313830874 
-0.04695643542710561 0.04703226530449912 -0.03951840329698213 0.03448388247626512 
-0.02831532942432206 0.05815320607225424 -0.02672468420551313 5.967166326499393e-05 
0.08679957642505151 -0.004377935874180578 -0.03605999382121324 -0.05629739020163763 
0.008775636861782104 0.006363345880108593 0.02581506779797369 -0.03787409495696677 
0.01014357629925747 -0.0287743017737241 0.01163745113286208 0.0121924157899652 
0.08694068686012825 0.03599893694406851 -0.005757376151253189 -0.1317516730568695 
0.0325760499226026 0.005127373672899542 -0.03363385569960776 -0.04195645485448977 
-0.07965795477948714 0.02912152836806789 -0.03259746076240507 0.04801392948038644 
-0.0275549263813017 0.002570708413532958 -0.02349579833880855 0.04556218593214192 
-0.002743937817289724 0.0520339212927387 -0.01265139480908479 -0.0217345231961274 
-0.05743826211474928 0.1238145745321723 -0.03353649693929626 -0.01498972702242191 
-0.005351890362489407 0.05571836074017409 -0.008441520538805976 -0.03176976634379412 
0.05650979601642728 0.0103183746417872 -0.01799995886653418 -0.06794149183296375 
-0.02941374412192512 0.02713817324202705 0.02526846254692527 -0.01573004047022235 
-0.007706297461036445 -0.02967289818235308 0.01702301486833353 0.04842080693800953 
0.09346149920473285 -0.05260603429083951 -0.03261804658193765 -0.03652398129513158 
0.06267408864410517 0.02569431208478451 0.01709852403668263 -0.09392364306084663 
0.03083962692972502 0.06644352713039992 -0.003125330272310107 -0.04805970458896774 
0.05831159193218258 -0.032432044841888 -0.02651782977413636 -0.003493311295039994 
0.04777291439207947 0.01467421922233183 -0.05710781326309652 -0.001245429029305105 
-0.02700080714969673 -0.01732775677448535 0.03479905374912839 0.04734220923644269 
0.02138534809664566 -0.02611822523720902 -0.01575894493040461 0.01855737689614681 
0.0403490199103902 -0.004093017954583589 0.005013321004709453 0.003184829880157689 
0.01164074840271828 -0.02338221213965841 -0.02541120116901008 0.08673042321097404 
0.03226566641960715 -0.02781652549738411 0.02943793115688991 -0.0180082010273031 
-0.01848861748437276 -0.04418928089426795 0.05246985764475717 0.03666531491241976 
-0.001669647572791664 -0.0699855668406867 0.05549175144274111 0.06511926570375044 
-0.06628552421560946 -0.03310645735514398 0.1016476351591152 0.0362611895453228 
0.07153311848491815 -0.08396982403956606 0.01423964068294855 0.015875018678011 
0.05211322243711343 -0.05922375832073112 0.008223898950866974 -0.007797096103946558 
-0.007357707861464152 -0.01482551976822055 0.004338866318383724 0.01905014085452924 
-0.05937426504862924 0.09745872434639008 -0.01431185202702617 -0.05853932870696956 
0.05921668424367871 -0.06297766442924355 0.02102406097655202 -0.01487720494601025 
0.1043881561605176 0.008331937255329894 -0.04816598576973766 -0.08283693365496726 
-0.05872733544863901 0.02591842465906301 0.05606113979342207 -0.07709372817521999 
-0.01664105672450459 -0.01840421530430786 0.05453664752670571 0.007934015999275696 
-0.04705333929069916 -0.01786013014344764 0.01331383090979428 0.04632946221017152 
-0.007855260017096587 -0.1077171992201173 -0.008425403683863459 0.05050588919814442 
0.04567357432049352 0.01169517739128792 -0.0270401134002673 0.008986037637614776 
-0.004445805348167597 0.04967669850808442 -0.01296186048514297 0.01385932409992595 
-0.06211106272872474 0.04328340561467792 0.007095543179686312 -0.05743168820008196 
0.001062565678823256 0.01550738033682051 0.007621899668960543 -0.01048449203436004 
-0.0495718208910583 0.07468206337767719 -0.01745042811784318 0.01049983977292556 
0.04948696847381878 -0.05752144739910733 -0.03986454012547597 0.01868205345549225 
0.003927807988557253 0.008451913298861502 0.06757586325306901 -0.0115776127486546 
-0.05335245088432019 0.1539370707403854 -0.0441973066279511 0.008244853268237677 
-0.05987865235914431 0.02794999479759712 0.03222989298752262 0.00379004768797446 
-0.003488922957104902 -0.04620298354576084 0.08448399000799593 -0.01546511474014529 
0.009246741554606587 0.1127732296695452 -0.05031632932496464 -0.03797330130492294 
-0.03266290535859374 0.2745250004437893 -0.2181489974515031 -0.0519865750895827 
-0.02258801245078425 0.06108951059363531 0.02448837514323739 -0.01676711439931569 
0.01288870790308266 0.02825791570361712 0.02899616210951728 -0.05218403471453121 
-0.007498518716723017 -0.1279526712019379 0.1501402527562217 0.04747935706548928 
0.06227177753156948 0.0288454190151166 -0.02026481675281538 -0.04136858374692741 
0.1343379345580889 -0.03196132000943127 -0.03113586879376813 -0.06318699861556737 
0.05902904078676223 -0.06841878654767306 0.03597238220385156 -0.01573328787903832 
-0.05153068826059382 0.1320167024228902 0.009022866858465759 -0.02946488538742983 
0.02818426574989995 -0.04300588216780115 0.01187185857770837 -0.005423790207192934 
-0.1260022957992299 -0.1540247892619969 -0.005965201796045099 0.2298884094232605 
-0.01652422107981545 -0.06766894365594786 0.05472845740957093 0.06590611137830149 
0.07162263172713558 0.04398398753910635 -0.07100946569472874 -0.03845611713198567 
0.03531944263680127 -0.01250400566462642 -0.03221217316550233 0.006876827543100904 
0.03936616658155186 -0.02133103416119242 0.02644872996108341 -0.028465834280818 
-0.08582150173760598 0.0119668326706987 0.01685246847006341 0.09763302107976772 
0.001534484435824076 0.0001701882842482538 0.002053171934647004 -0.01306862909791228 
0.02891301067206569 -0.02206612444301554 0.001728442188294252 -0.03368349725456211 
-0.02104341640546201 0.161040313620728 -0.0591810183866271 -0.04205041452938846 
0.05122984068740809 0.04506353311888456 -0.04350799855917749 -0.0482075754052018 
-0.02211704331642741 0.1339041399710456 -0.05920748671352556 -0.0620227222353345 
-0.006626561390468696 0.08085613768608763 -0.03242475072710786 -0.002433001984170141 
-0.06066167776336516 0.008411929512432931 -0.1035786931338563 0.1407521465386528 
0.02818242650689854 -0.02325915995565615 -0.01616898204583146 -0.01790873318626924 
-0.008765575498969447 0.03092717636338512 0.005699586239837334 0.01388448664707107 
0.04127315817432353 -0.04552269061910896 0.009324213742641996 0.01992249530340778 
-0.04570260411192431 -0.09430805505615318 -0.06935895822872949 0.109022391848444 
-0.004253502557511517 0.08822454410368874 -0.01302426196037692 -0.07345797376970237 
0.01032649093929398 0.02359710904524445 -0.02976982836800656 0.05009024076367218 
-0.09375679915465997 -0.1103009391162857 -0.09626879972287479 0.2760284721376667 
-0.004766646155260994 -0.0782221911334796 -0.03510290479976136 0.06810603408688319 
0.04079469827651082 -0.08930296685690479 0.02584050970095219 0.05723052608918973 
0.06021306849235255 -0.04869437328676157 0.002527198574331251 -0.01165580652639503 
-0.05827710211705223 0.02770375879049523 0.07103001265852921 -0.03213199754954097 
0.001641294353535139 -0.07135136978712701 0.1436310572271168 -0.06649186224746922 
-0.04210088123595543 -0.02371107146484116 0.04846625896240027 0.0400852548393583 
-0.02601510661818887 -0.0807561145731846 0.0703284568370066 0.08444679607441868 
-0.02090375374318009 -0.04329863955215366 0.05694449060994997 0.04933045720929854 
-0.120080409130506 0.1031283808341203 0.02062104730878122 -0.0008591091062069655 
0.04262123451706554 -0.03992519596431237 0.01512870500378949 -0.06974513311600898 
0.03452074556122059 -0.05198870616160889 0.03626436440959896 -0.04463995708133406 
0.02730264920876844 -0.01938815951933728 -0.0001874122921997758 0.0008258745947707521 
-0.08195487118004849 0.1945173568819344 -0.07634800316536279 -0.05117467893692652 
-0.04638517480140169 -0.06443114147518082 0.1442336353239423 -0.05694178475447888 
-0.01037364527440066 -0.07502198594328004 -0.007114155172327352 0.0677327563112935 
-0.02736056264199022 0.007062185602824822 0.08638525593331792 -0.09606373607624193 
0.02478766590507279 -0.07365083291905208 0.07836182499342755 -0.02122488252158371 
-0.06168256847999428 0.1446832330984045 -0.04752222381299049 -0.07963231629663022 
0.09850779691443055 -0.06096945825171728 0.06259792797126733 -0.13854137373255 
0.1108879610821849 -0.09288634925436669 0.07312569773829489 -0.04977011460913789 
0.02633567630902333 0.08520168558363278 -0.04564929650130021 -0.05147878610120679 
-0.06984117638502182 0.004005533290253943 0.07135155261399825 -0.05611119084086404 
-8.658519751683747e-05 0.06492062131066924 -0.01071716994615949 -0.0368762246695962 
-0.02147859847280746 0.08318597956751148 -0.02077395116023446 0.01098576236283592 
0.01208926871355603 -0.007878228221583712 -0.01458948083540287 -0.01315437933769166 
-0.005623207686953825 -0.04926052375768551 0.01702605662454839 0.02829707373781501 
-0.02787293409797016 -0.02691591096183462 -0.02872732402116967 0.1064620122107042 
-0.03592850195951976 0.1038505920818038 -0.02366945372881018 -0.03406223954850978 
-0.03346409943373896 -0.04493401557287954 0.05069525241100049 0.06749716958667464 
0.02851772970723918 0.08315979255568766 -0.09415909099980442 -0.02655653388922991 
0.02044925627908884 0.2014432995567091 -0.1559053878980229 -0.0702225643144825 
-0.1035408739658625 0.1137656628221885 0.006243561057997816 -0.05101708216276676 
-0.03077238476483346 0.07507942670579239 -0.0092403108197205 0.0008830967646049353 
0.006867588598582376 -0.06443539403067755 0.004185568847659351 0.1179522514968644 
0.03369756397165183 0.1915930470107434 -0.1770138269747986 -0.05619372679914683 
0.173423604917357 -0.138599804834853 0.05483187267703216 -0.08495530238155778 
-0.02202029918364454 0.07467363270395513 -0.03936178894254745 -0.01225643139006569 
-0.06091732767665752 0.09491402754409652 -0.008630348278340225 0.01295815666172074 
0.01027231906402044 -0.06439809201025641 -0.01223425424956358 0.05229816442834829 
-0.002067157773852813 -0.04914560589702161 -0.02259018187642107 0.0445023807545883 
0.0485178344681271 -0.01647085964838181 -0.008794738569017279 0.007162497635195227 
0.03873044843631723 -0.08520261617983314 0.007937542132074383 0.04856289147876383 
0.01912718648973279 -0.0151137313435908 -0.02975935663024153 0.001035300942952136 
-0.01863249189191969 0.07148052731111175 -0.03926299476364606 -0.005765867357733211 
-0.07633190529997631 -0.03704077225391569 0.02632057293106134 0.1579419993914237 
-0.003114834205877886 -0.06734512342156236 0.002912770803430008 0.04542460561032363 
0.005457889967136274 -0.06099261666363556 -0.01295200292066032 0.05103213042355845 
-0.03250849003938221 -0.02194731483897005 0.04909861050998086 0.05545217017847587 
0.06857173174649646 0.002788490872195898 -0.008051508584123951 -0.04279463804585065 
-0.04191759938958366 0.0929757796619077 -0.03263118283900539 -0.006119966281121942 
-0.03088108839774867 0.01899706867438218 0.05640137581314307 0.001530363010633665 
-0.06977506459665768 -0.07040043936824845 -0.05224939066790771 0.1273818357242426 
0.001119736940273922 -0.02267146346438757 -0.03634900557918536 0.0178523276957698 
0.04100630957359649 -0.03072934910651116 -0.01606667528635432 0.05015579931543204 
0.06300439823079394 -0.06553970888336753 -0.0139676514375554 0.0131525057952538 
-0.005389934453389186 -0.06461899599630395 -0.05254011724779236 0.06876880981959969 
-0.0401612838390051 0.0557736606324576 -0.03662943081697093 0.02350856812890187 
-0.05307145132478279 0.02518742968795632 0.00360171360590309 0.1060572922256212 
-0.05707975161033996 -0.04871992746935132 -0.009398463963153978 0.1072373251926917 
-0.03945265493026209 -0.08361316381064698 -0.04210860617526376 0.08772057917095433 
0.01341918307917143 -0.1052301511739173 0.03886756979300966 0.05414235630715563 
0.07174949021810353 -0.02760437327492464 -0.01904624381334754 -0.02303747407125074 
-0.0854883057081605 0.03729126219821507 0.1017898848576132 -0.06888039394164856 
-0.07647305264219564 0.02282774049645426 0.1787806670915369 -0.1420694235400765 
-0.09435742999567708 0.09237239275780473 0.03079692595011695 0.0512900415984711 
-0.01249286706795279 -0.04735452657860915 0.06490265405439882 0.04586240345923586 
-0.02178159593700146 0.04864389033162046 0.03572024069133958 -0.03381843053976005 
-0.09316736236544014 0.006632070974854633 0.1454865024737785 -0.06860547659157368 
0.003207874887525865 -0.07749142987967876 0.08531616792093123 -0.08686684269929001 
-0.01834594244089419 0.02844582208859208 0.02760649464771379 0.03138621256517361 
0.0118194774810325 -0.0007498863482208303 0.002919031648129905 0.01105715450383937 
-0.02767174266371974 0.04357242355100557 0.003361751815795518 0.01022140765807885 
-0.01342359036448802 -0.02123921205805324 0.05523540359832573 -0.004732391100571642 
0.005465274889339225 -0.07989246253381586 0.01466383446347339 0.04059992939372241 
-0.03399615629854537 0.04213546702283723 0.03368345201217926 0.003517636492727094 
0.01752800142309228 -0.03681849169352169 0.01681772012492542 0.02138099781850336 
-0.04405733012982119 0.1088850718802336 -0.04230927644786476 -0.0427159038786875 
0.1413259529268075 -0.01397547166331988 -0.03412358454046972 -0.1231516548260947 
0.04424812896927918 -0.1160817351337918 0.05858262050546436 0.0706784058996274 
0.02030456466747149 0.07256665319994772 -0.044943522118869 0.02234330062557005 
-0.07137767761020242 0.03567867073295225 0.03323776433172032 -0.007338813321331611 
-0.01340730621631268 0.01583068252616937 0.03463471709394934 -0.02045542059897469 
-0.01550866701671278 0.04368422222820296 0.01230860710038243 0.01418269373155285 
-0.01142257057687096 -0.03100753529300542 -0.05496003490670361 0.05065432514690625 
0.03010884158524883 -0.08522550189024941 0.01877817438989243 0.03448878864213488 
0.008232054205087583 -0.1064425100538981 0.07972312533294415 0.06353584078800176 
-0.03455777425445758 9.503407870175815e-05 0.03195520932504903 0.02379571860177098 
-0.006988774192846767 -0.007418139965368477 0.001334979013755818 0.02936130460461324 
-0.01932536435503948 0.08996614419307136 -0.04087277658448571 0.003604237243267801 
0.05690796697189335 0.06721814784535102 -0.1001149508830134 0.00259569332949301 
-0.110725733508232 0.1228360456055256 -0.03225760132421823 -0.04332074283047414 
-0.0767130167069428 0.1310609433714645 -0.06691469388712697 0.04251936203548404 
0.0194943496028766 0.04538331805398367 -0.01083235240051768 -0.006404192520698139 
-0.02290344330619631 0.2266490804790879 -0.1669496200511531 -0.06569716625037123 
0.09657782115656867 -0.0583820665788071 0.04434764460097056 -0.05193661123207686 
-0.02730888554182767 0.1021944738309838 -0.03048909224280193 -0.05260941136789992 
-0.02420141844554584 0.09029985462665768 -0.05120022485747296 -0.01577111381865499 
0.004517824323227728 -0.01968325035946754 -0.07424077636980284 0.1055564185506264 
0.02327325693797509 -0.02703444945503331 -0.03910615305453477 0.02553143354023862 
0.001937729575818213 0.009117131563737378 0.007365357634074792 0.0140857484390408 
0.0228068464108639 -0.07118591498079896 -0.001971753511554881 0.07955552702558433 
0.03656918924269128 -0.04665255564877146 -0.009378714481257586 0.02368346940779179 
-0.02199290108960375 0.07544763551926144 -0.02398958743640851 -0.00566014397787396 
0.01407003669344089 -0.001018101232422856 0.008983192835716995 0.03328487308616474 
-0.04733929396045986 -0.06871947961341718 -0.002252324459846326 0.1195095301490821 
-0.002938739741840184 -0.07623524080101371 -0.04345004950422598 0.07758523933410448 
-0.006397251931414821 -0.07482787449472636 0.02501940598637075 0.05711058828931692 
0.07180781830566145 -0.03056747410865916 -0.01404444035384032 -0.02353467202195874 
-0.0205852077957748 0.03108486034281727 0.01082893830708788 0.007270218866683631 
-0.04739797960607027 0.008268261613173013 0.04360437949570114 0.03579296475027446 
-0.05556259835281283 -0.06577301446627075 0.00447620293164547 0.09259012959833558 
-0.05637474539302824 -0.07087243775800328 -0.01787838975874479 0.1495695891909212 
0.07135121774172261 -0.02616195772375507 -0.04086582069170721 0.01062837412912974 
0.05543041627500672 0.0008936684414085164 -0.01672018126956586 -0.03180268149345072 
-0.06849746282596447 -0.08194644141304611 -0.05151480534392257 0.1529545793959898 
-0.02769412881154732 0.02884378446997112 0.0303210306614707 0.003216819661313743 
-0.03648000862176377 0.005358577758498633 -0.00506899666613336 0.07602016487009407 
0.0077965154897769 -0.05514761373356127 -0.002223378546484351 0.01213635379152876 
0.03899537564062857 -0.05057712760953621 -0.01871277163944772 0.001304731537644541 
0.04426836691157957 0.09214697735098112 -0.05607299149168836 -0.0184567817958613 
0.05965058206131253 0.01469515428640526 -0.02383575644327111 -0.04719796341756644 
-0.07653850312092161 0.03986882633873176 0.06517669041509312 -0.04048155932897592 
-0.08808917496563165 0.06800866182864733 0.02370239024426623 -0.03919094824160853 
-0.08799231066233605 0.1680042807107092 -0.04699844006565385 -0.01842503809867611 
-0.02844368613789533 -0.005607552456515543 0.1013401975302382 -0.01747180944570546 
-0.05974485430610876 0.1144912606887408 -0.02076281255161762 -0.03367735986662871 
-0.04724095085075987 -0.08371850263989522 0.1574684316888716 -0.0971677237867536 
0.04070373120659584 -0.04108800964300075 0.04654560313404407 -0.07679498094228894 
-0.01554363019982068 -0.01438604863949211 0.07175545354067475 -0.0415133185425897 
0.02553813376315132 -0.04559394786821969 0.04753567602612305 -0.01257516499635629 
-0.02091463348047222 0.02208763370289999 0.05692683891893249 -0.03621656944289232 
0.002986621983920371 -0.01604956666380724 0.0274909409347829 -0.0276059258278618 
-0.04156316741834235 -0.09073263143943015 0.09664069745367151 0.05970678457988589 
-0.052389873142679 0.006940929939079007 0.04252154962564091 0.02824310363790913 
0.01527409382088997 -0.01807767975013285 0.01245104257072565 -0.004958289003451834 
-0.05348467171650656 0.002943027083642837 0.06172744292539577 0.03271934747571732 
0.09623392517486502 -0.01078465049812713 -0.02034467003714911 -0.1172108732313138 
0.05773475914647443 -0.03853135536134302 0.02160527280375956 -0.005647894465286692 
0.05511630659522187 0.04268866244318396 -0.006086344663084834 -0.05640470157240436 
-0.0192708005810882 -0.05588016446246574 0.0746280490514389 0.01323571268892345 
0.01595593921044094 0.006911065813303512 -0.006933183326425619 -0.05337117883303449 
-0.06012896205306056 0.03237674113519439 0.01977866414105559 -0.006587974939030388 
0.0545710230668239 0.007477394545938157 0.01858577905773645 -0.1117608996075761 
-0.05376210584552973 -0.005962949654144722 0.02384015258340411 0.03327374098276596 
-0.143366033194733 -0.1677459297748595 0.2223818601218001 0.07111022004236961 
-0.0156189340563141 0.03848908966767111 -0.01207973079718665 -0.02052161803810837 
0.06166594002279051 -0.02345839266975257 0.03747410608543605 -0.06930310063103795 
-0.03520781601663785 0.05528850740396218 -0.01428750352741203 0.01047371932939961 
-0.1096389801058107 -0.05765926668534582 0.09400416560964217 0.1031230969451388 
-0.02970558795887793 0.01423837386755729 -0.003954054369103516 -0.004879087009340624 
-0.09694668576291861 0.1462536923903998 -0.03273654451032643 -0.01409300079910571 
0.0006895962585461092 0.07783042205418245 -0.05799233022858636 -0.03127180258631893 
-0.0472392346300857 0.09680650502660759 -0.06766832597859322 -0.03754023500747066 
-0.0482070564184495 -0.07301848415315199 0.03966996998510085 0.1092600042683876 
0.009975998056086179 0.08256461580715425 -0.08222488655751724 -0.03925505193220018 
-0.06798082797822763 0.1193292991704439 -0.02040649776414733 -0.05640090235314002 
-0.03681106952301312 0.08427430029857151 -0.02494466443136369 -0.04408545301841647 
0.03708702353164926 -0.02535889232994348 0.006227999813352133 -0.06665665091751603 
0.0004491771511905787 -0.02030774970943607 -0.002150574026880039 0.02143425711149915 
-0.0438902834210584 -0.01668145246635271 0.0002894934365899076 0.09007629422777486 
0.1318236151695882 -0.01791615909952265 -0.0008264124846726548 -0.1209442189807631 
0.1883518140026856 -0.001523720702145444 -0.130847781060462 -0.09994464982861291 
0.1050126708922143 0.03126312212168173 -0.1001608568662379 -0.02549779078677323 
0.01411921327833241 0.02489974129555337 0.01710125520937174 -0.03939541409584375 
0.1293036591475941 -0.03011737747058528 -0.0304435949178063 -0.1004254021956467 
-0.02506688620004783 -0.04651491843568491 0.04846233338418623 0.02991447187104924 
0.004665831572651872 -0.0187337205750562 -0.004174920966302284 0.02788036934436694 
0.04171233941577798 0.0001116936351897914 0.02184821756568282 -0.03377554339318753 
-0.02572971042060746 0.1100627356329185 -0.01341946419863963 -0.05029348494664103 
0.1012513118341258 -0.01147960305983245 -0.02655203886923353 -0.0778023702958599 
-0.0828731588139235 -0.1652588980524611 0.1727264706852064 0.1418958343324064 
0.04800564282230052 -0.08143252862199786 0.03456247813342515 0.01209831989502553 
0.1913646122034277 -0.05969668687596282 -0.06080069097740251 -0.07854386007212556 
0.07924860083576551 -0.01722361033489617 -0.06373405301941135 -0.03874272204562594 
0.0008845901678260686 -0.005806906539860561 0.001974014262591216 0.006513836046069036 
-0.06143993812719536 0.03302893331538431 -0.006393598098385731 0.023954295491193 
0.004844084098352773 0.06335875370506704 -0.03527095789089346 -0.06734113690343134 
0.007154539487380564 0.04774864214514152 -0.06468960438876582 0.007479275342034308 
-0.07019759511288713 0.06831991112037242 -0.01959000141323244 0.04187385481676745 
0.03106473635102866 0.01017395616766815 -0.0408388601273774 0.005214021072600251 
-0.03377775918057564 0.01952132524219075 -0.007384097012787588 0.05153176615388654 
-0.06569452929038182 -0.009708130237577191 0.03769937430406499 0.02424121283957949 
-0.02605787610358997 0.1759326772213383 -0.07455053711196255 -0.08273784656752661 
-0.0853924241140943 0.06194623012020242 0.05547095266803797 -0.07086318397216357 
-0.08109765287425146 -0.01560085389804754 0.04988646565684638 0.03432416496252175 
-0.01677986862298449 -0.1269951569780429 0.04035627935411237 0.1161447713171942 
0.06032135984640356 -0.05017598784512246 -0.01878512013660234 0.001944659375298341 
0.1161685152026565 0.03088506197801396 -0.05641686307652258 -0.05519852058600901 
-0.0259296788692321 -0.06697047559447908 0.09786046707541515 0.004875135196087149 
0.006679320198557181 -0.02633299757008157 0.009388132540398343 0.03564057512378902 
-0.007986092809305066 0.01112328160819149 0.03823124922400772 -0.007851046227307588 
0.08951306379378705 -0.007689941297540917 -0.008493999929612717 -0.08775120715268131 
-0.01834907009457274 -0.03157152569697527 0.03290333004102872 0.04009653222680814 
-0.006925625991431226 0.001616879133104624 -0.009875022547797842 0.02757677228814324 
-0.05219778791366762 -0.08246105292839237 0.06158107230482636 0.07832936053760785 
0.01825961511849471 -0.05050187210744068 -0.002265250053526006 0.03242868053562512 
0.06378325789131932 -0.007255388889270713 -0.03620899316647463 0.02043656907390514 
0.11287251149397 -0.05195443294343535 -0.02237378063224964 -0.02475361968074499 
0.06408841967517809 0.006499525490843645 0.01409240461222625 -0.06096268411407981 
0.01489472261530219 -0.01513072945879996 0.02088974123033875 -0.01617629397340464 
0.04790857927562513 0.02749937444612604 -0.02128254508933072 -0.07199479990673845 
0.0212605979403351 -0.01413271140317959 -0.008982483445900653 -0.02309037873840272 
0.006259047721901862 -0.02165521108437824 0.07603646983228211 -0.0658809776174555 
-0.03683304422555928 0.1120325682542013 -0.02915507988401356 -0.02080464173511625 
-0.01197664237972871 -0.01692669685360251 0.01135154699833671 0.005912032012963418 
-0.04106184396968972 -0.03721495482279896 0.05229341849233032 0.02512689833873917 
-0.06416711499447637 0.1221356108109083 -0.04666640958319474 -0.07156587728793837 
0.00540836209719693 0.03649640983682603 -0.02010253085959036 -0.04136451471757049 
0.0568216594347441 -0.0309396906276388 0.0420894291075442 -0.01517412579803644 
0.04512270514686112 -0.01292516784845458 -0.01791380666304048 -0.02289888488418569 
0.02845595296761385 -0.05714486716859678 0.08003266650030028 -0.03326422627147547 
-0.003768311709036498 0.03648935048803395 0.0210910455339252 -0.06911407985489175 
0.005742455024218763 0.01936200838626691 -0.0621971613902146 0.06008941847100508 
0.05758440164800078 -0.01442435247471163 0.00515032563389655 -0.01744138877744585 
-0.02262472342917172 -0.00589100420914446 0.05394654468756233 -0.01252021049429161 
0.034660419464504 0.05564450285034297 -0.03779180610086833 -0.06638029594114092 
-0.04040897847234321 -0.05214194955609342 -0.005398826724127684 0.09212987695148771 
-0.01792372071183837 0.1071255402368015 -0.0202220559355498 -0.05143552395124809 
