<?xml version="1.0"?>
<opencv_storage>
<cascade>
  <stageType>BOOST</stageType>
  <featureType>LBP</featureType>
  <height>35</height>
  <width>25</width>
  <stageParams>
    <boostType>DAB</boostType>
    <minHitRate>9.5999997854232788e-01</minHitRate>
    <maxFalseAlarm>5.0000000000000000e-01</maxFalseAlarm>
    <weightTrimRate>9.4999999999999996e-01</weightTrimRate>
    <maxDepth>1</maxDepth>
    <maxWeakCount>100</maxWeakCount></stageParams>
  <featureParams>
    <maxCatCount>256</maxCatCount>
    <featSize>1</featSize></featureParams>
  <stageNum>13</stageNum>
  <stages>
    <!-- stage 0 -->
    <_>
      <maxWeakCount>3</maxWeakCount>
      <stageThreshold>-2.2771813869476318e+00</stageThreshold>
      <weakClassifiers>
        <_>
          <internalNodes>
            0 -1 7 -1 -1 -1 -1 -1 1476360191 -1 368531455</internalNodes>
          <leafValues>
            -2.1660161018371582e+00 2.1660161018371582e+00</leafValues></_>
        <_>
          <internalNodes>
            0 -1 9 -1 -16777217 -1 -134217729 -129 2004877183 -140
            2004877173</internalNodes>
          <leafValues>
            -1.2013710737228394e+00 1.2013710737228394e+00</leafValues></_>
        <_>
          <internalNodes>
            0 -1 14 -16 -536871049 -1 1962934271 -144 2012739575
            2147481520 356497207</internalNodes>
          <leafValues>
            -1.0902057886123657e+00 1.0902057886123657e+00</leafValues></_></weakClassifiers></_>
    <!-- stage 1 -->
    <_>
      <maxWeakCount>5</maxWeakCount>
      <stageThreshold>-2.0737957954406738e+00</stageThreshold>
      <weakClassifiers>
        <_>
          <internalNodes>
            0 -1 4 -1 -1 -1 -1 -1 -1 -1 1912076279</internalNodes>
          <leafValues>
            -1.6582280397415161e+00 1.6582280397415161e+00</leafValues></_>
        <_>
          <internalNodes>
            0 -1 16 -1 -1 -1 -1 -139 -134217737 -12 -134217729</internalNodes>
          <leafValues>
            -1.2981481552124023e+00 1.2981481552124023e+00</leafValues></_>
        <_>
          <internalNodes>
            0 -1 50 -285282562 788459518 -69650 15647982 -1 50298879
            1879015423 8326367</internalNodes>
          <leafValues>
            -1.0607469081878662e+00 1.0607469081878662e+00</leafValues></_>
        <_>
          <internalNodes>
            0 -1 74 -17 -285212673 -2 -285278210 -129 -1 -129 -1</internalNodes>
          <leafValues>
            -1.1421875953674316e+00 1.1421875953674316e+00</leafValues></_>
        <_>
          <internalNodes>
            0 -1 55 -268439569 -268500993 -2 -285278210 -1 2147483647
            -12 1996423156</internalNodes>
          <leafValues>
            -9.6402108669281006e-01 9.6402108669281006e-01</leafValues></_></weakClassifiers></_>
    <!-- stage 2 -->
    <_>
      <maxWeakCount>5</maxWeakCount>
      <stageThreshold>-1.7819944620132446e+00</stageThreshold>
      <weakClassifiers>
        <_>
          <internalNodes>
            0 -1 27 -1 -1 -1 -1 -1 -1 -140 -134217729</internalNodes>
          <leafValues>
            -1.5675299167633057e+00 1.5675299167633057e+00</leafValues></_>
        <_>
          <internalNodes>
            0 -1 2 -1 -1 -1 -1 -1 -1 -1 1954021367</internalNodes>
          <leafValues>
            -9.6269083023071289e-01 9.6269083023071289e-01</leafValues></_>
        <_>
          <internalNodes>
            0 -1 61 -1 -268435457 -2 -285212673 -129 2147483647 -1
            -134217729</internalNodes>
          <leafValues>
            -8.8855963945388794e-01 8.8855963945388794e-01</leafValues></_>
        <_>
          <internalNodes>
            0 -1 15 -17 -1 -18 -1 -137 2004877311 -140 2013265919</internalNodes>
          <leafValues>
            -9.2332971096038818e-01 9.2332971096038818e-01</leafValues></_>
        <_>
          <internalNodes>
            0 -1 91 -1073938436 -1 -1 -65537 -1 -1 -1 1073496060</internalNodes>
          <leafValues>
            -7.8299641609191895e-01 7.8299641609191895e-01</leafValues></_></weakClassifiers></_>
    <!-- stage 3 -->
    <_>
      <maxWeakCount>5</maxWeakCount>
      <stageThreshold>-1.7669965028762817e+00</stageThreshold>
      <weakClassifiers>
        <_>
          <internalNodes>
            0 -1 67 -1 -268435457 -1 -285212673 -1 -1 -1 -1</internalNodes>
          <leafValues>
            -1.4251645803451538e+00 1.4251645803451538e+00</leafValues></_>
        <_>
          <internalNodes>
            0 -1 20 -1 2147483647 -1 2147483647 2013233151 402620415
            2013265919 100628479</internalNodes>
          <leafValues>
            -1.1510030031204224e+00 1.1510030031204224e+00</leafValues></_>
        <_>
          <internalNodes>
            0 -1 92 -1073938435 -1 -1 -1 -1 -1 -1 1073496060</internalNodes>
          <leafValues>
            -9.7104138135910034e-01 9.7104138135910034e-01</leafValues></_>
        <_>
          <internalNodes>
            0 -1 5 -3 -1 -1 -1 -4 -1 -4 -32769</internalNodes>
          <leafValues>
            -9.6058201789855957e-01 9.6058201789855957e-01</leafValues></_>
        <_>
          <internalNodes>
            0 -1 93 1073512445 -1 -1 -1 -1 -1 -1 1073496060</internalNodes>
          <leafValues>
            -8.1963056325912476e-01 8.1963056325912476e-01</leafValues></_></weakClassifiers></_>
    <!-- stage 4 -->
    <_>
      <maxWeakCount>3</maxWeakCount>
      <stageThreshold>-1.8204529285430908e+00</stageThreshold>
      <weakClassifiers>
        <_>
          <internalNodes>
            0 -1 21 -32772 -1 -2 -1 -1 -1 -12 -12</internalNodes>
          <leafValues>
            -1.6747028827667236e+00 1.6747028827667236e+00</leafValues></_>
        <_>
          <internalNodes>
            0 -1 8 -4 -1 -1 -1 -132 -1 -4 -196612</internalNodes>
          <leafValues>
            -1.1266281604766846e+00 1.1266281604766846e+00</leafValues></_>
        <_>
          <internalNodes>
            0 -1 87 -1 -1 -1 -1 -1 -1 -1 2147483647</internalNodes>
          <leafValues>
            9.8087805509567261e-01 -9.8087805509567261e-01</leafValues></_></weakClassifiers></_>
    <!-- stage 5 -->
    <_>
      <maxWeakCount>5</maxWeakCount>
      <stageThreshold>-2.5924506187438965e+00</stageThreshold>
      <weakClassifiers>
        <_>
          <internalNodes>
            0 -1 10 -1 -1 -1 -1 -9 -134217737 -1 -134217729</internalNodes>
          <leafValues>
            -1.4458427429199219e+00 1.4458427429199219e+00</leafValues></_>
        <_>
          <internalNodes>
            0 -1 13 -1 -1 -1 -402718721 -1 1442805759 -1 368924671</internalNodes>
          <leafValues>
            -1.0533344745635986e+00 1.0533344745635986e+00</leafValues></_>
        <_>
          <internalNodes>
            0 -1 11 -4 -1 -1 -1 -12 -1 -4 -1</internalNodes>
          <leafValues>
            -7.7212560176849365e-01 7.7212560176849365e-01</leafValues></_>
        <_>
          <internalNodes>
            0 -1 0 -1 -1 -1 -1 -1 2147483647 -4 2013265788</internalNodes>
          <leafValues>
            -6.8766093254089355e-01 6.8766093254089355e-01</leafValues></_>
        <_>
          <internalNodes>
            0 -1 49 -268439570 -16842770 -268500994 -286331154 -1
            2147483647 -2 1089667060</internalNodes>
          <leafValues>
            -7.4015575647354126e-01 7.4015575647354126e-01</leafValues></_></weakClassifiers></_>
    <!-- stage 6 -->
    <_>
      <maxWeakCount>9</maxWeakCount>
      <stageThreshold>-2.6245493888854980e+00</stageThreshold>
      <weakClassifiers>
        <_>
          <internalNodes>
            0 -1 73 -1 -268435457 -1 -285212673 -1 -1 -1 -1</internalNodes>
          <leafValues>
            -1.3427132368087769e+00 1.3427132368087769e+00</leafValues></_>
        <_>
          <internalNodes>
            0 -1 24 -32900 -1 -1 -1 -1 -1 2013230964 2013265919</internalNodes>
          <leafValues>
            -7.7513325214385986e-01 7.7513325214385986e-01</leafValues></_>
        <_>
          <internalNodes>
            0 -1 80 -1 -1 -1 -65537 -1 -1 -1 1325334526</internalNodes>
          <leafValues>
            -7.1040153503417969e-01 7.1040153503417969e-01</leafValues></_>
        <_>
          <internalNodes>
            0 -1 44 -1 -1 -1 -671088641 -9 1476360183 -32769 1442805567</internalNodes>
          <leafValues>
            -6.2420034408569336e-01 6.2420034408569336e-01</leafValues></_>
        <_>
          <internalNodes>
            0 -1 65 -1 -268435457 -1 -1 -1 -1 -137 -1</internalNodes>
          <leafValues>
            -6.4604663848876953e-01 6.4604663848876953e-01</leafValues></_>
        <_>
          <internalNodes>
            0 -1 39 -2 1073676286 -1 1878982654 100622335 83853311
            2013265919 100560895</internalNodes>
          <leafValues>
            -5.6750476360321045e-01 5.6750476360321045e-01</leafValues></_>
        <_>
          <internalNodes>
            0 -1 41 -1 -1 -1 -16777217 -1 2013265919 -1 2013265919</internalNodes>
          <leafValues>
            5.4247653484344482e-01 -5.4247653484344482e-01</leafValues></_>
        <_>
          <internalNodes>
            0 -1 45 -2 -1 -1 -1 -129 2139094911 -4 2013265919</internalNodes>
          <leafValues>
            -5.5986446142196655e-01 5.5986446142196655e-01</leafValues></_>
        <_>
          <internalNodes>
            0 -1 18 1073512444 -1 -1 -65537 -1 -1 -3 746356732</internalNodes>
          <leafValues>
            -5.0857174396514893e-01 5.0857174396514893e-01</leafValues></_></weakClassifiers></_>
    <!-- stage 7 -->
    <_>
      <maxWeakCount>8</maxWeakCount>
      <stageThreshold>-2.3408496379852295e+00</stageThreshold>
      <weakClassifiers>
        <_>
          <internalNodes>
            0 -1 71 -1 -268435457 -1 -285212673 -1 -1 -1 -1</internalNodes>
          <leafValues>
            -1.3805702924728394e+00 1.3805702924728394e+00</leafValues></_>
        <_>
          <internalNodes>
            0 -1 12 -1 -1 -1 -1 -139 -134217737 -4 -1</internalNodes>
          <leafValues>
            -7.6825380325317383e-01 7.6825380325317383e-01</leafValues></_>
        <_>
          <internalNodes>
            0 -1 90 -196612 -1 -1 -65537 -1 -1 -1 805060604</internalNodes>
          <leafValues>
            -7.5239068269729614e-01 7.5239068269729614e-01</leafValues></_>
        <_>
          <internalNodes>
            0 -1 40 -196612 -1 -1 -1 -1 -1 -1 -196620</internalNodes>
          <leafValues>
            -7.8112554550170898e-01 7.8112554550170898e-01</leafValues></_>
        <_>
          <internalNodes>
            0 -1 81 -1 -1 -1 -1 -1 -1 -1 -1073807363</internalNodes>
          <leafValues>
            -7.0081901550292969e-01 7.0081901550292969e-01</leafValues></_>
        <_>
          <internalNodes>
            0 -1 62 -16843010 -65538 -65537 250277630 -1 -755040257 -1
            4474622</internalNodes>
          <leafValues>
            -6.5292668342590332e-01 6.5292668342590332e-01</leafValues></_>
        <_>
          <internalNodes>
            0 -1 75 -268435457 -268435457 -2 -285278210 -129 -1 -1
            -134217729</internalNodes>
          <leafValues>
            -6.8674343824386597e-01 6.8674343824386597e-01</leafValues></_>
        <_>
          <internalNodes>
            0 -1 23 1073512446 -1 -1 -65537 -1 -1 -1 477921276</internalNodes>
          <leafValues>
            -5.7134503126144409e-01 5.7134503126144409e-01</leafValues></_></weakClassifiers></_>
    <!-- stage 8 -->
    <_>
      <maxWeakCount>8</maxWeakCount>
      <stageThreshold>-2.5065155029296875e+00</stageThreshold>
      <weakClassifiers>
        <_>
          <internalNodes>
            0 -1 67 -1 -268435457 -1 -285212673 -1 -1 -9 -1</internalNodes>
          <leafValues>
            -1.4328143596649170e+00 1.4328143596649170e+00</leafValues></_>
        <_>
          <internalNodes>
            0 -1 35 -4 -1 -1 -1 -140 -1 -4 -1</internalNodes>
          <leafValues>
            -8.6818015575408936e-01 8.6818015575408936e-01</leafValues></_>
        <_>
          <internalNodes>
            0 -1 82 -1 -1 -1 -1 -1 -1 -1 2147483647</internalNodes>
          <leafValues>
            7.2601103782653809e-01 -7.2601103782653809e-01</leafValues></_>
        <_>
          <internalNodes>
            0 -1 30 -1 -1 -1 -1 -1 2147483647 -1 -134217729</internalNodes>
          <leafValues>
            -8.3927041292190552e-01 8.3927041292190552e-01</leafValues></_>
        <_>
          <internalNodes>
            0 -1 1 -1 -1 -1 -1 -1 2147483647 -3 2012741628</internalNodes>
          <leafValues>
            -6.5450251102447510e-01 6.5450251102447510e-01</leafValues></_>
        <_>
          <internalNodes>
            0 -1 19 -32898 2147368830 -1 1878982655 402589439 83641982
            2013231103 75454334</internalNodes>
          <leafValues>
            -5.8870339393615723e-01 5.8870339393615723e-01</leafValues></_>
        <_>
          <internalNodes>
            0 -1 78 -1 -268435457 -1 -285212673 -1 -1 -1 -1</internalNodes>
          <leafValues>
            -6.8980181217193604e-01 6.8980181217193604e-01</leafValues></_>
        <_>
          <internalNodes>
            0 -1 83 -1 -1 -1 -1 -1 -1 -1 2147483647</internalNodes>
          <leafValues>
            6.6333937644958496e-01 -6.6333937644958496e-01</leafValues></_></weakClassifiers></_>
    <!-- stage 9 -->
    <_>
      <maxWeakCount>8</maxWeakCount>
      <stageThreshold>-2.3456432819366455e+00</stageThreshold>
      <weakClassifiers>
        <_>
          <internalNodes>
            0 -1 63 -1 -268435457 -1 -285212673 -1 -1 -1 -1</internalNodes>
          <leafValues>
            -1.2893472909927368e+00 1.2893472909927368e+00</leafValues></_>
        <_>
          <internalNodes>
            0 -1 52 -1 -1 -1 -1 -1 1207959551 -134217737 1476395007</internalNodes>
          <leafValues>
            -8.4217488765716553e-01 8.4217488765716553e-01</leafValues></_>
        <_>
          <internalNodes>
            0 -1 25 2147450879 -1 -1 -1342242817 -1 -1 -129 1282703357</internalNodes>
          <leafValues>
            -6.9710522890090942e-01 6.9710522890090942e-01</leafValues></_>
        <_>
          <internalNodes>
            0 -1 43 -1342177281 2147483647 -1 -1 805306367 2147483647
            2147483647 2147483647</internalNodes>
          <leafValues>
            -6.9811820983886719e-01 6.9811820983886719e-01</leafValues></_>
        <_>
          <internalNodes>
            0 -1 28 -2 -1 -1 -1 -2 2013265919 -32908 2013265919</internalNodes>
          <leafValues>
            -6.5718823671340942e-01 6.5718823671340942e-01</leafValues></_>
        <_>
          <internalNodes>
            0 -1 89 2147450879 -1 -1 -268435457 -1 -1 -137 1282735997</internalNodes>
          <leafValues>
            -6.4058536291122437e-01 6.4058536291122437e-01</leafValues></_>
        <_>
          <internalNodes>
            0 -1 17 2147450879 -1 -1 -268500993 -32769 -1 2147483517
            1282735989</internalNodes>
          <leafValues>
            -5.7084435224533081e-01 5.7084435224533081e-01</leafValues></_>
        <_>
          <internalNodes>
            0 -1 58 -2 -1 -1 -218169346 -129 2147483647 -1 2013265919</internalNodes>
          <leafValues>
            -6.2686091661453247e-01 6.2686091661453247e-01</leafValues></_></weakClassifiers></_>
    <!-- stage 10 -->
    <_>
      <maxWeakCount>10</maxWeakCount>
      <stageThreshold>-2.7532188892364502e+00</stageThreshold>
      <weakClassifiers>
        <_>
          <internalNodes>
            0 -1 72 -1 -268435457 -1 -268435457 -1 -1 -1 -1</internalNodes>
          <leafValues>
            -1.2877225875854492e+00 1.2877225875854492e+00</leafValues></_>
        <_>
          <internalNodes>
            0 -1 36 -1 -1 -1 -1 -129 2139094911 -1 2147483647</internalNodes>
          <leafValues>
            -8.2810598611831665e-01 8.2810598611831665e-01</leafValues></_>
        <_>
          <internalNodes>
            0 -1 88 1073496060 -65537 -1 -65537 -1 -1 -1 1073487868</internalNodes>
          <leafValues>
            -6.5377587080001831e-01 6.5377587080001831e-01</leafValues></_>
        <_>
          <internalNodes>
            0 -1 79 -1 -1 -1 -1 -1 -1 -1 -285278211</internalNodes>
          <leafValues>
            -5.9771931171417236e-01 5.9771931171417236e-01</leafValues></_>
        <_>
          <internalNodes>
            0 -1 22 1073709055 -1 -1 -268500993 -1 -1 -131 74776445</internalNodes>
          <leafValues>
            -6.2085700035095215e-01 6.2085700035095215e-01</leafValues></_>
        <_>
          <internalNodes>
            0 -1 29 -130 -1 -1 -1 2147450748 2013265919 2013233151
            939524095</internalNodes>
          <leafValues>
            -5.8370774984359741e-01 5.8370774984359741e-01</leafValues></_>
        <_>
          <internalNodes>
            0 -1 42 -65539 -1 -1 -1 -1 -1 -1 -196620</internalNodes>
          <leafValues>
            -5.4692387580871582e-01 5.4692387580871582e-01</leafValues></_>
        <_>
          <internalNodes>
            0 -1 86 -65540 -65538 -1 -65537 -1 -1 -1 1073692671</internalNodes>
          <leafValues>
            -5.3160238265991211e-01 5.3160238265991211e-01</leafValues></_>
        <_>
          <internalNodes>
            0 -1 34 -139 -1 -1 -1 -2188 1442314101 -35340 369047359</internalNodes>
          <leafValues>
            -4.9441000819206238e-01 4.9441000819206238e-01</leafValues></_>
        <_>
          <internalNodes>
            0 -1 66 -1 -268435457 -1 -268435457 -1 -1 -9 -1</internalNodes>
          <leafValues>
            -6.2746012210845947e-01 6.2746012210845947e-01</leafValues></_></weakClassifiers></_>
    <!-- stage 11 -->
    <_>
      <maxWeakCount>12</maxWeakCount>
      <stageThreshold>-2.3123629093170166e+00</stageThreshold>
      <weakClassifiers>
        <_>
          <internalNodes>
            0 -1 77 -1 -1 -1 -1 -1 -1 -1 -1342242817</internalNodes>
          <leafValues>
            -1.2555370330810547e+00 1.2555370330810547e+00</leafValues></_>
        <_>
          <internalNodes>
            0 -1 76 -1073741825 -1073741825 -1 -1073741825 -1 -1 -1
            -1073741825</internalNodes>
          <leafValues>
            -7.3369342088699341e-01 7.3369342088699341e-01</leafValues></_>
        <_>
          <internalNodes>
            0 -1 51 -10 -1 -1 1207959551 -2188 1475868535 -2060
            402653183</internalNodes>
          <leafValues>
            -6.4145374298095703e-01 6.4145374298095703e-01</leafValues></_>
        <_>
          <internalNodes>
            0 -1 31 -1 -1 -1 -1 -1 -1 -131 1568473087</internalNodes>
          <leafValues>
            -5.3144687414169312e-01 5.3144687414169312e-01</leafValues></_>
        <_>
          <internalNodes>
            0 -1 57 -1 -1 -1 1157562366 -1 1476395007 -1 1476394815</internalNodes>
          <leafValues>
            -5.3485631942749023e-01 5.3485631942749023e-01</leafValues></_>
        <_>
          <internalNodes>
            0 -1 32 -2 -1 -1 -65538 -1 -1 -1 1962082303</internalNodes>
          <leafValues>
            -5.4402691125869751e-01 5.4402691125869751e-01</leafValues></_>
        <_>
          <internalNodes>
            0 -1 69 -1 -268435457 -1 -1 -1 2147483647 -1 -134217729</internalNodes>
          <leafValues>
            -5.1538896560668945e-01 5.1538896560668945e-01</leafValues></_>
        <_>
          <internalNodes>
            0 -1 46 -196612 -1 -1 -1 -1 -1 -1 2147254132</internalNodes>
          <leafValues>
            -5.2100670337677002e-01 5.2100670337677002e-01</leafValues></_>
        <_>
          <internalNodes>
            0 -1 48 -1 -285212673 -1 -285212673 -1 2013265919 -1
            2013265911</internalNodes>
          <leafValues>
            4.7280269861221313e-01 -4.7280269861221313e-01</leafValues></_>
        <_>
          <internalNodes>
            0 -1 6 -1 -1 -1 -1 -129 2139094911 -4 2139095037</internalNodes>
          <leafValues>
            -4.8600977659225464e-01 4.8600977659225464e-01</leafValues></_>
        <_>
          <internalNodes>
            0 -1 60 -1073840129 -1359020033 -1 -1342177281 -1
            -1358954497 -129 2013265919</internalNodes>
          <leafValues>
            -4.4881662726402283e-01 4.4881662726402283e-01</leafValues></_>
        <_>
          <internalNodes>
            0 -1 38 -130 2138996606 -1 1862205182 134169855 83775231
            2013231103 402610175</internalNodes>
          <leafValues>
            -3.9129728078842163e-01 3.9129728078842163e-01</leafValues></_></weakClassifiers></_>
    <!-- stage 12 -->
    <_>
      <maxWeakCount>15</maxWeakCount>
      <stageThreshold>-2.6100018024444580e+00</stageThreshold>
      <weakClassifiers>
        <_>
          <internalNodes>
            0 -1 68 -1 -285278209 -1 -16842753 -1 -1 -1 -1</internalNodes>
          <leafValues>
            -1.2307221889495850e+00 1.2307221889495850e+00</leafValues></_>
        <_>
          <internalNodes>
            0 -1 33 -2 -1 -1 -1 -140 -8388737 -4 -1</internalNodes>
          <leafValues>
            -6.9782698154449463e-01 6.9782698154449463e-01</leafValues></_>
        <_>
          <internalNodes>
            0 -1 70 -1 -1 -1 -1 -1 -1 -1 -1090715649</internalNodes>
          <leafValues>
            -6.1248016357421875e-01 6.1248016357421875e-01</leafValues></_>
        <_>
          <internalNodes>
            0 -1 37 2147450879 -1 -1 -285278209 -1 -1 -129 1282736124</internalNodes>
          <leafValues>
            -5.2685779333114624e-01 5.2685779333114624e-01</leafValues></_>
        <_>
          <internalNodes>
            0 -1 84 -2 -16842754 -1 -1073741825 -1 -1 -1 805257215</internalNodes>
          <leafValues>
            -4.9637880921363831e-01 4.9637880921363831e-01</leafValues></_>
        <_>
          <internalNodes>
            0 -1 47 -1 -1 -1 -1 -1 2147483647 -9 -134217729</internalNodes>
          <leafValues>
            -5.1919168233871460e-01 5.1919168233871460e-01</leafValues></_>
        <_>
          <internalNodes>
            0 -1 54 -1 -1 -1 -1 -1 -1 -1 2147483645</internalNodes>
          <leafValues>
            4.9238023161888123e-01 -4.9238023161888123e-01</leafValues></_>
        <_>
          <internalNodes>
            0 -1 64 -1 -268435457 -1 -285212673 -1 -1 -1 -1</internalNodes>
          <leafValues>
            -5.1485019922256470e-01 5.1485019922256470e-01</leafValues></_>
        <_>
          <internalNodes>
            0 -1 3 -1 -1 -1 -134217729 -1 -134217729 -1 1886648311</internalNodes>
          <leafValues>
            -5.2591311931610107e-01 5.2591311931610107e-01</leafValues></_>
        <_>
          <internalNodes>
            0 -1 26 2147450879 -1 -1 -268435457 -1 -1 -1 1551171581</internalNodes>
          <leafValues>
            -4.4165956974029541e-01 4.4165956974029541e-01</leafValues></_>
        <_>
          <internalNodes>
            0 -1 53 -1 -268435457 -1 -1 -1 2147483647 -1 -1</internalNodes>
          <leafValues>
            -4.5480218529701233e-01 4.5480218529701233e-01</leafValues></_>
        <_>
          <internalNodes>
            0 -1 56 -268439553 -268435457 -1 74362622 -521 100628351
            -57477 3548734</internalNodes>
          <leafValues>
            -4.5177122950553894e-01 4.5177122950553894e-01</leafValues></_>
        <_>
          <internalNodes>
            0 -1 59 -1 -1 -1 -16777217 -1 2147483647 -1 -134217729</internalNodes>
          <leafValues>
            -5.1726621389389038e-01 5.1726621389389038e-01</leafValues></_>
        <_>
          <internalNodes>
            0 -1 85 -1 -1 -1 -285212673 -1 -1 -1 2147418111</internalNodes>
          <leafValues>
            4.5839515328407288e-01 -4.5839515328407288e-01</leafValues></_>
        <_>
          <internalNodes>
            0 -1 0 -1 -1 -1 -1 -1 -1 -4 2013265788</internalNodes>
          <leafValues>
            -4.2878773808479309e-01 4.2878773808479309e-01</leafValues></_></weakClassifiers></_></stages>
  <features>
    <_>
      <rect>
        0 0 4 5</rect></_>
    <_>
      <rect>
        0 0 5 4</rect></_>
    <_>
      <rect>
        0 0 8 7</rect></_>
    <_>
      <rect>
        0 0 8 8</rect></_>
    <_>
      <rect>
        0 0 8 10</rect></_>
    <_>
      <rect>
        0 2 3 11</rect></_>
    <_>
      <rect>
        0 2 4 6</rect></_>
    <_>
      <rect>
        0 2 7 11</rect></_>
    <_>
      <rect>
        0 3 2 7</rect></_>
    <_>
      <rect>
        0 3 5 5</rect></_>
    <_>
      <rect>
        0 4 5 9</rect></_>
    <_>
      <rect>
        0 5 3 8</rect></_>
    <_>
      <rect>
        0 5 4 8</rect></_>
    <_>
      <rect>
        0 5 8 10</rect></_>
    <_>
      <rect>
        0 7 5 7</rect></_>
    <_>
      <rect>
        0 10 4 1</rect></_>
    <_>
      <rect>
        0 10 4 5</rect></_>
    <_>
      <rect>
        0 12 1 1</rect></_>
    <_>
      <rect>
        0 13 1 2</rect></_>
    <_>
      <rect>
        0 14 7 7</rect></_>
    <_>
      <rect>
        0 14 8 7</rect></_>
    <_>
      <rect>
        0 15 3 5</rect></_>
    <_>
      <rect>
        0 16 1 1</rect></_>
    <_>
      <rect>
        0 16 1 2</rect></_>
    <_>
      <rect>
        0 17 4 6</rect></_>
    <_>
      <rect>
        0 18 1 1</rect></_>
    <_>
      <rect>
        0 19 1 1</rect></_>
    <_>
      <rect>
        0 22 3 2</rect></_>
    <_>
      <rect>
        0 23 4 4</rect></_>
    <_>
      <rect>
        0 23 6 4</rect></_>
    <_>
      <rect>
        0 26 8 1</rect></_>
    <_>
      <rect>
        0 31 1 1</rect></_>
    <_>
      <rect>
        1 0 8 6</rect></_>
    <_>
      <rect>
        1 4 3 6</rect></_>
    <_>
      <rect>
        1 4 4 10</rect></_>
    <_>
      <rect>
        1 5 3 8</rect></_>
    <_>
      <rect>
        1 7 4 4</rect></_>
    <_>
      <rect>
        1 15 1 1</rect></_>
    <_>
      <rect>
        1 16 7 6</rect></_>
    <_>
      <rect>
        1 16 8 6</rect></_>
    <_>
      <rect>
        1 17 1 6</rect></_>
    <_>
      <rect>
        1 17 8 2</rect></_>
    <_>
      <rect>
        1 19 1 5</rect></_>
    <_>
      <rect>
        1 20 8 5</rect></_>
    <_>
      <rect>
        2 2 5 11</rect></_>
    <_>
      <rect>
        2 9 3 3</rect></_>
    <_>
      <rect>
        2 17 1 6</rect></_>
    <_>
      <rect>
        2 22 4 1</rect></_>
    <_>
      <rect>
        3 18 7 2</rect></_>
    <_>
      <rect>
        4 0 7 4</rect></_>
    <_>
      <rect>
        4 4 7 10</rect></_>
    <_>
      <rect>
        4 11 3 5</rect></_>
    <_>
      <rect>
        4 19 3 3</rect></_>
    <_>
      <rect>
        4 28 7 1</rect></_>
    <_>
      <rect>
        6 2 1 8</rect></_>
    <_>
      <rect>
        6 2 4 2</rect></_>
    <_>
      <rect>
        6 4 3 10</rect></_>
    <_>
      <rect>
        6 5 3 8</rect></_>
    <_>
      <rect>
        6 9 2 3</rect></_>
    <_>
      <rect>
        6 12 2 1</rect></_>
    <_>
      <rect>
        6 20 2 5</rect></_>
    <_>
      <rect>
        6 28 5 1</rect></_>
    <_>
      <rect>
        7 0 6 10</rect></_>
    <_>
      <rect>
        7 7 1 1</rect></_>
    <_>
      <rect>
        7 8 1 1</rect></_>
    <_>
      <rect>
        7 23 1 1</rect></_>
    <_>
      <rect>
        7 24 1 1</rect></_>
    <_>
      <rect>
        7 25 1 1</rect></_>
    <_>
      <rect>
        7 25 1 2</rect></_>
    <_>
      <rect>
        7 27 6 1</rect></_>
    <_>
      <rect>
        8 0 1 2</rect></_>
    <_>
      <rect>
        8 9 1 1</rect></_>
    <_>
      <rect>
        8 22 1 1</rect></_>
    <_>
      <rect>
        8 24 1 1</rect></_>
    <_>
      <rect>
        8 25 2 1</rect></_>
    <_>
      <rect>
        8 28 2 1</rect></_>
    <_>
      <rect>
        8 29 1 2</rect></_>
    <_>
      <rect>
        9 0 1 3</rect></_>
    <_>
      <rect>
        9 23 1 1</rect></_>
    <_>
      <rect>
        10 0 2 3</rect></_>
    <_>
      <rect>
        10 0 5 6</rect></_>
    <_>
      <rect>
        11 0 1 3</rect></_>
    <_>
      <rect>
        12 20 1 1</rect></_>
    <_>
      <rect>
        12 25 1 1</rect></_>
    <_>
      <rect>
        13 4 4 10</rect></_>
    <_>
      <rect>
        14 10 1 1</rect></_>
    <_>
      <rect>
        16 5 2 10</rect></_>
    <_>
      <rect>
        16 6 1 1</rect></_>
    <_>
      <rect>
        21 17 1 3</rect></_>
    <_>
      <rect>
        22 0 1 1</rect></_>
    <_>
      <rect>
        22 0 1 8</rect></_>
    <_>
      <rect>
        22 0 1 9</rect></_>
    <_>
      <rect>
        22 2 1 11</rect></_>
    <_>
      <rect>
        22 15 1 6</rect></_></features></cascade>
</opencv_storage>
