<?xml version="1.0"?>
<opencv_storage>
<cascade>
  <stageType>BOOST</stageType>
  <featureType>LBP</featureType>
  <height>35</height>
  <width>25</width>
  <stageParams>
    <boostType>DAB</boostType>
    <minHitRate>9.8000001907348633e-01</minHitRate>
    <maxFalseAlarm>5.0000000000000000e-01</maxFalseAlarm>
    <weightTrimRate>9.4999999999999996e-01</weightTrimRate>
    <maxDepth>1</maxDepth>
    <maxWeakCount>100</maxWeakCount></stageParams>
  <featureParams>
    <maxCatCount>256</maxCatCount>
    <featSize>1</featSize></featureParams>
  <stageNum>14</stageNum>
  <stages>
    <!-- stage 0 -->
    <_>
      <maxWeakCount>3</maxWeakCount>
      <stageThreshold>-2.1296567916870117e+00</stageThreshold>
      <weakClassifiers>
        <_>
          <internalNodes>
            0 -1 7 -1 -1 -1 -1 -9 2013263863 -9 1433892663</internalNodes>
          <leafValues>
            -2.0342633724212646e+00 2.0342633724212646e+00</leafValues></_>
        <_>
          <internalNodes>
            0 -1 76 -268500994 -65538 -65538 1290718974 -1 335544319 -1
            16734207</internalNodes>
          <leafValues>
            -1.2862854003906250e+00 1.2862854003906250e+00</leafValues></_>
        <_>
          <internalNodes>
            0 -1 39 -129 -1 -1 -1 -1 2013265919 -134219788 2013265919</internalNodes>
          <leafValues>
            -1.1908918619155884e+00 1.1908918619155884e+00</leafValues></_></weakClassifiers></_>
    <!-- stage 1 -->
    <_>
      <maxWeakCount>6</maxWeakCount>
      <stageThreshold>-2.8465745449066162e+00</stageThreshold>
      <weakClassifiers>
        <_>
          <internalNodes>
            0 -1 10 -1 -1 -1 -1 -1 -134217729 -1 1903687671</internalNodes>
          <leafValues>
            -1.5998684167861938e+00 1.5998684167861938e+00</leafValues></_>
        <_>
          <internalNodes>
            0 -1 21 -1 -1 -1 -1 -139 2012739447 -11 2013265919</internalNodes>
          <leafValues>
            -1.2680072784423828e+00 1.2680072784423828e+00</leafValues></_>
        <_>
          <internalNodes>
            0 -1 102 -1 -285212673 -2 -285278210 -129 2147483647 -1
            -134217729</internalNodes>
          <leafValues>
            -9.7154873609542847e-01 9.7154873609542847e-01</leafValues></_>
        <_>
          <internalNodes>
            0 -1 45 -210 -285212673 -18 -268435457 -32905 1476395007
            -134217868 2013265919</internalNodes>
          <leafValues>
            -9.1354119777679443e-01 9.1354119777679443e-01</leafValues></_>
        <_>
          <internalNodes>
            0 -1 123 -1 -1 -1 -1 -1 -1 -1 -1073938435</internalNodes>
          <leafValues>
            -9.2169630527496338e-01 9.2169630527496338e-01</leafValues></_>
        <_>
          <internalNodes>
            0 -1 60 -16842754 939157246 -2 654241790 100626431 50294783
            1610610175 33517567</internalNodes>
          <leafValues>
            -1.0010050535202026e+00 1.0010050535202026e+00</leafValues></_></weakClassifiers></_>
    <!-- stage 2 -->
    <_>
      <maxWeakCount>6</maxWeakCount>
      <stageThreshold>-2.5037906169891357e+00</stageThreshold>
      <weakClassifiers>
        <_>
          <internalNodes>
            0 -1 23 -1 -1 -1 -1 -140 -134217729 -12 -1</internalNodes>
          <leafValues>
            -1.4848520755767822e+00 1.4848520755767822e+00</leafValues></_>
        <_>
          <internalNodes>
            0 -1 13 -1 -1 -1 -65537 -1 -1 -1 301946879</internalNodes>
          <leafValues>
            -9.7577863931655884e-01 9.7577863931655884e-01</leafValues></_>
        <_>
          <internalNodes>
            0 -1 85 -129 -285212673 -2 -285278210 -32897 1207959551 -139
            1996488703</internalNodes>
          <leafValues>
            -9.8095589876174927e-01 9.8095589876174927e-01</leafValues></_>
        <_>
          <internalNodes>
            0 -1 69 -17 -268435457 -1 -285212673 -1 2147483647 -9
            -134217729</internalNodes>
          <leafValues>
            -1.0005594491958618e+00 1.0005594491958618e+00</leafValues></_>
        <_>
          <internalNodes>
            0 -1 30 -196611 -1 -1 -1 -1 -1 -1 -196612</internalNodes>
          <leafValues>
            -8.3087885379791260e-01 8.3087885379791260e-01</leafValues></_>
        <_>
          <internalNodes>
            0 -1 57 -1073774732 -1 -1 -402653185 -35020 1442314101
            -51724 88028979</internalNodes>
          <leafValues>
            -8.9364218711853027e-01 8.9364218711853027e-01</leafValues></_></weakClassifiers></_>
    <!-- stage 3 -->
    <_>
      <maxWeakCount>6</maxWeakCount>
      <stageThreshold>-2.5058560371398926e+00</stageThreshold>
      <weakClassifiers>
        <_>
          <internalNodes>
            0 -1 35 -1 -1 -1 -1 -1 -1 -1 -196612</internalNodes>
          <leafValues>
            -1.3770806789398193e+00 1.3770806789398193e+00</leafValues></_>
        <_>
          <internalNodes>
            0 -1 141 -196611 -1 -1 -1 -1 -1 -1 1073496060</internalNodes>
          <leafValues>
            -1.0323480367660522e+00 1.0323480367660522e+00</leafValues></_>
        <_>
          <internalNodes>
            0 -1 5 -1 -1 -1 -1 -129 2139095039 -132 2004877180</internalNodes>
          <leafValues>
            -9.5997428894042969e-01 9.5997428894042969e-01</leafValues></_>
        <_>
          <internalNodes>
            0 -1 86 -1 -268435457 -2 -285212673 -129 2147483647 -1
            -134217729</internalNodes>
          <leafValues>
            -8.4982556104660034e-01 8.4982556104660034e-01</leafValues></_>
        <_>
          <internalNodes>
            0 -1 58 -1 2147418111 -1 2147418110 2147483647 536838143
            2147483647 402620415</internalNodes>
          <leafValues>
            -8.0584794282913208e-01 8.0584794282913208e-01</leafValues></_>
        <_>
          <internalNodes>
            0 -1 81 -1073741969 -285212673 -1 -285278209 -32905
            1207959551 -134217868 1744830455</internalNodes>
          <leafValues>
            -8.1956946849822998e-01 8.1956946849822998e-01</leafValues></_></weakClassifiers></_>
    <!-- stage 4 -->
    <_>
      <maxWeakCount>6</maxWeakCount>
      <stageThreshold>-2.4654228687286377e+00</stageThreshold>
      <weakClassifiers>
        <_>
          <internalNodes>
            0 -1 127 -1 -1 -1 -1 -1 -1 -1 -196611</internalNodes>
          <leafValues>
            -1.3835791349411011e+00 1.3835791349411011e+00</leafValues></_>
        <_>
          <internalNodes>
            0 -1 36 -32897 -65537 -1 -1 2147483647 1157627903 2013231103
            1476360191</internalNodes>
          <leafValues>
            -1.0004307031631470e+00 1.0004307031631470e+00</leafValues></_>
        <_>
          <internalNodes>
            0 -1 139 -65537 -1 -1 -1 -1 -1 -1 -1073938436</internalNodes>
          <leafValues>
            -8.6579817533493042e-01 8.6579817533493042e-01</leafValues></_>
        <_>
          <internalNodes>
            0 -1 41 -1073791180 -1 -2 -1 -4 -1 -134219916 1442641908</internalNodes>
          <leafValues>
            -8.2885968685150146e-01 8.2885968685150146e-01</leafValues></_>
        <_>
          <internalNodes>
            0 -1 82 -1 -268435457 -2 -1 -1 2147483647 -1 -134217729</internalNodes>
          <leafValues>
            -7.3779386281967163e-01 7.3779386281967163e-01</leafValues></_>
        <_>
          <internalNodes>
            0 -1 2 -1073971204 -1 -1 -1 -3 -1 -229380 1069301756</internalNodes>
          <leafValues>
            -7.8226822614669800e-01 7.8226822614669800e-01</leafValues></_></weakClassifiers></_>
    <!-- stage 5 -->
    <_>
      <maxWeakCount>3</maxWeakCount>
      <stageThreshold>-1.7138729095458984e+00</stageThreshold>
      <weakClassifiers>
        <_>
          <internalNodes>
            0 -1 15 -4 -1 -1 -1 -12 -1 -4 -1</internalNodes>
          <leafValues>
            -1.5992465019226074e+00 1.5992465019226074e+00</leafValues></_>
        <_>
          <internalNodes>
            0 -1 124 -1 -1 -1 -1 -1 -1 -1 2147483647</internalNodes>
          <leafValues>
            1.2492361068725586e+00 -1.2492361068725586e+00</leafValues></_>
        <_>
          <internalNodes>
            0 -1 1 -1 -1 -1 -1 -1 -1 -1 -196612</internalNodes>
          <leafValues>
            -1.1346096992492676e+00 1.1346096992492676e+00</leafValues></_></weakClassifiers></_>
    <!-- stage 6 -->
    <_>
      <maxWeakCount>5</maxWeakCount>
      <stageThreshold>-3.1737010478973389e+00</stageThreshold>
      <weakClassifiers>
        <_>
          <internalNodes>
            0 -1 6 -1 -1 -1 -1 -1 2147483647 -1 2004353021</internalNodes>
          <leafValues>
            -1.4242255687713623e+00 1.4242255687713623e+00</leafValues></_>
        <_>
          <internalNodes>
            0 -1 25 -129 -1 -1 -1 -34817 2013265919 2147448831
            1442805759</internalNodes>
          <leafValues>
            -9.3570387363433838e-01 9.3570387363433838e-01</leafValues></_>
        <_>
          <internalNodes>
            0 -1 68 -2 -1 -1 -65538 -1 -1 -1 1979121663</internalNodes>
          <leafValues>
            -8.1912469863891602e-01 8.1912469863891602e-01</leafValues></_>
        <_>
          <internalNodes>
            0 -1 54 -12 -1 -1 -1 -12 -134217729 -4 939474943</internalNodes>
          <leafValues>
            -7.3238301277160645e-01 7.3238301277160645e-01</leafValues></_>
        <_>
          <internalNodes>
            0 -1 63 -1342177538 2147418110 -268435458 1878982398
            268398591 100630527 2147483647 134217727</internalNodes>
          <leafValues>
            -7.3773604631423950e-01 7.3773604631423950e-01</leafValues></_></weakClassifiers></_>
    <!-- stage 7 -->
    <_>
      <maxWeakCount>14</maxWeakCount>
      <stageThreshold>-2.9610469341278076e+00</stageThreshold>
      <weakClassifiers>
        <_>
          <internalNodes>
            0 -1 14 -1 -1 -1 -1 -9 -134217737 -1 -134217729</internalNodes>
          <leafValues>
            -1.1975405216217041e+00 1.1975405216217041e+00</leafValues></_>
        <_>
          <internalNodes>
            0 -1 11 -1 -1 -1 -1 -1 -1 -1 1476360191</internalNodes>
          <leafValues>
            -8.0487525463104248e-01 8.0487525463104248e-01</leafValues></_>
        <_>
          <internalNodes>
            0 -1 100 -1 -268435457 -1 -285212673 -1 -1 -1 -1</internalNodes>
          <leafValues>
            -6.5282487869262695e-01 6.5282487869262695e-01</leafValues></_>
        <_>
          <internalNodes>
            0 -1 52 -140 -1 -1 -1 -2188 1475868533 -35340 369049471</internalNodes>
          <leafValues>
            -7.1385568380355835e-01 7.1385568380355835e-01</leafValues></_>
        <_>
          <internalNodes>
            0 -1 27 1073709053 -1 -1 -1 -1 -1 -3 486309884</internalNodes>
          <leafValues>
            -6.0369414091110229e-01 6.0369414091110229e-01</leafValues></_>
        <_>
          <internalNodes>
            0 -1 143 1056735228 -65537 -1 -65537 -1 -1 -3 1073496052</internalNodes>
          <leafValues>
            -5.2407574653625488e-01 5.2407574653625488e-01</leafValues></_>
        <_>
          <internalNodes>
            0 -1 59 -65540 -1 -1 -1 -1 -1 -1 -196620</internalNodes>
          <leafValues>
            -5.4912787675857544e-01 5.4912787675857544e-01</leafValues></_>
        <_>
          <internalNodes>
            0 -1 72 -18 -285212673 -2 -16777217 -1 2013265919 -1
            2013265919</internalNodes>
          <leafValues>
            5.0297272205352783e-01 -5.0297272205352783e-01</leafValues></_>
        <_>
          <internalNodes>
            0 -1 37 -2 2147385342 -1 2147483647 2147483647 2013233151
            2147483647 402653183</internalNodes>
          <leafValues>
            -5.1247334480285645e-01 5.1247334480285645e-01</leafValues></_>
        <_>
          <internalNodes>
            0 -1 108 -1 -268435457 -1 -285212673 -1 -1 -1 -1</internalNodes>
          <leafValues>
            -5.9469366073608398e-01 5.9469366073608398e-01</leafValues></_>
        <_>
          <internalNodes>
            0 -1 126 -1 -1 -1 -1 -1 -1 -1 2147483647</internalNodes>
          <leafValues>
            5.5116027593612671e-01 -5.5116027593612671e-01</leafValues></_>
        <_>
          <internalNodes>
            0 -1 117 -1 -1 -1 -1 -1 -1 -1 -1073807363</internalNodes>
          <leafValues>
            -5.3285312652587891e-01 5.3285312652587891e-01</leafValues></_>
        <_>
          <internalNodes>
            0 -1 0 2147483647 -1 -1 -285212673 2147483647 -1 -129
            1819606901</internalNodes>
          <leafValues>
            -4.9048632383346558e-01 4.9048632383346558e-01</leafValues></_>
        <_>
          <internalNodes>
            0 -1 65 -32900 -65537 -2 -1 -2 1056964607 2147448692
            2013265919</internalNodes>
          <leafValues>
            -4.9695780873298645e-01 4.9695780873298645e-01</leafValues></_></weakClassifiers></_>
    <!-- stage 8 -->
    <_>
      <maxWeakCount>13</maxWeakCount>
      <stageThreshold>-2.6799883842468262e+00</stageThreshold>
      <weakClassifiers>
        <_>
          <internalNodes>
            0 -1 95 -1 -268435457 -1 -285212673 -1 -1 -1 -1</internalNodes>
          <leafValues>
            -1.1670352220535278e+00 1.1670352220535278e+00</leafValues></_>
        <_>
          <internalNodes>
            0 -1 132 -65540 -65538 -1 -65538 -1 -1 -1 805060606</internalNodes>
          <leafValues>
            -7.1987491846084595e-01 7.1987491846084595e-01</leafValues></_>
        <_>
          <internalNodes>
            0 -1 53 -2 -1 -1 -1 -12 -1 -4 -1</internalNodes>
          <leafValues>
            -7.3834711313247681e-01 7.3834711313247681e-01</leafValues></_>
        <_>
          <internalNodes>
            0 -1 32 1073643517 -1 -1 -65537 -1 -1 -1 494698492</internalNodes>
          <leafValues>
            -6.6113704442977905e-01 6.6113704442977905e-01</leafValues></_>
        <_>
          <internalNodes>
            0 -1 144 1073496060 -65537 -1 -65537 -1 -1 -1 804528116</internalNodes>
          <leafValues>
            -5.8640199899673462e-01 5.8640199899673462e-01</leafValues></_>
        <_>
          <internalNodes>
            0 -1 9 -258 -1 -1 -65538 -1 -134742017 -1 1349776887</internalNodes>
          <leafValues>
            -5.7527601718902588e-01 5.7527601718902588e-01</leafValues></_>
        <_>
          <internalNodes>
            0 -1 107 -1 -268435457 -1 -285212673 -1 -1 -1 -1</internalNodes>
          <leafValues>
            -6.8384027481079102e-01 6.8384027481079102e-01</leafValues></_>
        <_>
          <internalNodes>
            0 -1 130 1039941628 -1073807363 -1 1073676287 -1 -131073
            -65668 205004660</internalNodes>
          <leafValues>
            -5.7915574312210083e-01 5.7915574312210083e-01</leafValues></_>
        <_>
          <internalNodes>
            0 -1 4 -1 -1 -1 -1 -1 -1 -2 2013265788</internalNodes>
          <leafValues>
            -6.0305202007293701e-01 6.0305202007293701e-01</leafValues></_>
        <_>
          <internalNodes>
            0 -1 91 -1 -268435457 -1 -1 -1 2147483647 -1 -134217729</internalNodes>
          <leafValues>
            -5.2370631694793701e-01 5.2370631694793701e-01</leafValues></_>
        <_>
          <internalNodes>
            0 -1 49 -1 -1 -1 1174339583 -2057 1476360183 2147450687
            356341567</internalNodes>
          <leafValues>
            -5.4375392198562622e-01 5.4375392198562622e-01</leafValues></_>
        <_>
          <internalNodes>
            0 -1 64 -65540 -1 -1 -1 -1 -1 -1 -196620</internalNodes>
          <leafValues>
            -5.7171195745468140e-01 5.7171195745468140e-01</leafValues></_>
        <_>
          <internalNodes>
            0 -1 26 1073643519 -1 -1 -1359020033 -32769 -1 -32899
            1282735988</internalNodes>
          <leafValues>
            -4.9275404214859009e-01 4.9275404214859009e-01</leafValues></_></weakClassifiers></_>
    <!-- stage 9 -->
    <_>
      <maxWeakCount>8</maxWeakCount>
      <stageThreshold>-3.2310152053833008e+00</stageThreshold>
      <weakClassifiers>
        <_>
          <internalNodes>
            0 -1 100 -1 -268435457 -1 -285212673 -1 -1 -9 -1</internalNodes>
          <leafValues>
            -1.3092719316482544e+00 1.3092719316482544e+00</leafValues></_>
        <_>
          <internalNodes>
            0 -1 56 -2 -1 -1 -1 -140 -1 -4 -1</internalNodes>
          <leafValues>
            -8.0431050062179565e-01 8.0431050062179565e-01</leafValues></_>
        <_>
          <internalNodes>
            0 -1 125 -1 -1 -1 -1 -1 -1 -1 2147483647</internalNodes>
          <leafValues>
            7.9566735029220581e-01 -7.9566735029220581e-01</leafValues></_>
        <_>
          <internalNodes>
            0 -1 8 -1 -1 -1 -1 -1 -1 -1 1979187199</internalNodes>
          <leafValues>
            -7.2495001554489136e-01 7.2495001554489136e-01</leafValues></_>
        <_>
          <internalNodes>
            0 -1 109 -1 -268435457 -2 -285278210 -129 -1 -129 -134217729</internalNodes>
          <leafValues>
            -7.0055913925170898e-01 7.0055913925170898e-01</leafValues></_>
        <_>
          <internalNodes>
            0 -1 51 -1 -1 -1 -1 -129 2004877183 -4 2004877308</internalNodes>
          <leafValues>
            -6.1936187744140625e-01 6.1936187744140625e-01</leafValues></_>
        <_>
          <internalNodes>
            0 -1 43 -61916 -16843010 -2 -1073741825 2147443796 620724223
            2013230452 905410559</internalNodes>
          <leafValues>
            -5.8494579792022705e-01 5.8494579792022705e-01</leafValues></_>
        <_>
          <internalNodes>
            0 -1 83 -1 -268435457 -1 -1 -1 2147483647 -1 -134217729</internalNodes>
          <leafValues>
            -6.8440163135528564e-01 6.8440163135528564e-01</leafValues></_></weakClassifiers></_>
    <!-- stage 10 -->
    <_>
      <maxWeakCount>17</maxWeakCount>
      <stageThreshold>-2.8065366744995117e+00</stageThreshold>
      <weakClassifiers>
        <_>
          <internalNodes>
            0 -1 105 -1 -268435457 -1 -285212673 -1 -1 -1 -1</internalNodes>
          <leafValues>
            -1.2058578729629517e+00 1.2058578729629517e+00</leafValues></_>
        <_>
          <internalNodes>
            0 -1 78 -1 -1 -1 -1 -9 1207959551 -134219785 402653183</internalNodes>
          <leafValues>
            -7.0671975612640381e-01 7.0671975612640381e-01</leafValues></_>
        <_>
          <internalNodes>
            0 -1 94 -1 -1 -2 -16777217 -1 2147483647 -1 -134217729</internalNodes>
          <leafValues>
            -5.8946204185485840e-01 5.8946204185485840e-01</leafValues></_>
        <_>
          <internalNodes>
            0 -1 138 1073709055 -1 -1 -268500993 -1 -1 2147483517
            1282735989</internalNodes>
          <leafValues>
            -5.7951104640960693e-01 5.7951104640960693e-01</leafValues></_>
        <_>
          <internalNodes>
            0 -1 16 -2 -1 -1 -1 -139 2004877183 -4 2147483644</internalNodes>
          <leafValues>
            -5.3664213418960571e-01 5.3664213418960571e-01</leafValues></_>
        <_>
          <internalNodes>
            0 -1 44 -130 -1 -1 -1 2147450748 939524095 2013233023
            939524095</internalNodes>
          <leafValues>
            -5.0313395261764526e-01 5.0313395261764526e-01</leafValues></_>
        <_>
          <internalNodes>
            0 -1 97 -1 -1 -1 -285212673 -129 -1 -129 -1</internalNodes>
          <leafValues>
            -5.5617988109588623e-01 5.5617988109588623e-01</leafValues></_>
        <_>
          <internalNodes>
            0 -1 121 -1 -1 -1 -1 -1 -1 -1 2147483647</internalNodes>
          <leafValues>
            5.4642212390899658e-01 -5.4642212390899658e-01</leafValues></_>
        <_>
          <internalNodes>
            0 -1 22 -1 -1 -1 -1 -1 -1 -1 -229377</internalNodes>
          <leafValues>
            -5.2213728427886963e-01 5.2213728427886963e-01</leafValues></_>
        <_>
          <internalNodes>
            0 -1 136 1073709055 2147483647 -1 805240831 -1 -1 -129
            208961525</internalNodes>
          <leafValues>
            -4.8803138732910156e-01 4.8803138732910156e-01</leafValues></_>
        <_>
          <internalNodes>
            0 -1 102 -1 -268435457 -2 -285212673 -129 2147483647 -1
            -134217729</internalNodes>
          <leafValues>
            -4.6182030439376831e-01 4.6182030439376831e-01</leafValues></_>
        <_>
          <internalNodes>
            0 -1 38 1073709055 2147483647 -1 -1342242817 -1 -1 -129
            1282703357</internalNodes>
          <leafValues>
            -4.6966862678527832e-01 4.6966862678527832e-01</leafValues></_>
        <_>
          <internalNodes>
            0 -1 103 -1 -268435457 -1 -1 -1 2147483647 -1 -134217729</internalNodes>
          <leafValues>
            -4.6027263998985291e-01 4.6027263998985291e-01</leafValues></_>
        <_>
          <internalNodes>
            0 -1 140 -65537 -1 -1 -1 -1 -1 -1 -1073971204</internalNodes>
          <leafValues>
            -4.6585327386856079e-01 4.6585327386856079e-01</leafValues></_>
        <_>
          <internalNodes>
            0 -1 93 -1 -1 -1 -1 -1 -1 -1 2147418109</internalNodes>
          <leafValues>
            3.9762657880783081e-01 -3.9762657880783081e-01</leafValues></_>
        <_>
          <internalNodes>
            0 -1 99 -1 -268435457 -1 -268435457 -1 -1 -1 -1</internalNodes>
          <leafValues>
            -5.1528239250183105e-01 5.1528239250183105e-01</leafValues></_>
        <_>
          <internalNodes>
            0 -1 18 -1 -1 -1 -536936449 -1 1442805759 2013265919
            25122815</internalNodes>
          <leafValues>
            -5.3009384870529175e-01 5.3009384870529175e-01</leafValues></_></weakClassifiers></_>
    <!-- stage 11 -->
    <_>
      <maxWeakCount>17</maxWeakCount>
      <stageThreshold>-2.6332652568817139e+00</stageThreshold>
      <weakClassifiers>
        <_>
          <internalNodes>
            0 -1 106 -1 -268435457 -1 -268435457 -1 -1 -1 -1</internalNodes>
          <leafValues>
            -1.1304018497467041e+00 1.1304018497467041e+00</leafValues></_>
        <_>
          <internalNodes>
            0 -1 77 -1 -1 -1 -134217729 -129 2004877183 -1 2013265919</internalNodes>
          <leafValues>
            -7.1173101663589478e-01 7.1173101663589478e-01</leafValues></_>
        <_>
          <internalNodes>
            0 -1 88 -1 -285212673 -2 -285212673 -1 2147483647 -1
            2013265919</internalNodes>
          <leafValues>
            6.1489492654800415e-01 -6.1489492654800415e-01</leafValues></_>
        <_>
          <internalNodes>
            0 -1 145 2147450879 -1 -1 -268500993 -1 -1 -131 1148518388</internalNodes>
          <leafValues>
            -6.0190320014953613e-01 6.0190320014953613e-01</leafValues></_>
        <_>
          <internalNodes>
            0 -1 35 -196612 -1 -1 -1 -1 -1 -1 -196612</internalNodes>
          <leafValues>
            -5.6609356403350830e-01 5.6609356403350830e-01</leafValues></_>
        <_>
          <internalNodes>
            0 -1 31 1073709053 -1 -1 -268500993 -1 -1 2147483517
            74776444</internalNodes>
          <leafValues>
            -5.1361989974975586e-01 5.1361989974975586e-01</leafValues></_>
        <_>
          <internalNodes>
            0 -1 114 -1 -1 -1 -1 -1 -1 -1 -1073807363</internalNodes>
          <leafValues>
            -5.1777851581573486e-01 5.1777851581573486e-01</leafValues></_>
        <_>
          <internalNodes>
            0 -1 28 -1 2147483647 -1 2147483647 2147483647 1073709055
            2147483647 402620415</internalNodes>
          <leafValues>
            -4.7565689682960510e-01 4.7565689682960510e-01</leafValues></_>
        <_>
          <internalNodes>
            0 -1 98 -1 -1 -1 -285212673 -129 -1 -1 -1</internalNodes>
          <leafValues>
            -5.2369576692581177e-01 5.2369576692581177e-01</leafValues></_>
        <_>
          <internalNodes>
            0 -1 24 1073709055 -1 -2 1862205439 -1 -1 2147450749
            74743668</internalNodes>
          <leafValues>
            -5.4143160581588745e-01 5.4143160581588745e-01</leafValues></_>
        <_>
          <internalNodes>
            0 -1 113 -268435474 -268435457 -2 -285278210 -129 2147483647
            -137 -1</internalNodes>
          <leafValues>
            -4.7610434889793396e-01 4.7610434889793396e-01</leafValues></_>
        <_>
          <internalNodes>
            0 -1 47 2147450879 -1 -1 -285278209 -1 -1 -137 1148518261</internalNodes>
          <leafValues>
            -4.7805497050285339e-01 4.7805497050285339e-01</leafValues></_>
        <_>
          <internalNodes>
            0 -1 67 -1 -1 -1 -1 -1 2147483647 -1 -134217729</internalNodes>
          <leafValues>
            -4.9133241176605225e-01 4.9133241176605225e-01</leafValues></_>
        <_>
          <internalNodes>
            0 -1 62 -57548 -32769 -2 -1 -16777356 83886079 1475819380
            368539647</internalNodes>
          <leafValues>
            -4.9220067262649536e-01 4.9220067262649536e-01</leafValues></_>
        <_>
          <internalNodes>
            0 -1 4 -2 -1 -1 -1 -1 2147483647 -4 2004877180</internalNodes>
          <leafValues>
            -4.6721071004867554e-01 4.6721071004867554e-01</leafValues></_>
        <_>
          <internalNodes>
            0 -1 99 -1 -268435457 -1 -268435457 -1 -1 -9 -1</internalNodes>
          <leafValues>
            -5.0096136331558228e-01 5.0096136331558228e-01</leafValues></_>
        <_>
          <internalNodes>
            0 -1 142 805076988 -229379 -1 1073545215 -1 -1 -3 1039425524</internalNodes>
          <leafValues>
            -5.0210016965866089e-01 5.0210016965866089e-01</leafValues></_></weakClassifiers></_>
    <!-- stage 12 -->
    <_>
      <maxWeakCount>25</maxWeakCount>
      <stageThreshold>-2.7551689147949219e+00</stageThreshold>
      <weakClassifiers>
        <_>
          <internalNodes>
            0 -1 104 -1 -1 -1 -1 -1 -1 -1 -1342242817</internalNodes>
          <leafValues>
            -1.0577528476715088e+00 1.0577528476715088e+00</leafValues></_>
        <_>
          <internalNodes>
            0 -1 12 -1 -1 -1 -1 -4 -1 -4 -1</internalNodes>
          <leafValues>
            -6.4217835664749146e-01 6.4217835664749146e-01</leafValues></_>
        <_>
          <internalNodes>
            0 -1 131 805191676 -1073741825 -1 -1073741825 -1073774593 -1
            -1073774593 1073709053</internalNodes>
          <leafValues>
            -5.2593362331390381e-01 5.2593362331390381e-01</leafValues></_>
        <_>
          <internalNodes>
            0 -1 20 -1 -1 -1 -1 -129 2139094911 -4 2147483647</internalNodes>
          <leafValues>
            -4.4486725330352783e-01 4.4486725330352783e-01</leafValues></_>
        <_>
          <internalNodes>
            0 -1 80 -2 -285212673 -2 -285278210 -1 2013265919 -1
            2013265919</internalNodes>
          <leafValues>
            4.4675338268280029e-01 -4.4675338268280029e-01</leafValues></_>
        <_>
          <internalNodes>
            0 -1 48 -258 -1 -1 -2 -1 -1 -1 1417150463</internalNodes>
          <leafValues>
            -4.8692828416824341e-01 4.8692828416824341e-01</leafValues></_>
        <_>
          <internalNodes>
            0 -1 107 -1 -268435457 -1 -285212673 -1 -1 -1 -1</internalNodes>
          <leafValues>
            -4.4701501727104187e-01 4.4701501727104187e-01</leafValues></_>
        <_>
          <internalNodes>
            0 -1 34 -65538 2138996478 -1 2147418110 134170366 75386111
            2013231103 75454463</internalNodes>
          <leafValues>
            -5.2615720033645630e-01 5.2615720033645630e-01</leafValues></_>
        <_>
          <internalNodes>
            0 -1 100 -1 -268435457 -1 -285212673 -1 -1 -9 -1</internalNodes>
          <leafValues>
            -4.3363070487976074e-01 4.3363070487976074e-01</leafValues></_>
        <_>
          <internalNodes>
            0 -1 66 -98308 -1 -1 -1 -1 -1 -1 -229388</internalNodes>
          <leafValues>
            -4.3389996886253357e-01 4.3389996886253357e-01</leafValues></_>
        <_>
          <internalNodes>
            0 -1 75 -1 -268435457 -1 1157558014 -9 1442805751 -51393
            356456247</internalNodes>
          <leafValues>
            -4.0513640642166138e-01 4.0513640642166138e-01</leafValues></_>
        <_>
          <internalNodes>
            0 -1 122 -1073774593 -1 -1 -1 -1 -1 -1 -1073774593</internalNodes>
          <leafValues>
            -5.1301383972167969e-01 5.1301383972167969e-01</leafValues></_>
        <_>
          <internalNodes>
            0 -1 137 2147483647 -1 -1 -268500993 -1 -1 -1 1282736117</internalNodes>
          <leafValues>
            -4.3099626898765564e-01 4.3099626898765564e-01</leafValues></_>
        <_>
          <internalNodes>
            0 -1 134 -1 -268435457 -1 -285212673 -1 -1 -1 2147483647</internalNodes>
          <leafValues>
            3.7155678868293762e-01 -3.7155678868293762e-01</leafValues></_>
        <_>
          <internalNodes>
            0 -1 46 -1 -1 -1 -268435457 -32769 -1 -131 2105343999</internalNodes>
          <leafValues>
            -4.0561833977699280e-01 4.0561833977699280e-01</leafValues></_>
        <_>
          <internalNodes>
            0 -1 90 -1 -268435457 -2 -1 -129 -1 -1 -134217729</internalNodes>
          <leafValues>
            -4.1387802362442017e-01 4.1387802362442017e-01</leafValues></_>
        <_>
          <internalNodes>
            0 -1 128 -1 -1 -1 -16777217 -1 -1 -1 2147483647</internalNodes>
          <leafValues>
            3.5325121879577637e-01 -3.5325121879577637e-01</leafValues></_>
        <_>
          <internalNodes>
            0 -1 89 -1 -268435457 -1 -1 -1 -1 -9 -1</internalNodes>
          <leafValues>
            -4.6509981155395508e-01 4.6509981155395508e-01</leafValues></_>
        <_>
          <internalNodes>
            0 -1 55 -32908 -1 -1 -1 -2252 1442281335 -59916 360527679</internalNodes>
          <leafValues>
            -3.7848106026649475e-01 3.7848106026649475e-01</leafValues></_>
        <_>
          <internalNodes>
            0 -1 74 -2 -1 -2 -16842754 -1 -1 -1 -150994953</internalNodes>
          <leafValues>
            -4.1436323523521423e-01 4.1436323523521423e-01</leafValues></_>
        <_>
          <internalNodes>
            0 -1 3 -1 -1 -1 -1 -1 2147483647 -4 2013265788</internalNodes>
          <leafValues>
            -3.9033818244934082e-01 3.9033818244934082e-01</leafValues></_>
        <_>
          <internalNodes>
            0 -1 29 2147450879 2147483647 -1 -285278209 -1 -1 -131
            208994300</internalNodes>
          <leafValues>
            -3.6740079522132874e-01 3.6740079522132874e-01</leafValues></_>
        <_>
          <internalNodes>
            0 -1 133 -65540 -1 -1 -1 -1 -1 -1 -1073774593</internalNodes>
          <leafValues>
            -4.1145095229148865e-01 4.1145095229148865e-01</leafValues></_>
        <_>
          <internalNodes>
            0 -1 92 -69890 -65538 -1 -420544770 -1 -150994945 -1
            15007486</internalNodes>
          <leafValues>
            -3.6718776822090149e-01 3.6718776822090149e-01</leafValues></_>
        <_>
          <internalNodes>
            0 -1 119 -2 -1 -1 -285278209 -1 2147483647 -1 2096955388</internalNodes>
          <leafValues>
            3.5259237885475159e-01 -3.5259237885475159e-01</leafValues></_></weakClassifiers></_>
    <!-- stage 13 -->
    <_>
      <maxWeakCount>25</maxWeakCount>
      <stageThreshold>-2.7421669960021973e+00</stageThreshold>
      <weakClassifiers>
        <_>
          <internalNodes>
            0 -1 17 -1 -1 -1 -1 -1 2147483647 -1 -1</internalNodes>
          <leafValues>
            -1.0154581069946289e+00 1.0154581069946289e+00</leafValues></_>
        <_>
          <internalNodes>
            0 -1 42 -1 -1 -1 -1 -1 -1 -9 -134217729</internalNodes>
          <leafValues>
            -5.6732380390167236e-01 5.6732380390167236e-01</leafValues></_>
        <_>
          <internalNodes>
            0 -1 19 -1 -1 -1 -1 -34817 1476360191 2147481599 360667135</internalNodes>
          <leafValues>
            -4.9779888987541199e-01 4.9779888987541199e-01</leafValues></_>
        <_>
          <internalNodes>
            0 -1 115 -1 -1 -1 -1 -1 -1 -1 -285278211</internalNodes>
          <leafValues>
            -4.9100518226623535e-01 4.9100518226623535e-01</leafValues></_>
        <_>
          <internalNodes>
            0 -1 79 -17 -285212673 -1 -285212673 -129 2013265919 -1
            2013265919</internalNodes>
          <leafValues>
            4.5813566446304321e-01 -4.5813566446304321e-01</leafValues></_>
        <_>
          <internalNodes>
            0 -1 87 -1 -1 -1 -1 -1 -1 -1 2147450877</internalNodes>
          <leafValues>
            4.2267903685569763e-01 -4.2267903685569763e-01</leafValues></_>
        <_>
          <internalNodes>
            0 -1 70 -1 -1 -1 -1 -129 2147483647 -1 -134217729</internalNodes>
          <leafValues>
            -4.6427854895591736e-01 4.6427854895591736e-01</leafValues></_>
        <_>
          <internalNodes>
            0 -1 61 1073709055 -1 -1 -1342242817 -1 -1 2147483519
            74776572</internalNodes>
          <leafValues>
            -3.9011350274085999e-01 3.9011350274085999e-01</leafValues></_>
        <_>
          <internalNodes>
            0 -1 110 -1 -268435457 -1 -1 -1 2147483647 -1 -134217729</internalNodes>
          <leafValues>
            -4.3595749139785767e-01 4.3595749139785767e-01</leafValues></_>
        <_>
          <internalNodes>
            0 -1 84 -1 -268435457 -1 1157558142 -11 1442838519
            -536871427 70727474</internalNodes>
          <leafValues>
            -3.6711692810058594e-01 3.6711692810058594e-01</leafValues></_>
        <_>
          <internalNodes>
            0 -1 33 -4 -1 -1 -1 -1 -1 -1 -196620</internalNodes>
          <leafValues>
            -3.8927742838859558e-01 3.8927742838859558e-01</leafValues></_>
        <_>
          <internalNodes>
            0 -1 112 -1073840132 -1073807361 -1 -1073807361 -1 -1 -1
            1073709055</internalNodes>
          <leafValues>
            -3.5636347532272339e-01 3.5636347532272339e-01</leafValues></_>
        <_>
          <internalNodes>
            0 -1 71 -1 -1 -1 -1 -129 -1 -137 2147483647</internalNodes>
          <leafValues>
            3.6838799715042114e-01 -3.6838799715042114e-01</leafValues></_>
        <_>
          <internalNodes>
            0 -1 96 -1 -268435457 -1 -285212673 -1 -1 -1 -1</internalNodes>
          <leafValues>
            -4.1956678032875061e-01 4.1956678032875061e-01</leafValues></_>
        <_>
          <internalNodes>
            0 -1 50 -16843010 -16847106 -65537 1659041522 -1 1979185151
            -134217729 1081341815</internalNodes>
          <leafValues>
            -4.2858779430389404e-01 4.2858779430389404e-01</leafValues></_>
        <_>
          <internalNodes>
            0 -1 120 -65538 -268435457 -1 -285278209 -1 -1 -1 788299764</internalNodes>
          <leafValues>
            3.6362940073013306e-01 -3.6362940073013306e-01</leafValues></_>
        <_>
          <internalNodes>
            0 -1 40 1073709055 2147483647 -1 -268500993 -1 -1 -129
            1416920957</internalNodes>
          <leafValues>
            -3.4210655093193054e-01 3.4210655093193054e-01</leafValues></_>
        <_>
          <internalNodes>
            0 -1 111 -1 -268435457 -1 -268435457 -1 -1 -1 -1</internalNodes>
          <leafValues>
            -4.2514422535896301e-01 4.2514422535896301e-01</leafValues></_>
        <_>
          <internalNodes>
            0 -1 58 -2 2147418110 -2 2147418110 2147483647 536838143
            2147483647 402612223</internalNodes>
          <leafValues>
            -3.7379500269889832e-01 3.7379500269889832e-01</leafValues></_>
        <_>
          <internalNodes>
            0 -1 73 -1 -1 -1 -1 -1 -1 -1 754253684</internalNodes>
          <leafValues>
            -3.6345937848091125e-01 3.6345937848091125e-01</leafValues></_>
        <_>
          <internalNodes>
            0 -1 101 -1 -285278209 -1 -16842753 -1 -1 -9 -1</internalNodes>
          <leafValues>
            -3.9467132091522217e-01 3.9467132091522217e-01</leafValues></_>
        <_>
          <internalNodes>
            0 -1 129 -1 -1 -1 -1 -1 -1 -1 2147483647</internalNodes>
          <leafValues>
            3.9575788378715515e-01 -3.9575788378715515e-01</leafValues></_>
        <_>
          <internalNodes>
            0 -1 116 -1 -1 -1 -268500993 -1 -1 -1 1291780094</internalNodes>
          <leafValues>
            -3.8023757934570312e-01 3.8023757934570312e-01</leafValues></_>
        <_>
          <internalNodes>
            0 -1 135 -65537 -1 -1 -1 -1 -1 -1 -1073774593</internalNodes>
          <leafValues>
            -4.0952739119529724e-01 4.0952739119529724e-01</leafValues></_>
        <_>
          <internalNodes>
            0 -1 118 -1 -1 -1 -1 -1 -1 -1 1073643519</internalNodes>
          <leafValues>
            3.5402718186378479e-01 -3.5402718186378479e-01</leafValues></_></weakClassifiers></_></stages>
  <features>
    <_>
      <rect>
        0 0 1 1</rect></_>
    <_>
      <rect>
        0 0 1 7</rect></_>
    <_>
      <rect>
        0 0 1 10</rect></_>
    <_>
      <rect>
        0 0 4 4</rect></_>
    <_>
      <rect>
        0 0 4 5</rect></_>
    <_>
      <rect>
        0 0 4 6</rect></_>
    <_>
      <rect>
        0 0 6 4</rect></_>
    <_>
      <rect>
        0 0 6 11</rect></_>
    <_>
      <rect>
        0 0 8 5</rect></_>
    <_>
      <rect>
        0 0 8 7</rect></_>
    <_>
      <rect>
        0 0 8 9</rect></_>
    <_>
      <rect>
        0 0 8 11</rect></_>
    <_>
      <rect>
        0 1 3 11</rect></_>
    <_>
      <rect>
        0 1 8 11</rect></_>
    <_>
      <rect>
        0 3 5 9</rect></_>
    <_>
      <rect>
        0 4 3 9</rect></_>
    <_>
      <rect>
        0 4 4 6</rect></_>
    <_>
      <rect>
        0 4 5 1</rect></_>
    <_>
      <rect>
        0 4 8 10</rect></_>
    <_>
      <rect>
        0 5 7 10</rect></_>
    <_>
      <rect>
        0 7 4 4</rect></_>
    <_>
      <rect>
        0 7 5 6</rect></_>
    <_>
      <rect>
        0 8 1 7</rect></_>
    <_>
      <rect>
        0 8 4 6</rect></_>
    <_>
      <rect>
        0 11 1 1</rect></_>
    <_>
      <rect>
        0 11 6 8</rect></_>
    <_>
      <rect>
        0 14 1 1</rect></_>
    <_>
      <rect>
        0 14 1 2</rect></_>
    <_>
      <rect>
        0 14 8 7</rect></_>
    <_>
      <rect>
        0 15 1 1</rect></_>
    <_>
      <rect>
        0 15 1 6</rect></_>
    <_>
      <rect>
        0 16 1 1</rect></_>
    <_>
      <rect>
        0 16 1 2</rect></_>
    <_>
      <rect>
        0 16 2 6</rect></_>
    <_>
      <rect>
        0 16 8 6</rect></_>
    <_>
      <rect>
        0 17 1 6</rect></_>
    <_>
      <rect>
        0 17 6 6</rect></_>
    <_>
      <rect>
        0 17 8 6</rect></_>
    <_>
      <rect>
        0 18 1 1</rect></_>
    <_>
      <rect>
        0 18 4 3</rect></_>
    <_>
      <rect>
        0 19 1 1</rect></_>
    <_>
      <rect>
        0 19 3 4</rect></_>
    <_>
      <rect>
        0 20 4 3</rect></_>
    <_>
      <rect>
        0 23 5 4</rect></_>
    <_>
      <rect>
        0 23 6 4</rect></_>
    <_>
      <rect>
        0 24 4 1</rect></_>
    <_>
      <rect>
        0 31 1 1</rect></_>
    <_>
      <rect>
        1 0 1 1</rect></_>
    <_>
      <rect>
        1 0 8 7</rect></_>
    <_>
      <rect>
        1 2 6 11</rect></_>
    <_>
      <rect>
        1 3 8 6</rect></_>
    <_>
      <rect>
        1 4 4 5</rect></_>
    <_>
      <rect>
        1 4 4 10</rect></_>
    <_>
      <rect>
        1 5 3 8</rect></_>
    <_>
      <rect>
        1 5 3 9</rect></_>
    <_>
      <rect>
        1 5 4 10</rect></_>
    <_>
      <rect>
        1 7 3 7</rect></_>
    <_>
      <rect>
        1 7 4 9</rect></_>
    <_>
      <rect>
        1 11 8 8</rect></_>
    <_>
      <rect>
        1 16 1 6</rect></_>
    <_>
      <rect>
        1 16 8 6</rect></_>
    <_>
      <rect>
        1 17 1 1</rect></_>
    <_>
      <rect>
        1 17 4 6</rect></_>
    <_>
      <rect>
        1 17 8 6</rect></_>
    <_>
      <rect>
        1 19 1 5</rect></_>
    <_>
      <rect>
        1 20 3 5</rect></_>
    <_>
      <rect>
        2 17 1 6</rect></_>
    <_>
      <rect>
        2 22 4 1</rect></_>
    <_>
      <rect>
        3 0 7 6</rect></_>
    <_>
      <rect>
        3 4 6 1</rect></_>
    <_>
      <rect>
        3 13 3 1</rect></_>
    <_>
      <rect>
        3 17 2 1</rect></_>
    <_>
      <rect>
        3 19 7 2</rect></_>
    <_>
      <rect>
        4 0 1 2</rect></_>
    <_>
      <rect>
        4 0 7 2</rect></_>
    <_>
      <rect>
        4 2 4 11</rect></_>
    <_>
      <rect>
        4 3 7 10</rect></_>
    <_>
      <rect>
        4 9 3 3</rect></_>
    <_>
      <rect>
        4 16 3 4</rect></_>
    <_>
      <rect>
        4 18 6 2</rect></_>
    <_>
      <rect>
        4 18 7 2</rect></_>
    <_>
      <rect>
        4 25 2 1</rect></_>
    <_>
      <rect>
        4 26 7 1</rect></_>
    <_>
      <rect>
        4 27 7 1</rect></_>
    <_>
      <rect>
        5 2 3 10</rect></_>
    <_>
      <rect>
        5 26 2 1</rect></_>
    <_>
      <rect>
        5 28 5 1</rect></_>
    <_>
      <rect>
        6 1 1 9</rect></_>
    <_>
      <rect>
        6 19 6 2</rect></_>
    <_>
      <rect>
        6 23 1 1</rect></_>
    <_>
      <rect>
        6 27 4 1</rect></_>
    <_>
      <rect>
        6 28 6 1</rect></_>
    <_>
      <rect>
        7 0 6 8</rect></_>
    <_>
      <rect>
        7 2 1 8</rect></_>
    <_>
      <rect>
        7 5 6 1</rect></_>
    <_>
      <rect>
        7 7 1 1</rect></_>
    <_>
      <rect>
        7 8 1 1</rect></_>
    <_>
      <rect>
        7 10 1 1</rect></_>
    <_>
      <rect>
        7 11 1 1</rect></_>
    <_>
      <rect>
        7 23 1 1</rect></_>
    <_>
      <rect>
        7 25 1 1</rect></_>
    <_>
      <rect>
        7 25 1 2</rect></_>
    <_>
      <rect>
        7 26 2 1</rect></_>
    <_>
      <rect>
        7 27 6 1</rect></_>
    <_>
      <rect>
        8 0 1 3</rect></_>
    <_>
      <rect>
        8 9 1 1</rect></_>
    <_>
      <rect>
        8 22 1 1</rect></_>
    <_>
      <rect>
        8 24 1 1</rect></_>
    <_>
      <rect>
        8 25 1 1</rect></_>
    <_>
      <rect>
        8 27 2 1</rect></_>
    <_>
      <rect>
        8 28 5 1</rect></_>
    <_>
      <rect>
        9 21 1 1</rect></_>
    <_>
      <rect>
        9 23 1 4</rect></_>
    <_>
      <rect>
        9 25 2 1</rect></_>
    <_>
      <rect>
        10 0 1 3</rect></_>
    <_>
      <rect>
        10 0 2 3</rect></_>
    <_>
      <rect>
        10 0 5 7</rect></_>
    <_>
      <rect>
        11 0 1 3</rect></_>
    <_>
      <rect>
        11 2 2 10</rect></_>
    <_>
      <rect>
        11 4 3 5</rect></_>
    <_>
      <rect>
        11 6 2 6</rect></_>
    <_>
      <rect>
        11 26 1 1</rect></_>
    <_>
      <rect>
        11 26 1 3</rect></_>
    <_>
      <rect>
        12 0 1 3</rect></_>
    <_>
      <rect>
        12 7 1 1</rect></_>
    <_>
      <rect>
        12 20 1 1</rect></_>
    <_>
      <rect>
        12 25 1 1</rect></_>
    <_>
      <rect>
        13 0 1 3</rect></_>
    <_>
      <rect>
        13 8 1 1</rect></_>
    <_>
      <rect>
        13 23 1 1</rect></_>
    <_>
      <rect>
        14 0 1 3</rect></_>
    <_>
      <rect>
        14 23 1 4</rect></_>
    <_>
      <rect>
        16 1 3 11</rect></_>
    <_>
      <rect>
        17 10 1 6</rect></_>
    <_>
      <rect>
        17 17 2 1</rect></_>
    <_>
      <rect>
        20 14 1 5</rect></_>
    <_>
      <rect>
        21 31 1 1</rect></_>
    <_>
      <rect>
        21 32 1 1</rect></_>
    <_>
      <rect>
        22 0 1 1</rect></_>
    <_>
      <rect>
        22 0 1 8</rect></_>
    <_>
      <rect>
        22 0 1 10</rect></_>
    <_>
      <rect>
        22 2 1 11</rect></_>
    <_>
      <rect>
        22 12 1 3</rect></_>
    <_>
      <rect>
        22 15 1 3</rect></_>
    <_>
      <rect>
        22 17 1 3</rect></_>
    <_>
      <rect>
        22 32 1 1</rect></_></features></cascade>
</opencv_storage>
