<?xml version="1.0"?>
<opencv_storage>
<cascade>
  <stageType>BOOST</stageType>
  <featureType>LBP</featureType>
  <height>30</height>
  <width>30</width>
  <stageParams>
    <boostType>DAB</boostType>
    <minHitRate>9.8000001907348633e-01</minHitRate>
    <maxFalseAlarm>2.5499999523162842e-01</maxFalseAlarm>
    <weightTrimRate>9.4999999999999996e-01</weightTrimRate>
    <maxDepth>1</maxDepth>
    <maxWeakCount>100</maxWeakCount></stageParams>
  <featureParams>
    <maxCatCount>256</maxCatCount>
    <featSize>1</featSize></featureParams>
  <stageNum>14</stageNum>
  <stages>
    <!-- stage 0 -->
    <_>
      <maxWeakCount>6</maxWeakCount>
      <stageThreshold>-2.8539438247680664e+00</stageThreshold>
      <weakClassifiers>
        <_>
          <internalNodes>
            0 -1 20 -1 -1 -1 -1 -1 2147483647 -1 360667135</internalNodes>
          <leafValues>
            -2.0261313915252686e+00 2.0261313915252686e+00</leafValues></_>
        <_>
          <internalNodes>
            0 -1 53 -10 -134217729 -1 -285212673 -2192 1442314231
            -134219920 364328759</internalNodes>
          <leafValues>
            -1.3169096708297729e+00 1.3169096708297729e+00</leafValues></_>
        <_>
          <internalNodes>
            0 -1 84 -129 -1 -1 -1 -1 -671088641 -134219788 1476395007</internalNodes>
          <leafValues>
            -1.0723906755447388e+00 1.0723906755447388e+00</leafValues></_>
        <_>
          <internalNodes>
            0 -1 197 -285216914 788529135 -22 -486604802 2147450709
            2013265919 -140 2013265909</internalNodes>
          <leafValues>
            -9.6862822771072388e-01 9.6862822771072388e-01</leafValues></_>
        <_>
          <internalNodes>
            0 -1 258 -17 -268435457 -2 -285212673 -1 2147483647 -9
            -134217729</internalNodes>
          <leafValues>
            -9.9343675374984741e-01 9.9343675374984741e-01</leafValues></_>
        <_>
          <internalNodes>
            0 -1 196 -8454146 -1342177282 -65538 1726938860 -1
            1929347071 -16777217 301423871</internalNodes>
          <leafValues>
            -8.8973355293273926e-01 8.8973355293273926e-01</leafValues></_></weakClassifiers></_>
    <!-- stage 1 -->
    <_>
      <maxWeakCount>9</maxWeakCount>
      <stageThreshold>-2.6839656829833984e+00</stageThreshold>
      <weakClassifiers>
        <_>
          <internalNodes>
            0 -1 23 -1 -1 -1 -1 -1 -1 -1 1970796535</internalNodes>
          <leafValues>
            -1.5017668008804321e+00 1.5017668008804321e+00</leafValues></_>
        <_>
          <internalNodes>
            0 -1 52 -129 -1 -1 -1 -137 2004877183 -140 2013265919</internalNodes>
          <leafValues>
            -1.0971266031265259e+00 1.0971266031265259e+00</leafValues></_>
        <_>
          <internalNodes>
            0 -1 410 -1 -285212673 -2 -285278210 -129 -1 -9 -1</internalNodes>
          <leafValues>
            -9.1465026140213013e-01 9.1465026140213013e-01</leafValues></_>
        <_>
          <internalNodes>
            0 -1 607 1073496060 -1073807361 -1 -1073938433 -65537 -1 -1
            784089076</internalNodes>
          <leafValues>
            -9.8781913518905640e-01 9.8781913518905640e-01</leafValues></_>
        <_>
          <internalNodes>
            0 -1 148 -229379 -1 -1 -1 -1 -1 -1 -229380</internalNodes>
          <leafValues>
            -8.8670986890792847e-01 8.8670986890792847e-01</leafValues></_>
        <_>
          <internalNodes>
            0 -1 90 -49356 -268435457 -2 -1 -32772 2013265919 2013230964
            939491327</internalNodes>
          <leafValues>
            -8.6960858106613159e-01 8.6960858106613159e-01</leafValues></_>
        <_>
          <internalNodes>
            0 -1 26 -196611 -1 -1 -1 -3 -1 -1 1073512444</internalNodes>
          <leafValues>
            -7.7572160959243774e-01 7.7572160959243774e-01</leafValues></_>
        <_>
          <internalNodes>
            0 -1 260 -17 -268435457 -1 -285212673 -1 2147483647 -11
            -134217729</internalNodes>
          <leafValues>
            -8.6681789159774780e-01 8.6681789159774780e-01</leafValues></_>
        <_>
          <internalNodes>
            0 -1 611 1065123708 -65538 -1 -98306 -1 -1 -32771 1022656380</internalNodes>
          <leafValues>
            -7.8293687105178833e-01 7.8293687105178833e-01</leafValues></_></weakClassifiers></_>
    <!-- stage 2 -->
    <_>
      <maxWeakCount>11</maxWeakCount>
      <stageThreshold>-2.7099313735961914e+00</stageThreshold>
      <weakClassifiers>
        <_>
          <internalNodes>
            0 -1 28 -1 -1 -1 -1 -12 -1 -4 -1</internalNodes>
          <leafValues>
            -1.2814865112304688e+00 1.2814865112304688e+00</leafValues></_>
        <_>
          <internalNodes>
            0 -1 602 -65537 -1 -1 -1 -1 -1 -1 -1073971204</internalNodes>
          <leafValues>
            -9.9260503053665161e-01 9.9260503053665161e-01</leafValues></_>
        <_>
          <internalNodes>
            0 -1 71 -2 2147418110 -1 2147418110 2147483647 536838143
            2147483647 134184959</internalNodes>
          <leafValues>
            -8.9064544439315796e-01 8.9064544439315796e-01</leafValues></_>
        <_>
          <internalNodes>
            0 -1 60 -229379 -1 -1 -1 -1 -1 -1 -1073971204</internalNodes>
          <leafValues>
            -8.6644005775451660e-01 8.6644005775451660e-01</leafValues></_>
        <_>
          <internalNodes>
            0 -1 278 -32898 -285212673 -1 -285278209 -32905 1207959551
            -139 1459617791</internalNodes>
          <leafValues>
            -8.1426984071731567e-01 8.1426984071731567e-01</leafValues></_>
        <_>
          <internalNodes>
            0 -1 597 1073496061 -1 -1 -16842753 -1 -1 -1 1073512444</internalNodes>
          <leafValues>
            -7.8779149055480957e-01 7.8779149055480957e-01</leafValues></_>
        <_>
          <internalNodes>
            0 -1 490 -1 -1 -1 -1 -1 -1 -1 -1073971203</internalNodes>
          <leafValues>
            -8.1469988822937012e-01 8.1469988822937012e-01</leafValues></_>
        <_>
          <internalNodes>
            0 -1 143 -144 2147483519 -2 -3 -240 1979185015 -2060
            100661113</internalNodes>
          <leafValues>
            -7.8881192207336426e-01 7.8881192207336426e-01</leafValues></_>
        <_>
          <internalNodes>
            0 -1 618 1073512445 -1 -1 -65537 -1 -1 -3 1072988156</internalNodes>
          <leafValues>
            -7.5017380714416504e-01 7.5017380714416504e-01</leafValues></_>
        <_>
          <internalNodes>
            0 -1 11 -1 -1 -1 -1 -1 2147483647 -4 2004877180</internalNodes>
          <leafValues>
            -7.2949600219726562e-01 7.2949600219726562e-01</leafValues></_>
        <_>
          <internalNodes>
            0 -1 68 1073512444 1073741823 -1 -65537 -1 -1 -3 771522556</internalNodes>
          <leafValues>
            -7.1180498600006104e-01 7.1180498600006104e-01</leafValues></_></weakClassifiers></_>
    <!-- stage 3 -->
    <_>
      <maxWeakCount>8</maxWeakCount>
      <stageThreshold>-2.3720452785491943e+00</stageThreshold>
      <weakClassifiers>
        <_>
          <internalNodes>
            0 -1 204 -3 -1 -1 -1 -1 -1 -1 -196620</internalNodes>
          <leafValues>
            -1.3834813833236694e+00 1.3834813833236694e+00</leafValues></_>
        <_>
          <internalNodes>
            0 -1 610 -1 -1 -1 -1 -1 -1 -1 2147483647</internalNodes>
          <leafValues>
            1.1398055553436279e+00 -1.1398055553436279e+00</leafValues></_>
        <_>
          <internalNodes>
            0 -1 460 -1 -1 -1 -1 -1 -1 -1 -1073807363</internalNodes>
          <leafValues>
            -1.0896149873733521e+00 1.0896149873733521e+00</leafValues></_>
        <_>
          <internalNodes>
            0 -1 275 782937640 720302074 -1359057154 653143806 268431359
            117440511 1342144511 83853309</internalNodes>
          <leafValues>
            -1.0546522140502930e+00 1.0546522140502930e+00</leafValues></_>
        <_>
          <internalNodes>
            0 -1 127 -4 -1 -1 -1 -3 -1 -4 -229380</internalNodes>
          <leafValues>
            -9.1749238967895508e-01 9.1749238967895508e-01</leafValues></_>
        <_>
          <internalNodes>
            0 -1 42 -1 -1 -1 -1 -2057 1476360183 -32897 1476360063</internalNodes>
          <leafValues>
            -8.0190283060073853e-01 8.0190283060073853e-01</leafValues></_>
        <_>
          <internalNodes>
            0 -1 583 -65537 -1 -1 -1 -1 -1 -1 -1073971204</internalNodes>
          <leafValues>
            -7.7598536014556885e-01 7.7598536014556885e-01</leafValues></_>
        <_>
          <internalNodes>
            0 -1 105 -268435714 1073676286 -2 1878982654 2147450879
            369065855 2013265919 352288767</internalNodes>
          <leafValues>
            -7.7667468786239624e-01 7.7667468786239624e-01</leafValues></_></weakClassifiers></_>
    <!-- stage 4 -->
    <_>
      <maxWeakCount>14</maxWeakCount>
      <stageThreshold>-2.3855302333831787e+00</stageThreshold>
      <weakClassifiers>
        <_>
          <internalNodes>
            0 -1 133 -1 -1 -1 -1 -1 -134219785 -1 1476360191</internalNodes>
          <leafValues>
            -1.3467855453491211e+00 1.3467855453491211e+00</leafValues></_>
        <_>
          <internalNodes>
            0 -1 136 -4 -1 -1 -1 -140 -134217737 -4 939524095</internalNodes>
          <leafValues>
            -8.7872755527496338e-01 8.7872755527496338e-01</leafValues></_>
        <_>
          <internalNodes>
            0 -1 327 -65538 -1 -1 -1342242818 -1 -1 -1 50327551</internalNodes>
          <leafValues>
            -8.2644855976104736e-01 8.2644855976104736e-01</leafValues></_>
        <_>
          <internalNodes>
            0 -1 10 -1 -1 -1 -1 -1 2147483647 -4 2013265780</internalNodes>
          <leafValues>
            -6.9342935085296631e-01 6.9342935085296631e-01</leafValues></_>
        <_>
          <internalNodes>
            0 -1 615 805208061 -1 -1 -65537 -1 -1 -1 1039958012</internalNodes>
          <leafValues>
            -6.8622380495071411e-01 6.8622380495071411e-01</leafValues></_>
        <_>
          <internalNodes>
            0 -1 263 -37252 -1342242817 -1 -822149121 2147483508
            234881015 1610561012 75447807</internalNodes>
          <leafValues>
            -6.7713373899459839e-01 6.7713373899459839e-01</leafValues></_>
        <_>
          <internalNodes>
            0 -1 426 -1342177281 -1 -1 -1342177281 -1 -1 -1 939491327</internalNodes>
          <leafValues>
            -7.1913909912109375e-01 7.1913909912109375e-01</leafValues></_>
        <_>
          <internalNodes>
            0 -1 101 -32908 -1 -2 -1 -4 1879048191 -134219916 2012741622</internalNodes>
          <leafValues>
            -6.7830324172973633e-01 6.7830324172973633e-01</leafValues></_>
        <_>
          <internalNodes>
            0 -1 67 1073709055 -1 -1 -268435457 -1 -1 -129 477429757</internalNodes>
          <leafValues>
            -6.4293628931045532e-01 6.4293628931045532e-01</leafValues></_>
        <_>
          <internalNodes>
            0 -1 411 -268435457 -285212673 -2 -285278210 -129 -1 -1 -1</internalNodes>
          <leafValues>
            -5.8106070756912231e-01 5.8106070756912231e-01</leafValues></_>
        <_>
          <internalNodes>
            0 -1 96 -268505346 880705150 -268500994 644804606 134164222
            83848766 402618238 83648511</internalNodes>
          <leafValues>
            -5.9640282392501831e-01 5.9640282392501831e-01</leafValues></_>
        <_>
          <internalNodes>
            0 -1 352 -18 -1 -2 -1 -1 -1 -1 -134217729</internalNodes>
          <leafValues>
            -6.2465852499008179e-01 6.2465852499008179e-01</leafValues></_>
        <_>
          <internalNodes>
            0 -1 604 -196612 -1 -1 -1 -1 -1 -1 1073496060</internalNodes>
          <leafValues>
            -5.9869545698165894e-01 5.9869545698165894e-01</leafValues></_>
        <_>
          <internalNodes>
            0 -1 100 1073709055 -1 -1 -1 2147483647 -1 -3 1065123700</internalNodes>
          <leafValues>
            -5.9481370449066162e-01 5.9481370449066162e-01</leafValues></_></weakClassifiers></_>
    <!-- stage 5 -->
    <_>
      <maxWeakCount>32</maxWeakCount>
      <stageThreshold>-2.4375460147857666e+00</stageThreshold>
      <weakClassifiers>
        <_>
          <internalNodes>
            0 -1 381 -1 -268435457 -1 -285212673 -1 -1 -1 -1</internalNodes>
          <leafValues>
            -1.0431610345840454e+00 1.0431610345840454e+00</leafValues></_>
        <_>
          <internalNodes>
            0 -1 16 -1 -1 -1 -1 -1 -134217737 -1 2004350839</internalNodes>
          <leafValues>
            -6.9335418939590454e-01 6.9335418939590454e-01</leafValues></_>
        <_>
          <internalNodes>
            0 -1 534 -65538 -16842754 -1 -1073807361 -1 -1 -1 1073692671</internalNodes>
          <leafValues>
            -6.2665462493896484e-01 6.2665462493896484e-01</leafValues></_>
        <_>
          <internalNodes>
            0 -1 72 1073709053 2147483647 -1 -1342242817 -1 -1 -129
            208994164</internalNodes>
          <leafValues>
            -5.5297100543975830e-01 5.5297100543975830e-01</leafValues></_>
        <_>
          <internalNodes>
            0 -1 170 -1 -1 -1 -1 -129 2147483647 -1 -134217729</internalNodes>
          <leafValues>
            -5.8051449060440063e-01 5.8051449060440063e-01</leafValues></_>
        <_>
          <internalNodes>
            0 -1 519 1073512444 -1 -1 -65537 -1 -1 -1 783826804</internalNodes>
          <leafValues>
            -5.4702228307723999e-01 5.4702228307723999e-01</leafValues></_>
        <_>
          <internalNodes>
            0 -1 447 -65538 -285212673 -1 -285278210 -1 -1 -1 1727987709</internalNodes>
          <leafValues>
            4.8905271291732788e-01 -4.8905271291732788e-01</leafValues></_>
        <_>
          <internalNodes>
            0 -1 206 -2 2147483647 -1 1879048190 1073741823 1073741823
            -1 805306367</internalNodes>
          <leafValues>
            -4.7992426156997681e-01 4.7992426156997681e-01</leafValues></_>
        <_>
          <internalNodes>
            0 -1 205 -2 -285212673 -1 -16777217 -1 2013265919 -1
            2013265919</internalNodes>
          <leafValues>
            4.8795098066329956e-01 -4.8795098066329956e-01</leafValues></_>
        <_>
          <internalNodes>
            0 -1 209 -196612 -1 -1 -1 -1 -1 -1 1073512308</internalNodes>
          <leafValues>
            -4.9212890863418579e-01 4.9212890863418579e-01</leafValues></_>
        <_>
          <internalNodes>
            0 -1 347 -1 -268435457 -1 -1 -1 -1 -9 -1</internalNodes>
          <leafValues>
            -5.2039086818695068e-01 5.2039086818695068e-01</leafValues></_>
        <_>
          <internalNodes>
            0 -1 138 2147418110 2013200383 -16842754 1089400558
            2147481599 14514167 1468004223 1394556</internalNodes>
          <leafValues>
            -5.2957433462142944e-01 5.2957433462142944e-01</leafValues></_>
        <_>
          <internalNodes>
            0 -1 414 -1 -1 -1 -1 -1 -1 -1 -1073938433</internalNodes>
          <leafValues>
            -4.9959746003150940e-01 4.9959746003150940e-01</leafValues></_>
        <_>
          <internalNodes>
            0 -1 226 -1 -1 -1 -1 -1 -1 -1 2147450877</internalNodes>
          <leafValues>
            4.6894404292106628e-01 -4.6894404292106628e-01</leafValues></_>
        <_>
          <internalNodes>
            0 -1 587 -65537 -1 -1 -1 -1 -1 -1 -1073905665</internalNodes>
          <leafValues>
            -4.7736480832099915e-01 4.7736480832099915e-01</leafValues></_>
        <_>
          <internalNodes>
            0 -1 145 1073512444 -1 -1 -65537 -1 -1 -3 1014267900</internalNodes>
          <leafValues>
            -5.2216160297393799e-01 5.2216160297393799e-01</leafValues></_>
        <_>
          <internalNodes>
            0 -1 30 -2 -1 -1 -1 -129 2004877183 -4 2004877180</internalNodes>
          <leafValues>
            -4.3621614575386047e-01 4.3621614575386047e-01</leafValues></_>
        <_>
          <internalNodes>
            0 -1 600 2147483647 -1 -1 -268500993 -1 -1 -1 1300037629</internalNodes>
          <leafValues>
            -4.5097321271896362e-01 4.5097321271896362e-01</leafValues></_>
        <_>
          <internalNodes>
            0 -1 457 -2 -268435457 -2 -285278210 -129 -1 -137 -1</internalNodes>
          <leafValues>
            -4.4461369514465332e-01 4.4461369514465332e-01</leafValues></_>
        <_>
          <internalNodes>
            0 -1 457 -1 -268435457 -1 -285212673 -129 -1 -1 2147483647</internalNodes>
          <leafValues>
            4.0769940614700317e-01 -4.0769940614700317e-01</leafValues></_>
        <_>
          <internalNodes>
            0 -1 614 -65537 -1 -1 -1 -1 -1 -1 -1073905665</internalNodes>
          <leafValues>
            -5.0276839733123779e-01 5.0276839733123779e-01</leafValues></_>
        <_>
          <internalNodes>
            0 -1 592 1073643519 1073741823 -1 -268500993 2147483647 -1
            -129 74743669</internalNodes>
          <leafValues>
            -4.8772752285003662e-01 4.8772752285003662e-01</leafValues></_>
        <_>
          <internalNodes>
            0 -1 464 -16842754 -16777218 -1 -16842753 -1 -1 -1
            1862074364</internalNodes>
          <leafValues>
            4.1173690557479858e-01 -4.1173690557479858e-01</leafValues></_>
        <_>
          <internalNodes>
            0 -1 56 1073709055 -1 -1 -65537 -1 -1 -131 1283227644</internalNodes>
          <leafValues>
            -4.1580736637115479e-01 4.1580736637115479e-01</leafValues></_>
        <_>
          <internalNodes>
            0 -1 116 -1 -1 -1 -1 -1 2147483647 -1 -134217729</internalNodes>
          <leafValues>
            -4.5107772946357727e-01 4.5107772946357727e-01</leafValues></_>
        <_>
          <internalNodes>
            0 -1 297 -20612 -1342177281 -16385 251572222 -34955
            134217719 2147425789 100614143</internalNodes>
          <leafValues>
            -4.4205236434936523e-01 4.4205236434936523e-01</leafValues></_>
        <_>
          <internalNodes>
            0 -1 609 1073512445 -1 -1 -1 -1 -1 -1 1073512445</internalNodes>
          <leafValues>
            -3.9200088381767273e-01 3.9200088381767273e-01</leafValues></_>
        <_>
          <internalNodes>
            0 -1 574 -1073807361 -1 -1 -1 -1 -1 -1 -1073774593</internalNodes>
          <leafValues>
            -4.5957228541374207e-01 4.5957228541374207e-01</leafValues></_>
        <_>
          <internalNodes>
            0 -1 530 -1 -1 -1 -1 -1 -1 -1 2147483647</internalNodes>
          <leafValues>
            4.0276661515235901e-01 -4.0276661515235901e-01</leafValues></_>
        <_>
          <internalNodes>
            0 -1 188 -2 -1 -1 -1 -1 -1 -1 1979187199</internalNodes>
          <leafValues>
            -4.4405624270439148e-01 4.4405624270439148e-01</leafValues></_>
        <_>
          <internalNodes>
            0 -1 302 -2 -1 -2 -218169346 -129 2013265919 -1 2013265919</internalNodes>
          <leafValues>
            -4.7159767150878906e-01 4.7159767150878906e-01</leafValues></_>
        <_>
          <internalNodes>
            0 -1 321 -32769 -1 -1 -268435457 -1 -1 -1 217382901</internalNodes>
          <leafValues>
            -4.5384356379508972e-01 4.5384356379508972e-01</leafValues></_></weakClassifiers></_>
    <!-- stage 6 -->
    <_>
      <maxWeakCount>21</maxWeakCount>
      <stageThreshold>-2.3909335136413574e+00</stageThreshold>
      <weakClassifiers>
        <_>
          <internalNodes>
            0 -1 37 -1 -1 -1 -1 -9 -134217737 -1 -134217729</internalNodes>
          <leafValues>
            -1.2396063804626465e+00 1.2396063804626465e+00</leafValues></_>
        <_>
          <internalNodes>
            0 -1 515 -1 -1 -1 -1 -1 -1 -1 2147483647</internalNodes>
          <leafValues>
            9.2813688516616821e-01 -9.2813688516616821e-01</leafValues></_>
        <_>
          <internalNodes>
            0 -1 386 -1 -268435457 -1 -285278209 -129 -1 -1 -134217729</internalNodes>
          <leafValues>
            -7.8061276674270630e-01 7.8061276674270630e-01</leafValues></_>
        <_>
          <internalNodes>
            0 -1 89 -65540 -1 -1 -1 -1 -1 -1 -196620</internalNodes>
          <leafValues>
            -6.3142985105514526e-01 6.3142985105514526e-01</leafValues></_>
        <_>
          <internalNodes>
            0 -1 406 -1 -1 -1 -1 -1 -1 -1 2147483647</internalNodes>
          <leafValues>
            5.8845514059066772e-01 -5.8845514059066772e-01</leafValues></_>
        <_>
          <internalNodes>
            0 -1 247 -1 -268435457 -1 -1 -1 2147483647 -1 -134217729</internalNodes>
          <leafValues>
            -6.6503977775573730e-01 6.6503977775573730e-01</leafValues></_>
        <_>
          <internalNodes>
            0 -1 63 2147450879 -1 -1 -1 -1 -1 -3 217382781</internalNodes>
          <leafValues>
            -5.0554531812667847e-01 5.0554531812667847e-01</leafValues></_>
        <_>
          <internalNodes>
            0 -1 107 -130 -1 -1 -1 2147483519 2147483647 2147483647
            2013265919</internalNodes>
          <leafValues>
            -4.5207843184471130e-01 4.5207843184471130e-01</leafValues></_>
        <_>
          <internalNodes>
            0 -1 254 -18 -1 -2 -285278210 -1 2147483647 -1 1996488703</internalNodes>
          <leafValues>
            -4.9224203824996948e-01 4.9224203824996948e-01</leafValues></_>
        <_>
          <internalNodes>
            0 -1 370 -1 -268435457 -1 -285212673 -1 -1 -1 -3</internalNodes>
          <leafValues>
            -5.1545685529708862e-01 5.1545685529708862e-01</leafValues></_>
        <_>
          <internalNodes>
            0 -1 496 -1 -1 -1 -1 -1 -1 -1 2147483647</internalNodes>
          <leafValues>
            6.2765789031982422e-01 -6.2765789031982422e-01</leafValues></_>
        <_>
          <internalNodes>
            0 -1 131 -1 -1 -1 -1 -1 -1 -1 2013265917</internalNodes>
          <leafValues>
            -4.9843049049377441e-01 4.9843049049377441e-01</leafValues></_>
        <_>
          <internalNodes>
            0 -1 0 1073741823 -1 -1 -268435457 -1 -1 -129 1551171445</internalNodes>
          <leafValues>
            -4.3473780155181885e-01 4.3473780155181885e-01</leafValues></_>
        <_>
          <internalNodes>
            0 -1 319 -1 -268435457 -1 -285278209 -129 -1 -137 -134217729</internalNodes>
          <leafValues>
            -5.0786185264587402e-01 5.0786185264587402e-01</leafValues></_>
        <_>
          <internalNodes>
            0 -1 386 -1 -268435457 -1 -285212673 -129 -1 -1 2147483647</internalNodes>
          <leafValues>
            4.8725438117980957e-01 -4.8725438117980957e-01</leafValues></_>
        <_>
          <internalNodes>
            0 -1 97 1073512447 -268435457 -1 -65537 -1 -1 -1 477396981</internalNodes>
          <leafValues>
            -4.3775883316993713e-01 4.3775883316993713e-01</leafValues></_>
        <_>
          <internalNodes>
            0 -1 619 -1073938436 -1 -1 -1 -1 -1 -1 1073512445</internalNodes>
          <leafValues>
            -3.9110395312309265e-01 3.9110395312309265e-01</leafValues></_>
        <_>
          <internalNodes>
            0 -1 220 -1 -1 -1 -1 -1 2147483647 -1 -134217729</internalNodes>
          <leafValues>
            -5.3110325336456299e-01 5.3110325336456299e-01</leafValues></_>
        <_>
          <internalNodes>
            0 -1 571 1073709055 -1073741825 -1 -285278209 2147483519 -1
            -131 74743669</internalNodes>
          <leafValues>
            -4.5718455314636230e-01 4.5718455314636230e-01</leafValues></_>
        <_>
          <internalNodes>
            0 -1 73 -1 -1 -1 -1 -129 -1 -137 2147483647</internalNodes>
          <leafValues>
            4.2982852458953857e-01 -4.2982852458953857e-01</leafValues></_>
        <_>
          <internalNodes>
            0 -1 8 -1 -1 -1 -1 -1 -1 -1 2013265791</internalNodes>
          <leafValues>
            -4.7559332847595215e-01 4.7559332847595215e-01</leafValues></_></weakClassifiers></_>
    <!-- stage 7 -->
    <_>
      <maxWeakCount>38</maxWeakCount>
      <stageThreshold>-2.2278468608856201e+00</stageThreshold>
      <weakClassifiers>
        <_>
          <internalNodes>
            0 -1 373 -1 -268435457 -1 -285212673 -1 -1 -1 -1</internalNodes>
          <leafValues>
            -9.9828225374221802e-01 9.9828225374221802e-01</leafValues></_>
        <_>
          <internalNodes>
            0 -1 222 -1 -1 -1 -1 -9 1207959551 -134219785 402653183</internalNodes>
          <leafValues>
            -6.9925838708877563e-01 6.9925838708877563e-01</leafValues></_>
        <_>
          <internalNodes>
            0 -1 434 -1 -1 -1 -65537 -1 -1 -1 1325334526</internalNodes>
          <leafValues>
            -6.0216188430786133e-01 6.0216188430786133e-01</leafValues></_>
        <_>
          <internalNodes>
            0 -1 87 1073709055 -1 -1 -268500993 -1 -1 -1 1551138813</internalNodes>
          <leafValues>
            -5.6379729509353638e-01 5.6379729509353638e-01</leafValues></_>
        <_>
          <internalNodes>
            0 -1 622 2147483647 -1 -1 -268435457 -1 -1 -1 1602027517</internalNodes>
          <leafValues>
            -5.1920574903488159e-01 5.1920574903488159e-01</leafValues></_>
        <_>
          <internalNodes>
            0 -1 613 1073512444 -1 -1 -65537 -1 -1 -1 1073496060</internalNodes>
          <leafValues>
            -4.9887603521347046e-01 4.9887603521347046e-01</leafValues></_>
        <_>
          <internalNodes>
            0 -1 155 -2 -1 -1 -1 -1 -1 -32908 2013265919</internalNodes>
          <leafValues>
            -5.1553583145141602e-01 5.1553583145141602e-01</leafValues></_>
        <_>
          <internalNodes>
            0 -1 123 2147483647 -1 -1 -1 -32769 -1 -131 1551138813</internalNodes>
          <leafValues>
            -4.9524813890457153e-01 4.9524813890457153e-01</leafValues></_>
        <_>
          <internalNodes>
            0 -1 471 -1073774593 -1 -1 -1 -1 -1 -1 -1073774593</internalNodes>
          <leafValues>
            -4.9298155307769775e-01 4.9298155307769775e-01</leafValues></_>
        <_>
          <internalNodes>
            0 -1 591 1073708927 1073741823 -1 1862270975 2147450879 -1
            -131 208994164</internalNodes>
          <leafValues>
            -4.7103789448738098e-01 4.7103789448738098e-01</leafValues></_>
        <_>
          <internalNodes>
            0 -1 304 -2 -1 -2 -218169346 -129 2147483647 -1 2013265919</internalNodes>
          <leafValues>
            -4.7176465392112732e-01 4.7176465392112732e-01</leafValues></_>
        <_>
          <internalNodes>
            0 -1 190 -1 -1 -1 -268500993 -1 -1 -1 335511551</internalNodes>
          <leafValues>
            -4.2885819077491760e-01 4.2885819077491760e-01</leafValues></_>
        <_>
          <internalNodes>
            0 -1 45 -1 -1 -1 -1 -129 2139095039 -4 2013265919</internalNodes>
          <leafValues>
            -4.3788346648216248e-01 4.3788346648216248e-01</leafValues></_>
        <_>
          <internalNodes>
            0 -1 58 1073577855 2147483647 -1 1878982655 -1 -1 2147483517
            1282703229</internalNodes>
          <leafValues>
            -4.1300368309020996e-01 4.1300368309020996e-01</leafValues></_>
        <_>
          <internalNodes>
            0 -1 478 -65538 -268435457 -1 -285278210 -1 -1 -1 1853652980</internalNodes>
          <leafValues>
            4.2750418186187744e-01 -4.2750418186187744e-01</leafValues></_>
        <_>
          <internalNodes>
            0 -1 556 -196612 -65538 -1 -1073807364 -1 -1 -1 268189692</internalNodes>
          <leafValues>
            -3.8676723837852478e-01 3.8676723837852478e-01</leafValues></_>
        <_>
          <internalNodes>
            0 -1 606 -65537 -1 -1 -1 -1 -1 -1 -1073774593</internalNodes>
          <leafValues>
            -5.1181781291961670e-01 5.1181781291961670e-01</leafValues></_>
        <_>
          <internalNodes>
            0 -1 177 -1342296452 2129559164 -268439810 796847854
            117376638 74327294 402618231 83371902</internalNodes>
          <leafValues>
            -3.6726611852645874e-01 3.6726611852645874e-01</leafValues></_>
        <_>
          <internalNodes>
            0 -1 277 -1 -268435457 -1 -1 -1 2147483647 -1 -134217729</internalNodes>
          <leafValues>
            -4.9420592188835144e-01 4.9420592188835144e-01</leafValues></_>
        <_>
          <internalNodes>
            0 -1 125 1073741822 -1 -1 -268435457 -1 -1 -129 1282703221</internalNodes>
          <leafValues>
            -4.3010264635086060e-01 4.3010264635086060e-01</leafValues></_>
        <_>
          <internalNodes>
            0 -1 88 -196611 -1 -1 -1 -1 -1 -1 -196611</internalNodes>
          <leafValues>
            -4.2541918158531189e-01 4.2541918158531189e-01</leafValues></_>
        <_>
          <internalNodes>
            0 -1 620 1073496063 -1 -1 -1342242817 -1 -1 -1 754221053</internalNodes>
          <leafValues>
            -3.9731106162071228e-01 3.9731106162071228e-01</leafValues></_>
        <_>
          <internalNodes>
            0 -1 313 -17 -268435457 -2 -1 -129 2147483647 -1 -134217729</internalNodes>
          <leafValues>
            -3.8346356153488159e-01 3.8346356153488159e-01</leafValues></_>
        <_>
          <internalNodes>
            0 -1 480 -1 -1 -1 -1 -1 -1 -1 2147418111</internalNodes>
          <leafValues>
            3.7244042754173279e-01 -3.7244042754173279e-01</leafValues></_>
        <_>
          <internalNodes>
            0 -1 450 -268435457 -1 -1 -1073741825 -1 -1 -1 2147483647</internalNodes>
          <leafValues>
            -4.2412176728248596e-01 4.2412176728248596e-01</leafValues></_>
        <_>
          <internalNodes>
            0 -1 150 1073643517 -1 -1 -1073807361 -1 -1 -131 74743668</internalNodes>
          <leafValues>
            -4.4820037484169006e-01 4.4820037484169006e-01</leafValues></_>
        <_>
          <internalNodes>
            0 -1 142 -1 -1 -1 -1 -129 2147483647 -1 -134217729</internalNodes>
          <leafValues>
            -4.0730881690979004e-01 4.0730881690979004e-01</leafValues></_>
        <_>
          <internalNodes>
            0 -1 39 -16843010 -134217729 -1 1928789758 -1 2012741631 -1
            276002167</internalNodes>
          <leafValues>
            -3.8600635528564453e-01 3.8600635528564453e-01</leafValues></_>
        <_>
          <internalNodes>
            0 -1 103 -1 -268435457 -1 -16777217 -129 2013265919 -9
            2013265919</internalNodes>
          <leafValues>
            4.0114045143127441e-01 -4.0114045143127441e-01</leafValues></_>
        <_>
          <internalNodes>
            0 -1 110 -148 -1 -1 -65537 2147483516 1996488703 -32908
            939524095</internalNodes>
          <leafValues>
            -3.8322982192039490e-01 3.8322982192039490e-01</leafValues></_>
        <_>
          <internalNodes>
            0 -1 599 1073643519 -1073741825 -1 -1342177281 -32897 -1 -1
            209518588</internalNodes>
          <leafValues>
            -3.5671046376228333e-01 3.5671046376228333e-01</leafValues></_>
        <_>
          <internalNodes>
            0 -1 318 -1 -268435457 -1 -285212673 -129 -1 -1 -1</internalNodes>
          <leafValues>
            -4.1605585813522339e-01 4.1605585813522339e-01</leafValues></_>
        <_>
          <internalNodes>
            0 -1 555 1073708925 -65537 -2 1862205439 -1 -1 2147450749
            208961397</internalNodes>
          <leafValues>
            -3.8491371273994446e-01 3.8491371273994446e-01</leafValues></_>
        <_>
          <internalNodes>
            0 -1 506 -1073840129 -1 -1 -1 -1 -1 -1 -1073774593</internalNodes>
          <leafValues>
            -3.8452777266502380e-01 3.8452777266502380e-01</leafValues></_>
        <_>
          <internalNodes>
            0 -1 477 -1 -1 -1 -1 -1 -1 -1 1073643519</internalNodes>
          <leafValues>
            3.5773354768753052e-01 -3.5773354768753052e-01</leafValues></_>
        <_>
          <internalNodes>
            0 -1 44 -1 -1 -1 -1 -1 2147483647 -1 -134217729</internalNodes>
          <leafValues>
            -3.9570304751396179e-01 3.9570304751396179e-01</leafValues></_>
        <_>
          <internalNodes>
            0 -1 48 -65537 -1 -65538 1425993727 -1 1358919671 -1
            276125055</internalNodes>
          <leafValues>
            -4.2473646998405457e-01 4.2473646998405457e-01</leafValues></_>
        <_>
          <internalNodes>
            0 -1 65 1073709055 2147483647 -1 -268500993 2147483647 -1
            -32899 217382781</internalNodes>
          <leafValues>
            -3.8510152697563171e-01 3.8510152697563171e-01</leafValues></_></weakClassifiers></_>
    <!-- stage 8 -->
    <_>
      <maxWeakCount>63</maxWeakCount>
      <stageThreshold>-2.3066368103027344e+00</stageThreshold>
      <weakClassifiers>
        <_>
          <internalNodes>
            0 -1 391 -1 -1 -1 -1 -1 -1 -1 -1073807361</internalNodes>
          <leafValues>
            -9.9051272869110107e-01 9.9051272869110107e-01</leafValues></_>
        <_>
          <internalNodes>
            0 -1 245 -1 -268435457 -1 -1 -9 -805306369 -134219785
            1476395007</internalNodes>
          <leafValues>
            -6.2700605392456055e-01 6.2700605392456055e-01</leafValues></_>
        <_>
          <internalNodes>
            0 -1 22 -2 -1 -1 -1 -1 -1 -1 1416888311</internalNodes>
          <leafValues>
            -5.7182806730270386e-01 5.7182806730270386e-01</leafValues></_>
        <_>
          <internalNodes>
            0 -1 279 -1342177281 -1342177281 -268435457 -1342177281 -1
            2147483647 -1 2147483647</internalNodes>
          <leafValues>
            -5.0687348842620850e-01 5.0687348842620850e-01</leafValues></_>
        <_>
          <internalNodes>
            0 -1 135 -1 -1 -1 -1 -129 2139094911 -4 2147483645</internalNodes>
          <leafValues>
            -4.6857050061225891e-01 4.6857050061225891e-01</leafValues></_>
        <_>
          <internalNodes>
            0 -1 256 -9 -9 -1 -989855745 -11 1476394999 -515 360660863</internalNodes>
          <leafValues>
            -4.3083482980728149e-01 4.3083482980728149e-01</leafValues></_>
        <_>
          <internalNodes>
            0 -1 316 -1073774596 -1359020033 -1 -1359020033 -32769 -1
            -32769 1073741823</internalNodes>
          <leafValues>
            -4.1254666447639465e-01 4.1254666447639465e-01</leafValues></_>
        <_>
          <internalNodes>
            0 -1 132 -4 -1 -1 -1 -12 -9 -4 2013233151</internalNodes>
          <leafValues>
            -3.8804969191551208e-01 3.8804969191551208e-01</leafValues></_>
        <_>
          <internalNodes>
            0 -1 85 -33234 2122219134 -1 1744764670 100615806 83772542
            2013231103 75265663</internalNodes>
          <leafValues>
            -3.4202259778976440e-01 3.4202259778976440e-01</leafValues></_>
        <_>
          <internalNodes>
            0 -1 463 -65540 -1 -1 -65537 -1 -1 -1 -65539</internalNodes>
          <leafValues>
            -4.4795355200767517e-01 4.4795355200767517e-01</leafValues></_>
        <_>
          <internalNodes>
            0 -1 432 -1 -268435457 -1 -1 -1 2147483647 -1 2013265919</internalNodes>
          <leafValues>
            -3.8333922624588013e-01 3.8333922624588013e-01</leafValues></_>
        <_>
          <internalNodes>
            0 -1 205 -1 -285212673 -1 -285212673 -1 2013265919 -1
            2013265919</internalNodes>
          <leafValues>
            3.6627492308616638e-01 -3.6627492308616638e-01</leafValues></_>
        <_>
          <internalNodes>
            0 -1 298 -1 -1 -1 1191116799 -9 1476395007 -3 1476395007</internalNodes>
          <leafValues>
            -3.7128651142120361e-01 3.7128651142120361e-01</leafValues></_>
        <_>
          <internalNodes>
            0 -1 245 -1 -1 -1 -1 -129 -1 -9 2013265919</internalNodes>
          <leafValues>
            3.0980139970779419e-01 -3.0980139970779419e-01</leafValues></_>
        <_>
          <internalNodes>
            0 -1 111 -4 -1 -2 -1 2147450877 2147483647 -32908 2013265791</internalNodes>
          <leafValues>
            -3.5979372262954712e-01 3.5979372262954712e-01</leafValues></_>
        <_>
          <internalNodes>
            0 -1 461 -1 -1 -1 -1 -1 -1 -1 -16842755</internalNodes>
          <leafValues>
            -4.1046512126922607e-01 4.1046512126922607e-01</leafValues></_>
        <_>
          <internalNodes>
            0 -1 512 -1 -1 -1 -1 -1 -1 -1 2147287039</internalNodes>
          <leafValues>
            3.5958307981491089e-01 -3.5958307981491089e-01</leafValues></_>
        <_>
          <internalNodes>
            0 -1 527 -65538 -16842753 -1 -65537 -1 -1 -1 2147450879</internalNodes>
          <leafValues>
            -3.5643386840820312e-01 3.5643386840820312e-01</leafValues></_>
        <_>
          <internalNodes>
            0 -1 508 805060596 -1073807361 -1 1073643519 -196612
            -1073741825 -4 615521652</internalNodes>
          <leafValues>
            -3.0216112732887268e-01 3.0216112732887268e-01</leafValues></_>
        <_>
          <internalNodes>
            0 -1 10 -1 -1 -1 -1 -1 -1 -1 2147483647</internalNodes>
          <leafValues>
            -3.8244017958641052e-01 3.8244017958641052e-01</leafValues></_>
        <_>
          <internalNodes>
            0 -1 62 -2 2147418110 -1 2147418110 2147483647 536838143
            2147450879 369065983</internalNodes>
          <leafValues>
            -3.7274196743965149e-01 3.7274196743965149e-01</leafValues></_>
        <_>
          <internalNodes>
            0 -1 35 -65537 -1 -1 -1 -1 -1 -1 -1073938436</internalNodes>
          <leafValues>
            -3.3160340785980225e-01 3.3160340785980225e-01</leafValues></_>
        <_>
          <internalNodes>
            0 -1 175 -196612 -1 -1 -1 -1 -1 -1 -229388</internalNodes>
          <leafValues>
            -3.3461546897888184e-01 3.3461546897888184e-01</leafValues></_>
        <_>
          <internalNodes>
            0 -1 586 -65537 -1 -1 -1 -1 -1 -1 -1073840129</internalNodes>
          <leafValues>
            -3.4638556838035583e-01 3.4638556838035583e-01</leafValues></_>
        <_>
          <internalNodes>
            0 -1 418 -1 -1 -1 -1 -1 -1 -1 805208063</internalNodes>
          <leafValues>
            2.8417462110519409e-01 -2.8417462110519409e-01</leafValues></_>
        <_>
          <internalNodes>
            0 -1 252 -2 -1 -1 -65537 -1 -1 -1 1140850687</internalNodes>
          <leafValues>
            -3.5384291410446167e-01 3.5384291410446167e-01</leafValues></_>
        <_>
          <internalNodes>
            0 -1 309 -102530 -285278209 -1 -1 -1 -285212673 -32777
            402653183</internalNodes>
          <leafValues>
            -3.2863581180572510e-01 3.2863581180572510e-01</leafValues></_>
        <_>
          <internalNodes>
            0 -1 372 -1 -1 -1 -1 -1 -1 -1 1073709055</internalNodes>
          <leafValues>
            2.6060840487480164e-01 -2.6060840487480164e-01</leafValues></_>
        <_>
          <internalNodes>
            0 -1 407 -1073840131 -1073807361 -1 -1073807361 -1 -1 -1
            1073741823</internalNodes>
          <leafValues>
            -3.3148857951164246e-01 3.3148857951164246e-01</leafValues></_>
        <_>
          <internalNodes>
            0 -1 393 -268500994 -1 -1 -268500993 -1 -1 -9 788463612</internalNodes>
          <leafValues>
            -3.0372488498687744e-01 3.0372488498687744e-01</leafValues></_>
        <_>
          <internalNodes>
            0 -1 235 -2 -1 -1 -134217729 -137 2147483647 -3 2147483647</internalNodes>
          <leafValues>
            -3.2872250676155090e-01 3.2872250676155090e-01</leafValues></_>
        <_>
          <internalNodes>
            0 -1 377 -65676 -1073741825 -1 -1359020033 -3 -1 -3
            251559932</internalNodes>
          <leafValues>
            -2.9340863227844238e-01 2.9340863227844238e-01</leafValues></_>
        <_>
          <internalNodes>
            0 -1 345 -1 -1 -1 -1 -1 -1 -9 2147352573</internalNodes>
          <leafValues>
            2.7063325047492981e-01 -2.7063325047492981e-01</leafValues></_>
        <_>
          <internalNodes>
            0 -1 118 -1 -1 -1 -1 -1 -1 -137 1576861693</internalNodes>
          <leafValues>
            -2.9387986660003662e-01 2.9387986660003662e-01</leafValues></_>
        <_>
          <internalNodes>
            0 -1 300 -1 -1 -1 -16777217 -1 -1 -1 -1</internalNodes>
          <leafValues>
            -3.3650422096252441e-01 3.3650422096252441e-01</leafValues></_>
        <_>
          <internalNodes>
            0 -1 54 -134283265 2147418110 -65538 1124003838 2147448766
            14637047 2004834175 18171903</internalNodes>
          <leafValues>
            -3.7725603580474854e-01 3.7725603580474854e-01</leafValues></_>
        <_>
          <internalNodes>
            0 -1 444 -285278210 -285278210 -2 -285278210 -1 -1 -2
            75268092</internalNodes>
          <leafValues>
            3.0507725477218628e-01 -3.0507725477218628e-01</leafValues></_>
        <_>
          <internalNodes>
            0 -1 176 -1 -1 -1 -1 -129 -1 -137 2147483647</internalNodes>
          <leafValues>
            2.7434536814689636e-01 -2.7434536814689636e-01</leafValues></_>
        <_>
          <internalNodes>
            0 -1 158 -1 -1 -1 -1 -1 -1 -1 2138439541</internalNodes>
          <leafValues>
            -3.1103619933128357e-01 3.1103619933128357e-01</leafValues></_>
        <_>
          <internalNodes>
            0 -1 543 -1 -268435457 -1 -285212673 -1 -1 -1 2130509821</internalNodes>
          <leafValues>
            2.9110038280487061e-01 -2.9110038280487061e-01</leafValues></_>
        <_>
          <internalNodes>
            0 -1 51 -1 -1 -1 -1 -1 2147483647 -1 -1</internalNodes>
          <leafValues>
            -3.5125914216041565e-01 3.5125914216041565e-01</leafValues></_>
        <_>
          <internalNodes>
            0 -1 577 1056456700 -1090764804 -3 1056718844 -1073741827
            2147483647 -1073954817 245899252</internalNodes>
          <leafValues>
            -3.2348945736885071e-01 3.2348945736885071e-01</leafValues></_>
        <_>
          <internalNodes>
            0 -1 501 -1342242818 -1 -1 -16842754 -1 -1 -1 2013233151</internalNodes>
          <leafValues>
            -3.0188277363777161e-01 3.0188277363777161e-01</leafValues></_>
        <_>
          <internalNodes>
            0 -1 507 -1073774593 -1073741825 -1 -16777217 -1 -1 -1
            477396980</internalNodes>
          <leafValues>
            -2.7697336673736572e-01 2.7697336673736572e-01</leafValues></_>
        <_>
          <internalNodes>
            0 -1 114 -1 -1 -1 -1 -1 2147483647 -1 2147483647</internalNodes>
          <leafValues>
            -3.3232516050338745e-01 3.3232516050338745e-01</leafValues></_>
        <_>
          <internalNodes>
            0 -1 545 -1 -1 -1 -1 -1 -1 -1 2147483647</internalNodes>
          <leafValues>
            2.7618536353111267e-01 -2.7618536353111267e-01</leafValues></_>
        <_>
          <internalNodes>
            0 -1 318 -1 -268435457 -1 -16777217 -1 -1 -9 -1</internalNodes>
          <leafValues>
            -3.5071051120758057e-01 3.5071051120758057e-01</leafValues></_>
        <_>
          <internalNodes>
            0 -1 156 2147450879 -1 -1 -1 -32897 -1 -32897 477429629</internalNodes>
          <leafValues>
            -2.9366832971572876e-01 2.9366832971572876e-01</leafValues></_>
        <_>
          <internalNodes>
            0 -1 102 -1 -1 -1 -1 -129 2013265919 -9 2013265919</internalNodes>
          <leafValues>
            2.6148760318756104e-01 -2.6148760318756104e-01</leafValues></_>
        <_>
          <internalNodes>
            0 -1 331 -16842754 -16842754 -1 1660878846 -129 2004877311
            -3 1660878844</internalNodes>
          <leafValues>
            -2.7570468187332153e-01 2.7570468187332153e-01</leafValues></_>
        <_>
          <internalNodes>
            0 -1 134 -1 -1 -1 -1 -1 -1 -1 2147483647</internalNodes>
          <leafValues>
            -3.1425818800926208e-01 3.1425818800926208e-01</leafValues></_>
        <_>
          <internalNodes>
            0 -1 465 -1 -1 -1 -1 -1 -1 -1 2147287037</internalNodes>
          <leafValues>
            2.9983329772949219e-01 -2.9983329772949219e-01</leafValues></_>
        <_>
          <internalNodes>
            0 -1 537 -65538 -268500993 -1 -65538 -1 -1 -1 2147450879</internalNodes>
          <leafValues>
            -2.9231128096580505e-01 2.9231128096580505e-01</leafValues></_>
        <_>
          <internalNodes>
            0 -1 518 1073496052 -32769 -1 805109757 -32772 -1 -4
            205004660</internalNodes>
          <leafValues>
            -2.7850538492202759e-01 2.7850538492202759e-01</leafValues></_>
        <_>
          <internalNodes>
            0 -1 146 -1 -1 -1 -1 -129 2147483647 -1 -1</internalNodes>
          <leafValues>
            -3.4129938483238220e-01 3.4129938483238220e-01</leafValues></_>
        <_>
          <internalNodes>
            0 -1 315 805207932 -1359020033 -1 -1359020033 -32769 -1
            2147450741 519897076</internalNodes>
          <leafValues>
            -2.7699437737464905e-01 2.7699437737464905e-01</leafValues></_>
        <_>
          <internalNodes>
            0 -1 225 -49284 -285212673 -2 -1 -268435466 1862270975
            -134252684 1442840575</internalNodes>
          <leafValues>
            -2.5505051016807556e-01 2.5505051016807556e-01</leafValues></_>
        <_>
          <internalNodes>
            0 -1 369 -1 -1 -1 -16777217 -1 2147483647 -1 -1</internalNodes>
          <leafValues>
            -3.2195514440536499e-01 3.2195514440536499e-01</leafValues></_>
        <_>
          <internalNodes>
            0 -1 99 -1 -1 -1 -16777217 -1 2013265919 -1 2013265919</internalNodes>
          <leafValues>
            2.7370181679725647e-01 -2.7370181679725647e-01</leafValues></_>
        <_>
          <internalNodes>
            0 -1 425 -822153498 -890306582 -286331138 552496878
            1879044094 1694466047 1337982847 1077352319</internalNodes>
          <leafValues>
            -2.6928803324699402e-01 2.6928803324699402e-01</leafValues></_>
        <_>
          <internalNodes>
            0 -1 572 -65537 -1 -1 -1 -1 -1 -1 -32769</internalNodes>
          <leafValues>
            -3.4907063841819763e-01 3.4907063841819763e-01</leafValues></_>
        <_>
          <internalNodes>
            0 -1 428 -1342181586 788463615 -82 788463614 2147450741
            1207959551 -140 1694498687</internalNodes>
          <leafValues>
            -2.8863090276718140e-01 2.8863090276718140e-01</leafValues></_>
        <_>
          <internalNodes>
            0 -1 231 -1 -1 -1 -16777217 -1 -1 -9 2013265919</internalNodes>
          <leafValues>
            2.3424713313579559e-01 -2.3424713313579559e-01</leafValues></_></weakClassifiers></_>
    <!-- stage 9 -->
    <_>
      <maxWeakCount>76</maxWeakCount>
      <stageThreshold>-2.3476781845092773e+00</stageThreshold>
      <weakClassifiers>
        <_>
          <internalNodes>
            0 -1 46 -1 -1 -1 -1 -1 2147483647 -1 -1</internalNodes>
          <leafValues>
            -9.5296818017959595e-01 9.5296818017959595e-01</leafValues></_>
        <_>
          <internalNodes>
            0 -1 40 -2 -1 -1 -1 -12 -1 -4 -1</internalNodes>
          <leafValues>
            -5.7670450210571289e-01 5.7670450210571289e-01</leafValues></_>
        <_>
          <internalNodes>
            0 -1 92 -32898 2147385214 -1 2147483647 671053439 83787518
            2013231103 1442805759</internalNodes>
          <leafValues>
            -4.5985588431358337e-01 4.5985588431358337e-01</leafValues></_>
        <_>
          <internalNodes>
            0 -1 381 -1 -268435457 -1 -285212673 -1 -1 -1 -1</internalNodes>
          <leafValues>
            -4.5270135998725891e-01 4.5270135998725891e-01</leafValues></_>
        <_>
          <internalNodes>
            0 -1 272 -1 -268435457 -1 -16777217 -1 2147483647 -1
            2013265919</internalNodes>
          <leafValues>
            4.1217654943466187e-01 -4.1217654943466187e-01</leafValues></_>
        <_>
          <internalNodes>
            0 -1 96 -1 2147483647 -1 2147483647 2147483647 2147483647
            2147483647 2147483647</internalNodes>
          <leafValues>
            -4.2077475786209106e-01 4.2077475786209106e-01</leafValues></_>
        <_>
          <internalNodes>
            0 -1 460 805191676 -1073741825 -1 -1073741825 -1 -1 -1
            246956020</internalNodes>
          <leafValues>
            -3.3791318535804749e-01 3.3791318535804749e-01</leafValues></_>
        <_>
          <internalNodes>
            0 -1 1 -1 -1 -1 -1 -1 -1 -1 -196609</internalNodes>
          <leafValues>
            -3.9533603191375732e-01 3.9533603191375732e-01</leafValues></_>
        <_>
          <internalNodes>
            0 -1 469 -1 -268435457 -1 -285212673 -1 -1 -1 2147483647</internalNodes>
          <leafValues>
            3.2996538281440735e-01 -3.2996538281440735e-01</leafValues></_>
        <_>
          <internalNodes>
            0 -1 11 -1 -1 -1 -1 -1 -1 -1 2004877181</internalNodes>
          <leafValues>
            -3.5868746042251587e-01 3.5868746042251587e-01</leafValues></_>
        <_>
          <internalNodes>
            0 -1 229 -1 -1 -1 -1 -129 -1 -137 2013069301</internalNodes>
          <leafValues>
            3.5013428330421448e-01 -3.5013428330421448e-01</leafValues></_>
        <_>
          <internalNodes>
            0 -1 600 -1 -1 -1 -1 -1 -1 -1 1610416125</internalNodes>
          <leafValues>
            -3.3310273289680481e-01 3.3310273289680481e-01</leafValues></_>
        <_>
          <internalNodes>
            0 -1 74 -130 -1 -1 -1 -9 -1 -134219788 939524095</internalNodes>
          <leafValues>
            -3.3328613638877869e-01 3.3328613638877869e-01</leafValues></_>
        <_>
          <internalNodes>
            0 -1 522 -2 -16842754 -1 -65537 -1 -1 -1 1073692671</internalNodes>
          <leafValues>
            -3.1645035743713379e-01 3.1645035743713379e-01</leafValues></_>
        <_>
          <internalNodes>
            0 -1 303 -2 -1 -1 1191182335 -11 1476394999 -3 402653183</internalNodes>
          <leafValues>
            -3.2630723714828491e-01 3.2630723714828491e-01</leafValues></_>
        <_>
          <internalNodes>
            0 -1 499 -65538 -16842753 -1 -1 -1 -1 -1 -1</internalNodes>
          <leafValues>
            -3.5984787344932556e-01 3.5984787344932556e-01</leafValues></_>
        <_>
          <internalNodes>
            0 -1 526 -1 -1 -1 -1 -1 -1 -1 2147483647</internalNodes>
          <leafValues>
            4.2192521691322327e-01 -4.2192521691322327e-01</leafValues></_>
        <_>
          <internalNodes>
            0 -1 601 -1 -1 -1 -1 -1 -1 -1 2147352575</internalNodes>
          <leafValues>
            -3.0613872408866882e-01 3.0613872408866882e-01</leafValues></_>
        <_>
          <internalNodes>
            0 -1 187 -274 -1 -1 -352649218 -1 2147483647 -1 7535870</internalNodes>
          <leafValues>
            -2.6309132575988770e-01 2.6309132575988770e-01</leafValues></_>
        <_>
          <internalNodes>
            0 -1 317 -1 -268435457 -1 -1 -1 -1 -9 -1</internalNodes>
          <leafValues>
            -3.7032166123390198e-01 3.7032166123390198e-01</leafValues></_>
        <_>
          <internalNodes>
            0 -1 218 -137 -137 -1 1157627775 -34956 1174370165
            -536930828 360660798</internalNodes>
          <leafValues>
            -3.4461438655853271e-01 3.4461438655853271e-01</leafValues></_>
        <_>
          <internalNodes>
            0 -1 422 -285282578 -285278210 -2 -285278210 -1 2013265919
            -12 1148485620</internalNodes>
          <leafValues>
            3.3442702889442444e-01 -3.3442702889442444e-01</leafValues></_>
        <_>
          <internalNodes>
            0 -1 97 805076860 -1 -1 2147418111 2147483647 -1 -131
            74743677</internalNodes>
          <leafValues>
            -2.9928395152091980e-01 2.9928395152091980e-01</leafValues></_>
        <_>
          <internalNodes>
            0 -1 585 -65537 -1 -1 -1 -1 -1 -1 -1073840129</internalNodes>
          <leafValues>
            -3.3186677098274231e-01 3.3186677098274231e-01</leafValues></_>
        <_>
          <internalNodes>
            0 -1 173 -1 -1 -1 -1 -129 -1 -137 2147483647</internalNodes>
          <leafValues>
            2.8188759088516235e-01 -2.8188759088516235e-01</leafValues></_>
        <_>
          <internalNodes>
            0 -1 351 -18 -268435457 -2 -1 -129 2147483647 -1 -134217729</internalNodes>
          <leafValues>
            -3.0946022272109985e-01 3.0946022272109985e-01</leafValues></_>
        <_>
          <internalNodes>
            0 -1 617 1073627132 -1 -1 -268500993 -1 -1 -1 477396980</internalNodes>
          <leafValues>
            -2.7863577008247375e-01 2.7863577008247375e-01</leafValues></_>
        <_>
          <internalNodes>
            0 -1 141 -1 -1 -1 -1 -1 2147483647 -1 -134217729</internalNodes>
          <leafValues>
            -3.4863901138305664e-01 3.4863901138305664e-01</leafValues></_>
        <_>
          <internalNodes>
            0 -1 147 1073643517 -1 -1 1878982655 2147450879 -1
            2147483517 208994164</internalNodes>
          <leafValues>
            -2.9891699552536011e-01 2.9891699552536011e-01</leafValues></_>
        <_>
          <internalNodes>
            0 -1 189 -1 -1 -1 -1 -1 -1 -1 1409286143</internalNodes>
          <leafValues>
            -2.9725018143653870e-01 2.9725018143653870e-01</leafValues></_>
        <_>
          <internalNodes>
            0 -1 492 -1 -1 -1 -16842753 -1 -1 -1 2130509820</internalNodes>
          <leafValues>
            2.8647822141647339e-01 -2.8647822141647339e-01</leafValues></_>
        <_>
          <internalNodes>
            0 -1 356 -1073741825 -1073741825 -1 -1073807361 -32769 -1 -1
            1073610751</internalNodes>
          <leafValues>
            -2.9765513539314270e-01 2.9765513539314270e-01</leafValues></_>
        <_>
          <internalNodes>
            0 -1 362 -1 -1 -1 -1 -1 -1 -1 1073709055</internalNodes>
          <leafValues>
            2.9766201972961426e-01 -2.9766201972961426e-01</leafValues></_>
        <_>
          <internalNodes>
            0 -1 452 -1073840129 -1 -1 -1073741825 -1 -1 -1 -1073774593</internalNodes>
          <leafValues>
            -3.2185164093971252e-01 3.2185164093971252e-01</leafValues></_>
        <_>
          <internalNodes>
            0 -1 605 -196611 -1 -1 -1 -1 -1 -1 1073512444</internalNodes>
          <leafValues>
            -2.7572688460350037e-01 2.7572688460350037e-01</leafValues></_>
        <_>
          <internalNodes>
            0 -1 324 -4097 -1 -1 -268500993 -1 -1 -3 1727987708</internalNodes>
          <leafValues>
            -2.9104572534561157e-01 2.9104572534561157e-01</leafValues></_>
        <_>
          <internalNodes>
            0 -1 69 -196611 -1 -1 -1 -1 -1 -1 -196611</internalNodes>
          <leafValues>
            -3.0561363697052002e-01 3.0561363697052002e-01</leafValues></_>
        <_>
          <internalNodes>
            0 -1 179 -1 -268435457 -1 -1 -129 2013265919 -9 2013265919</internalNodes>
          <leafValues>
            2.7911025285720825e-01 -2.7911025285720825e-01</leafValues></_>
        <_>
          <internalNodes>
            0 -1 431 -1 -268435457 -1 -285278210 -129 -1 -1 -1</internalNodes>
          <leafValues>
            -2.9714569449424744e-01 2.9714569449424744e-01</leafValues></_>
        <_>
          <internalNodes>
            0 -1 552 -1 -268435457 -1 -285212673 -1 -1 -1 2147483647</internalNodes>
          <leafValues>
            2.7776998281478882e-01 -2.7776998281478882e-01</leafValues></_>
        <_>
          <internalNodes>
            0 -1 265 -268435458 2147483647 -1 805306366 -1 2147483647 -1
            1476395007</internalNodes>
          <leafValues>
            -2.6492184400558472e-01 2.6492184400558472e-01</leafValues></_>
        <_>
          <internalNodes>
            0 -1 479 -65538 -16777217 -1 -285278209 -1 -1 -1 108822516</internalNodes>
          <leafValues>
            2.7022540569305420e-01 -2.7022540569305420e-01</leafValues></_>
        <_>
          <internalNodes>
            0 -1 435 -65538 -1 -1 -268500993 -1 -1 -1 1157562110</internalNodes>
          <leafValues>
            -2.9143834114074707e-01 2.9143834114074707e-01</leafValues></_>
        <_>
          <internalNodes>
            0 -1 308 -4098 -285212673 -1 -1 -1 -939524097 -9 402653183</internalNodes>
          <leafValues>
            -2.7596005797386169e-01 2.7596005797386169e-01</leafValues></_>
        <_>
          <internalNodes>
            0 -1 124 2147450879 -1 -1 -1 2147450879 -1 2147450749
            1291091837</internalNodes>
          <leafValues>
            -2.3628038167953491e-01 2.3628038167953491e-01</leafValues></_>
        <_>
          <internalNodes>
            0 -1 374 -1 -1 -1 -285212673 -1 -1 -1 -1</internalNodes>
          <leafValues>
            -3.0046463012695312e-01 3.0046463012695312e-01</leafValues></_>
        <_>
          <internalNodes>
            0 -1 364 -86338 -1360084994 -1073819650 78515938 2147483519
            268386303 859774262 3671078</internalNodes>
          <leafValues>
            -3.0365580320358276e-01 3.0365580320358276e-01</leafValues></_>
        <_>
          <internalNodes>
            0 -1 342 -1 -1 -1 -16777217 -129 -1 -1 -1</internalNodes>
          <leafValues>
            -3.1791996955871582e-01 3.1791996955871582e-01</leafValues></_>
        <_>
          <internalNodes>
            0 -1 383 -1 -268435457 -1 -285212673 -129 -1 -1 2147483647</internalNodes>
          <leafValues>
            3.0068358778953552e-01 -3.0068358778953552e-01</leafValues></_>
        <_>
          <internalNodes>
            0 -1 283 -2 -1342177281 -1 -1 -1 2147483647 -1 2147483647</internalNodes>
          <leafValues>
            -2.5776496529579163e-01 2.5776496529579163e-01</leafValues></_>
        <_>
          <internalNodes>
            0 -1 612 788283260 -65537 -1 2147418111 -32769 -1 -3
            477921140</internalNodes>
          <leafValues>
            -2.5697749853134155e-01 2.5697749853134155e-01</leafValues></_>
        <_>
          <internalNodes>
            0 -1 588 -65537 -1 -1 -1 -1 -1 -1 -1073840129</internalNodes>
          <leafValues>
            -2.8569850325584412e-01 2.8569850325584412e-01</leafValues></_>
        <_>
          <internalNodes>
            0 -1 567 -1 -1 -1 -1 -1 -1 -1 2147287039</internalNodes>
          <leafValues>
            2.6476377248764038e-01 -2.6476377248764038e-01</leafValues></_>
        <_>
          <internalNodes>
            0 -1 559 -65538 -1 -1 -1 -1 -1 -1 2147483647</internalNodes>
          <leafValues>
            -2.8683942556381226e-01 2.8683942556381226e-01</leafValues></_>
        <_>
          <internalNodes>
            0 -1 166 -16843010 -85002498 -285278466 14870262 -1
            1081603959 -570458243 7698295</internalNodes>
          <leafValues>
            -2.6412019133567810e-01 2.6412019133567810e-01</leafValues></_>
        <_>
          <internalNodes>
            0 -1 241 -2 -285212673 -2 -285278209 -1 2013265919 -1
            1962409983</internalNodes>
          <leafValues>
            2.7193477749824524e-01 -2.7193477749824524e-01</leafValues></_>
        <_>
          <internalNodes>
            0 -1 529 -1073823746 -65537 -1 -16842754 -1 -1 -1 2147450879</internalNodes>
          <leafValues>
            -2.6189339160919189e-01 2.6189339160919189e-01</leafValues></_>
        <_>
          <internalNodes>
            0 -1 344 -32769 -268435457 -1 -285212673 -139 2147483647 -11
            134184959</internalNodes>
          <leafValues>
            2.4281376600265503e-01 -2.4281376600265503e-01</leafValues></_>
        <_>
          <internalNodes>
            0 -1 502 -268439762 1862270975 -2 -285278210 -32905
            2147483647 2147450741 1995964279</internalNodes>
          <leafValues>
            -2.1573869884014130e-01 2.1573869884014130e-01</leafValues></_>
        <_>
          <internalNodes>
            0 -1 348 -17 -268435457 -1 -1 -1 2147483647 -1 -134217729</internalNodes>
          <leafValues>
            -2.8392454981803894e-01 2.8392454981803894e-01</leafValues></_>
        <_>
          <internalNodes>
            0 -1 137 -12 -1 -1 -1 -2188 1475868535 2147448308 360658943</internalNodes>
          <leafValues>
            -2.6949581503868103e-01 2.6949581503868103e-01</leafValues></_>
        <_>
          <internalNodes>
            0 -1 294 -1 -268435457 -1 -16777217 -1 2147483647 -9 -1</internalNodes>
          <leafValues>
            -2.7968344092369080e-01 2.7968344092369080e-01</leafValues></_>
        <_>
          <internalNodes>
            0 -1 621 1073643519 2147483647 -1 1878982655 2147483647 -1
            2147483517 209518453</internalNodes>
          <leafValues>
            -2.4608927965164185e-01 2.4608927965164185e-01</leafValues></_>
        <_>
          <internalNodes>
            0 -1 330 -65538 -16777218 -1 -285278210 -1 -1 -3 1156906996</internalNodes>
          <leafValues>
            2.7646914124488831e-01 -2.7646914124488831e-01</leafValues></_>
        <_>
          <internalNodes>
            0 -1 390 -1 -1 -1 -1 -1 -1 -1 208994293</internalNodes>
          <leafValues>
            -2.4999941885471344e-01 2.4999941885471344e-01</leafValues></_>
        <_>
          <internalNodes>
            0 -1 216 -1 -1 -1 -1 -129 2147483647 -137 2012676085</internalNodes>
          <leafValues>
            2.6707732677459717e-01 -2.6707732677459717e-01</leafValues></_>
        <_>
          <internalNodes>
            0 -1 154 1073643519 -1 -1 -1 -1 -1 -9 225738749</internalNodes>
          <leafValues>
            -2.4942764639854431e-01 2.4942764639854431e-01</leafValues></_>
        <_>
          <internalNodes>
            0 -1 350 -1 -268435457 -1 -1 -1 -1 -1 -134217729</internalNodes>
          <leafValues>
            -3.1733620166778564e-01 3.1733620166778564e-01</leafValues></_>
        <_>
          <internalNodes>
            0 -1 193 -514 -134217737 -2 1089763184 -652 1442182995
            2113369424 271726096</internalNodes>
          <leafValues>
            -2.7276757359504700e-01 2.7276757359504700e-01</leafValues></_>
        <_>
          <internalNodes>
            0 -1 214 -1 -1 -1 -1 -129 -1 -1 -134217729</internalNodes>
          <leafValues>
            -3.0302128195762634e-01 3.0302128195762634e-01</leafValues></_>
        <_>
          <internalNodes>
            0 -1 395 -1 -1 -1 -1 -1 -1 -1 2147287037</internalNodes>
          <leafValues>
            2.9011127352714539e-01 -2.9011127352714539e-01</leafValues></_>
        <_>
          <internalNodes>
            0 -1 8 -2 -1 -1 -1 -1 -1 -130 2013200244</internalNodes>
          <leafValues>
            -2.7384468913078308e-01 2.7384468913078308e-01</leafValues></_>
        <_>
          <internalNodes>
            0 -1 517 805273599 805306367 -1 1073676287 -32897 -1
            2147483647 1031569405</internalNodes>
          <leafValues>
            -2.4255815148353577e-01 2.4255815148353577e-01</leafValues></_>
        <_>
          <internalNodes>
            0 -1 207 -17 -285212673 -1 -285212673 -137 1476395007 -137
            2012741631</internalNodes>
          <leafValues>
            2.7296140789985657e-01 -2.7296140789985657e-01</leafValues></_>
        <_>
          <internalNodes>
            0 -1 18 -1 -1 -1 -134217729 -1 -134217737 -1 276297591</internalNodes>
          <leafValues>
            -2.7440986037254333e-01 2.7440986037254333e-01</leafValues></_>
        <_>
          <internalNodes>
            0 -1 440 -268501010 -268435457 -2 788463614 -1 2147483647
            -140 83165172</internalNodes>
          <leafValues>
            2.7397939562797546e-01 -2.7397939562797546e-01</leafValues></_></weakClassifiers></_>
    <!-- stage 10 -->
    <_>
      <maxWeakCount>100</maxWeakCount>
      <stageThreshold>-2.1969854831695557e+00</stageThreshold>
      <weakClassifiers>
        <_>
          <internalNodes>
            0 -1 323 -1 -1 -1 -1 -1 -1 -1 -268435457</internalNodes>
          <leafValues>
            -8.8795739412307739e-01 8.8795739412307739e-01</leafValues></_>
        <_>
          <internalNodes>
            0 -1 77 -129 -1 -1 -1 -9 -1 -134252553 2013265919</internalNodes>
          <leafValues>
            -4.9635612964630127e-01 4.9635612964630127e-01</leafValues></_>
        <_>
          <internalNodes>
            0 -1 14 -1 -1 -1 -1 -1 2147483647 -1 2004352893</internalNodes>
          <leafValues>
            -4.1221517324447632e-01 4.1221517324447632e-01</leafValues></_>
        <_>
          <internalNodes>
            0 -1 310 -268533762 -285278209 -1 -1 -1 -822083585 -139
            1442840575</internalNodes>
          <leafValues>
            -3.8323506712913513e-01 3.8323506712913513e-01</leafValues></_>
        <_>
          <internalNodes>
            0 -1 509 -1 -1 -1 -1 -1 -1 -1 -1073840131</internalNodes>
          <leafValues>
            -4.0669703483581543e-01 4.0669703483581543e-01</leafValues></_>
        <_>
          <internalNodes>
            0 -1 27 -2 -1 -1 -1 -131 2139094911 -132 2139094908</internalNodes>
          <leafValues>
            -3.4467265009880066e-01 3.4467265009880066e-01</leafValues></_>
        <_>
          <internalNodes>
            0 -1 271 -18 -285212673 -2 -285278210 -1 2013265919 -1
            2013265919</internalNodes>
          <leafValues>
            3.2444718480110168e-01 -3.2444718480110168e-01</leafValues></_>
        <_>
          <internalNodes>
            0 -1 257 -1 -1 -1 1156509694 -1 1476395007 -73 1476394815</internalNodes>
          <leafValues>
            -3.3823347091674805e-01 3.3823347091674805e-01</leafValues></_>
        <_>
          <internalNodes>
            0 -1 172 2147483647 -1 -1 -1 -1 -1 -1 477954045</internalNodes>
          <leafValues>
            -3.1699916720390320e-01 3.1699916720390320e-01</leafValues></_>
        <_>
          <internalNodes>
            0 -1 486 -1073774593 -1 -1 -1 -1 -1 -1 -1073774593</internalNodes>
          <leafValues>
            -3.4116593003273010e-01 3.4116593003273010e-01</leafValues></_>
        <_>
          <internalNodes>
            0 -1 399 -1 -1 -1 -1 -1 -1 -1 1073709055</internalNodes>
          <leafValues>
            3.0344501137733459e-01 -3.0344501137733459e-01</leafValues></_>
        <_>
          <internalNodes>
            0 -1 380 -1 -268435457 -1 -268435457 -1 -1 -1 -1</internalNodes>
          <leafValues>
            -3.6089015007019043e-01 3.6089015007019043e-01</leafValues></_>
        <_>
          <internalNodes>
            0 -1 505 -1 -1 -1 -1 -1 -1 -1 2147483647</internalNodes>
          <leafValues>
            3.0909964442253113e-01 -3.0909964442253113e-01</leafValues></_>
        <_>
          <internalNodes>
            0 -1 325 -1 -1 -1 -65537 -1 -1 -1 2013200383</internalNodes>
          <leafValues>
            -3.4483775496482849e-01 3.4483775496482849e-01</leafValues></_>
        <_>
          <internalNodes>
            0 -1 412 1073643516 -1073807361 -1 -1359020033 -32769 -1
            -32769 788299772</internalNodes>
          <leafValues>
            -2.8108626604080200e-01 2.8108626604080200e-01</leafValues></_>
        <_>
          <internalNodes>
            0 -1 590 2147483647 -1 -1 1878982655 -1 -1 -1 1576861565</internalNodes>
          <leafValues>
            -2.8129187226295471e-01 2.8129187226295471e-01</leafValues></_>
        <_>
          <internalNodes>
            0 -1 59 -1 -1 -1 -1 -1 -1 -1 -229377</internalNodes>
          <leafValues>
            -3.0277624726295471e-01 3.0277624726295471e-01</leafValues></_>
        <_>
          <internalNodes>
            0 -1 573 -1 -268435457 -1 -285278209 -1 -1 -1 2147418111</internalNodes>
          <leafValues>
            2.6040017604827881e-01 -2.6040017604827881e-01</leafValues></_>
        <_>
          <internalNodes>
            0 -1 168 -1 -1 -1 -1 -1 2147483647 -1 2147483647</internalNodes>
          <leafValues>
            -2.9071071743965149e-01 2.9071071743965149e-01</leafValues></_>
        <_>
          <internalNodes>
            0 -1 78 -1 -1 -1 -1 -1 2013265919 -1 2013265919</internalNodes>
          <leafValues>
            2.9895150661468506e-01 -2.9895150661468506e-01</leafValues></_>
        <_>
          <internalNodes>
            0 -1 304 -2 -1 -2 -218169346 -129 2013265919 -1 2013265919</internalNodes>
          <leafValues>
            -3.2734170556068420e-01 3.2734170556068420e-01</leafValues></_>
        <_>
          <internalNodes>
            0 -1 614 -65537 -1 -1 -1 -1 -1 -1 -1073905665</internalNodes>
          <leafValues>
            -2.8530398011207581e-01 2.8530398011207581e-01</leafValues></_>
        <_>
          <internalNodes>
            0 -1 248 1878949884 -1 -1 -1342242817 2147483647 -1 -139
            74743668</internalNodes>
          <leafValues>
            -2.7677723765373230e-01 2.7677723765373230e-01</leafValues></_>
        <_>
          <internalNodes>
            0 -1 433 -1 -268435457 -1 -1 -1 2147483647 -1 -134217729</internalNodes>
          <leafValues>
            -3.1275165081024170e-01 3.1275165081024170e-01</leafValues></_>
        <_>
          <internalNodes>
            0 -1 328 -1 -1 -1 -1 -1 -1 -1 2147287037</internalNodes>
          <leafValues>
            2.5343489646911621e-01 -2.5343489646911621e-01</leafValues></_>
        <_>
          <internalNodes>
            0 -1 568 -65539 -1 -1 -1 -1 -1 -1 -32769</internalNodes>
          <leafValues>
            -2.9996034502983093e-01 2.9996034502983093e-01</leafValues></_>
        <_>
          <internalNodes>
            0 -1 34 -16777474 -16777218 -1 -218693894 -1 2012741631
            -33554433 1349777399</internalNodes>
          <leafValues>
            -2.9875066876411438e-01 2.9875066876411438e-01</leafValues></_>
        <_>
          <internalNodes>
            0 -1 304 -1 -1 -1 -16777217 -129 2147483647 -9 2013265919</internalNodes>
          <leafValues>
            2.4274785816669464e-01 -2.4274785816669464e-01</leafValues></_>
        <_>
          <internalNodes>
            0 -1 427 -1342177281 -1342177281 -1 -1 -1 -1 -1 -1</internalNodes>
          <leafValues>
            -3.0974003672599792e-01 3.0974003672599792e-01</leafValues></_>
        <_>
          <internalNodes>
            0 -1 180 -196612 -1 -1 -1 -1 -1 -32907 1039433588</internalNodes>
          <leafValues>
            -2.8885927796363831e-01 2.8885927796363831e-01</leafValues></_>
        <_>
          <internalNodes>
            0 -1 610 1073643517 -1 -1 -65537 -1 -1 -1 1072988157</internalNodes>
          <leafValues>
            -2.5629666447639465e-01 2.5629666447639465e-01</leafValues></_>
        <_>
          <internalNodes>
            0 -1 511 -1 -1 -1 -1 -1 -1 -1 2147287037</internalNodes>
          <leafValues>
            2.2537079453468323e-01 -2.2537079453468323e-01</leafValues></_>
        <_>
          <internalNodes>
            0 -1 326 -2 -1 -1 -1 -1 -1 -1 1660944383</internalNodes>
          <leafValues>
            -2.7532601356506348e-01 2.7532601356506348e-01</leafValues></_>
        <_>
          <internalNodes>
            0 -1 246 -268435474 -285212673 -2 -285212674 -1 2013265919
            -1 2013265919</internalNodes>
          <leafValues>
            2.7444064617156982e-01 -2.7444064617156982e-01</leafValues></_>
        <_>
          <internalNodes>
            0 -1 261 -1 -268435457 -1 1157562366 -9 1476394999 -131
            360709951</internalNodes>
          <leafValues>
            -2.5823536515235901e-01 2.5823536515235901e-01</leafValues></_>
        <_>
          <internalNodes>
            0 -1 217 -32908 -129 -1 -1 -32908 -1 -140 1064599412</internalNodes>
          <leafValues>
            2.7118825912475586e-01 -2.7118825912475586e-01</leafValues></_>
        <_>
          <internalNodes>
            0 -1 149 -2 1946091518 -1 2013265918 2013231095 293042175
            2013233151 293042175</internalNodes>
          <leafValues>
            -2.5203716754913330e-01 2.5203716754913330e-01</leafValues></_>
        <_>
          <internalNodes>
            0 -1 25 -1 -1 -1 -1 -1 -1 -1 -196612</internalNodes>
          <leafValues>
            -2.7352970838546753e-01 2.7352970838546753e-01</leafValues></_>
        <_>
          <internalNodes>
            0 -1 191 -1 -1 -1 -1 -11 -1 -11 2004844405</internalNodes>
          <leafValues>
            2.6193526387214661e-01 -2.6193526387214661e-01</leafValues></_>
        <_>
          <internalNodes>
            0 -1 238 -2 -1 -1 2013265919 -140 2013265919 -12 1476395007</internalNodes>
          <leafValues>
            -2.7562493085861206e-01 2.7562493085861206e-01</leafValues></_>
        <_>
          <internalNodes>
            0 -1 328 -285212673 -285212673 -1 -285212673 -1 -1 -1
            788332541</internalNodes>
          <leafValues>
            -2.6216802000999451e-01 2.6216802000999451e-01</leafValues></_>
        <_>
          <internalNodes>
            0 -1 459 -1359200260 -98305 -1 1073676287 -1 -1 -3 212893556</internalNodes>
          <leafValues>
            -2.2577105462551117e-01 2.2577105462551117e-01</leafValues></_>
        <_>
          <internalNodes>
            0 -1 314 -1 -268435457 -1 -1 -1 -1 -1 -1</internalNodes>
          <leafValues>
            -3.4590658545494080e-01 3.4590658545494080e-01</leafValues></_>
        <_>
          <internalNodes>
            0 -1 549 -1 -1 -1 -1 -1 -1 -1 2147483647</internalNodes>
          <leafValues>
            2.9886674880981445e-01 -2.9886674880981445e-01</leafValues></_>
        <_>
          <internalNodes>
            0 -1 571 -1 -1 -1 -1 -1 -1 -1 2147352575</internalNodes>
          <leafValues>
            -2.7847948670387268e-01 2.7847948670387268e-01</leafValues></_>
        <_>
          <internalNodes>
            0 -1 491 -1 -1 -1 -1 -1 -1 -1 1073676287</internalNodes>
          <leafValues>
            2.3079669475555420e-01 -2.3079669475555420e-01</leafValues></_>
        <_>
          <internalNodes>
            0 -1 467 -1073741826 -1 -1 -1073741825 -1 -1 -1 2147450879</internalNodes>
          <leafValues>
            -2.7770280838012695e-01 2.7770280838012695e-01</leafValues></_>
        <_>
          <internalNodes>
            0 -1 32 -1 -1 -1 -1 -9 2013265783 -3 2004352885</internalNodes>
          <leafValues>
            -2.3849870264530182e-01 2.3849870264530182e-01</leafValues></_>
        <_>
          <internalNodes>
            0 -1 31 -2 -65537 -2 -16842754 -137 2013265919 -140
            1685389172</internalNodes>
          <leafValues>
            2.5694128870964050e-01 -2.5694128870964050e-01</leafValues></_>
        <_>
          <internalNodes>
            0 -1 230 -1 -1 -1 -1 -1 -1 -1 2013265919</internalNodes>
          <leafValues>
            2.5126114487648010e-01 -2.5126114487648010e-01</leafValues></_>
        <_>
          <internalNodes>
            0 -1 495 -65540 -1 -1 -1 -1 -1 -1 -229379</internalNodes>
          <leafValues>
            -2.3610019683837891e-01 2.3610019683837891e-01</leafValues></_>
        <_>
          <internalNodes>
            0 -1 400 -1 -1 -1 -1 -1 -1 -1 1073709055</internalNodes>
          <leafValues>
            2.2879239916801453e-01 -2.2879239916801453e-01</leafValues></_>
        <_>
          <internalNodes>
            0 -1 124 -1 -1 -1 -1 -1 -1 -1 2147352575</internalNodes>
          <leafValues>
            -2.7253553271293640e-01 2.7253553271293640e-01</leafValues></_>
        <_>
          <internalNodes>
            0 -1 184 -1 -268435457 -1 -1 -129 2147483647 -1 2013265919</internalNodes>
          <leafValues>
            2.1565301716327667e-01 -2.1565301716327667e-01</leafValues></_>
        <_>
          <internalNodes>
            0 -1 453 -1 -268435457 -1 -285212673 -1 -1 -1 -1</internalNodes>
          <leafValues>
            -2.6495710015296936e-01 2.6495710015296936e-01</leafValues></_>
        <_>
          <internalNodes>
            0 -1 310 -32769 -1 -1 -1 -1 -1 -9 2147483647</internalNodes>
          <leafValues>
            2.4388760328292847e-01 -2.4388760328292847e-01</leafValues></_>
        <_>
          <internalNodes>
            0 -1 346 -1342275588 -1090584577 -1 -1073741825 -1 -1 -1
            1040154613</internalNodes>
          <leafValues>
            -2.2975638508796692e-01 2.2975638508796692e-01</leafValues></_>
        <_>
          <internalNodes>
            0 -1 239 -2 -285212673 -2 -285278210 -1 2013265919 -1
            1962409983</internalNodes>
          <leafValues>
            2.3892845213413239e-01 -2.3892845213413239e-01</leafValues></_>
        <_>
          <internalNodes>
            0 -1 12 -3 -1 -1 -1 -140 -137 -12 1979660151</internalNodes>
          <leafValues>
            -2.2173100709915161e-01 2.2173100709915161e-01</leafValues></_>
        <_>
          <internalNodes>
            0 -1 483 -18 -285212673 -2 -285212673 -1 2147483647 -1 -1</internalNodes>
          <leafValues>
            -2.1481916308403015e-01 2.1481916308403015e-01</leafValues></_>
        <_>
          <internalNodes>
            0 -1 244 -36994 -65537 -1 -1 -36865 268435455 -32769
            1476395007</internalNodes>
          <leafValues>
            -2.4251163005828857e-01 2.4251163005828857e-01</leafValues></_>
        <_>
          <internalNodes>
            0 -1 93 -1 -1 -1 -1 -1 2013265919 -9 2013265919</internalNodes>
          <leafValues>
            2.1992412209510803e-01 -2.1992412209510803e-01</leafValues></_>
        <_>
          <internalNodes>
            0 -1 276 1073643516 -1 -1 -1 -1 -1 -32907 1073512309</internalNodes>
          <leafValues>
            2.3871022462844849e-01 -2.3871022462844849e-01</leafValues></_>
        <_>
          <internalNodes>
            0 -1 113 -2 -1 -1 -1 -129 2147483647 -129 2013265919</internalNodes>
          <leafValues>
            -2.4143065512180328e-01 2.4143065512180328e-01</leafValues></_>
        <_>
          <internalNodes>
            0 -1 67 1073643519 2147483647 -1 -268500993 -1 -1 2147483519
            477429628</internalNodes>
          <leafValues>
            -2.0153854787349701e-01 2.0153854787349701e-01</leafValues></_>
        <_>
          <internalNodes>
            0 -1 473 -1 -1 -1 -1 -1 -1 -1 -1073807363</internalNodes>
          <leafValues>
            -2.7161225676536560e-01 2.7161225676536560e-01</leafValues></_>
        <_>
          <internalNodes>
            0 -1 130 -1 -1 -1 -16777217 -1 -1 -9 2013265919</internalNodes>
          <leafValues>
            1.9730953872203827e-01 -1.9730953872203827e-01</leafValues></_>
        <_>
          <internalNodes>
            0 -1 29 -1 -1 -1 -1 -1 2147483647 -1 2147483647</internalNodes>
          <leafValues>
            -2.8952452540397644e-01 2.8952452540397644e-01</leafValues></_>
        <_>
          <internalNodes>
            0 -1 334 -268505346 -2014400794 -65537 78253806 1073741297
            100599807 1073692466 3407934</internalNodes>
          <leafValues>
            -2.6059606671333313e-01 2.6059606671333313e-01</leafValues></_>
        <_>
          <internalNodes>
            0 -1 159 -1 -1 -1 -1 -1 -1 -1 1996488703</internalNodes>
          <leafValues>
            -2.7286636829376221e-01 2.7286636829376221e-01</leafValues></_>
        <_>
          <internalNodes>
            0 -1 494 -2 -268435457 -1 -285278209 -1 2147483647 -9
            1996292092</internalNodes>
          <leafValues>
            2.2027547657489777e-01 -2.2027547657489777e-01</leafValues></_>
        <_>
          <internalNodes>
            0 -1 395 -285278212 -285212673 -1 -65537 -1 -1 -1 788299773</internalNodes>
          <leafValues>
            -2.1752080321311951e-01 2.1752080321311951e-01</leafValues></_>
        <_>
          <internalNodes>
            0 -1 593 -65537 -1 -1 -1 -1 -1 -1 -1073807361</internalNodes>
          <leafValues>
            -2.4730134010314941e-01 2.4730134010314941e-01</leafValues></_>
        <_>
          <internalNodes>
            0 -1 539 -1073741825 -1 -1 -1 -1 -1 -1 2147287039</internalNodes>
          <leafValues>
            2.2008186578750610e-01 -2.2008186578750610e-01</leafValues></_>
        <_>
          <internalNodes>
            0 -1 376 -1 -1 -1 -16777217 -129 -1 -1 -1</internalNodes>
          <leafValues>
            -2.8299587965011597e-01 2.8299587965011597e-01</leafValues></_>
        <_>
          <internalNodes>
            0 -1 104 -268472716 1047428654 -268500994 1727954686
            75449982 74804862 1207924734 74671999</internalNodes>
          <leafValues>
            -2.5484123826026917e-01 2.5484123826026917e-01</leafValues></_>
        <_>
          <internalNodes>
            0 -1 520 -2 -1 -1 -1 -1 -1 -1 1342111742</internalNodes>
          <leafValues>
            -2.5550320744514465e-01 2.5550320744514465e-01</leafValues></_>
        <_>
          <internalNodes>
            0 -1 598 -65540 -1 -1 -1 -1 -1 -1 1073512445</internalNodes>
          <leafValues>
            -2.4622762203216553e-01 2.4622762203216553e-01</leafValues></_>
        <_>
          <internalNodes>
            0 -1 563 -1 -1 -1 -1 -1 -1 -1 2147287037</internalNodes>
          <leafValues>
            1.8444754183292389e-01 -1.8444754183292389e-01</leafValues></_>
        <_>
          <internalNodes>
            0 -1 570 -1 -1 -1 -1 -1 -1 -1 2147352575</internalNodes>
          <leafValues>
            -2.6832240819931030e-01 2.6832240819931030e-01</leafValues></_>
        <_>
          <internalNodes>
            0 -1 458 -1073774593 -268435457 -1 -285212673 -1 -1 -1
            2147483647</internalNodes>
          <leafValues>
            2.2109819948673248e-01 -2.2109819948673248e-01</leafValues></_>
        <_>
          <internalNodes>
            0 -1 472 1073643516 -1073741825 -1 -65537 -32769 -1 -1
            1073643517</internalNodes>
          <leafValues>
            -2.1621060371398926e-01 2.1621060371398926e-01</leafValues></_>
        <_>
          <internalNodes>
            0 -1 126 -1 -1 -1 -1 -1 -1 -1 -196609</internalNodes>
          <leafValues>
            -2.4787589907646179e-01 2.4787589907646179e-01</leafValues></_>
        <_>
          <internalNodes>
            0 -1 282 -285217234 -1360068610 -285212946 788463358 -32937
            1199570943 -2188 1685585911</internalNodes>
          <leafValues>
            -2.2358345985412598e-01 2.2358345985412598e-01</leafValues></_>
        <_>
          <internalNodes>
            0 -1 194 -32900 -1 -1 -1 -32907 2147483647 -32908 2138341236</internalNodes>
          <leafValues>
            2.5543567538261414e-01 -2.5543567538261414e-01</leafValues></_>
        <_>
          <internalNodes>
            0 -1 307 -269488276 -286851090 -4178 50327550 2013232964
            1173880695 -402688236 8257509</internalNodes>
          <leafValues>
            -2.1005910634994507e-01 2.1005910634994507e-01</leafValues></_>
        <_>
          <internalNodes>
            0 -1 524 -65537 -1 -1 -1 -1 -1 -1 -32769</internalNodes>
          <leafValues>
            -2.8619334101676941e-01 2.8619334101676941e-01</leafValues></_>
        <_>
          <internalNodes>
            0 -1 140 -4097 -537395201 -98305 1156511724 1476294647
            24344567 2008774513 286619495</internalNodes>
          <leafValues>
            -2.2440218925476074e-01 2.2440218925476074e-01</leafValues></_>
        <_>
          <internalNodes>
            0 -1 301 -140 -1 -1 -285212673 -139 2147483647 -11 369000445</internalNodes>
          <leafValues>
            2.3933573067188263e-01 -2.3933573067188263e-01</leafValues></_>
        <_>
          <internalNodes>
            0 -1 153 1073709055 -1 -1 -1 -1 -1 2147483647 477429621</internalNodes>
          <leafValues>
            -2.0338220894336700e-01 2.0338220894336700e-01</leafValues></_>
        <_>
          <internalNodes>
            0 -1 164 -1 -1 -1 -1 -1 2147483647 -1 -1</internalNodes>
          <leafValues>
            -2.8062266111373901e-01 2.8062266111373901e-01</leafValues></_>
        <_>
          <internalNodes>
            0 -1 365 -1359053452 1073741173 -1 243171189 -8716
            1073709055 -98819 70257956</internalNodes>
          <leafValues>
            -2.5799873471260071e-01 2.5799873471260071e-01</leafValues></_>
        <_>
          <internalNodes>
            0 -1 468 -1 -1 -1 -1 -1 -1 -1 2013233151</internalNodes>
          <leafValues>
            -2.6347368955612183e-01 2.6347368955612183e-01</leafValues></_>
        <_>
          <internalNodes>
            0 -1 553 -1 -1 -1 -1 -1 -1 -1 2147483647</internalNodes>
          <leafValues>
            2.3052957653999329e-01 -2.3052957653999329e-01</leafValues></_>
        <_>
          <internalNodes>
            0 -1 398 -1 -1 -1 -285278209 -1 -1 -1 251428860</internalNodes>
          <leafValues>
            2.2028127312660217e-01 -2.2028127312660217e-01</leafValues></_>
        <_>
          <internalNodes>
            0 -1 437 -65537 -1 -1 -1 -1 -1 -1 -65540</internalNodes>
          <leafValues>
            -2.4336075782775879e-01 2.4336075782775879e-01</leafValues></_>
        <_>
          <internalNodes>
            0 -1 580 1073643517 1073741823 -1 -285212673 -1 -1 -3
            208994165</internalNodes>
          <leafValues>
            -1.9584670662879944e-01 1.9584670662879944e-01</leafValues></_>
        <_>
          <internalNodes>
            0 -1 540 -1073807362 -65537 -1 -16842754 -1 -1 -1 2147450879</internalNodes>
          <leafValues>
            -2.3393031954765320e-01 2.3393031954765320e-01</leafValues></_>
        <_>
          <internalNodes>
            0 -1 536 -1342373892 -285278210 -1 -285278210 -3 -1 -1
            250879476</internalNodes>
          <leafValues>
            2.4173943698406219e-01 -2.4173943698406219e-01</leafValues></_>
        <_>
          <internalNodes>
            0 -1 561 -1 -268435457 -1 -285212673 -1 -1 -1 2147483647</internalNodes>
          <leafValues>
            2.2525522112846375e-01 -2.2525522112846375e-01</leafValues></_></weakClassifiers></_>
    <!-- stage 11 -->
    <_>
      <maxWeakCount>100</maxWeakCount>
      <stageThreshold>-2.3143818378448486e+00</stageThreshold>
      <weakClassifiers>
        <_>
          <internalNodes>
            0 -1 382 -1 -1 -1 -1073741825 -1 -1 -1 -1073741825</internalNodes>
          <leafValues>
            -8.8882988691329956e-01 8.8882988691329956e-01</leafValues></_>
        <_>
          <internalNodes>
            0 -1 36 -1 -1 -1 -1 -129 2004877183 -1 2139095039</internalNodes>
          <leafValues>
            -5.5141884088516235e-01 5.5141884088516235e-01</leafValues></_>
        <_>
          <internalNodes>
            0 -1 90 -49284 -1 -2 -1 -1 -1 2013230964 2013265919</internalNodes>
          <leafValues>
            -3.9261052012443542e-01 3.9261052012443542e-01</leafValues></_>
        <_>
          <internalNodes>
            0 -1 475 -1 -1 -1 -1 -1 -1 -1 -65537</internalNodes>
          <leafValues>
            -3.8679522275924683e-01 3.8679522275924683e-01</leafValues></_>
        <_>
          <internalNodes>
            0 -1 268 -268533890 -285278209 -1 2147483647 -268435465
            83886079 -134219913 1173848063</internalNodes>
          <leafValues>
            -3.4121236205101013e-01 3.4121236205101013e-01</leafValues></_>
        <_>
          <internalNodes>
            0 -1 26 -1 -1 -1 -1 -1 -1 -1 -1073938436</internalNodes>
          <leafValues>
            -3.1994670629501343e-01 3.1994670629501343e-01</leafValues></_>
        <_>
          <internalNodes>
            0 -1 305 -2 -285212673 -2 -285278210 -1 2013265919 -1
            2012741631</internalNodes>
          <leafValues>
            2.9149031639099121e-01 -2.9149031639099121e-01</leafValues></_>
        <_>
          <internalNodes>
            0 -1 523 -1073741826 -16842754 -1 -1073741825 -1 -1 -1
            1073692671</internalNodes>
          <leafValues>
            -2.8856003284454346e-01 2.8856003284454346e-01</leafValues></_>
        <_>
          <internalNodes>
            0 -1 343 -2 -1 -1 1191112702 -9 1476395007 -3 1207959550</internalNodes>
          <leafValues>
            -2.7724725008010864e-01 2.7724725008010864e-01</leafValues></_>
        <_>
          <internalNodes>
            0 -1 275 -1342177281 1879048191 -268435457 805306367 -1
            2147483647 -1 2147483647</internalNodes>
          <leafValues>
            -2.8779813647270203e-01 2.8779813647270203e-01</leafValues></_>
        <_>
          <internalNodes>
            0 -1 535 -1 -1 -1 -1 -1 -1 -1 2147287037</internalNodes>
          <leafValues>
            2.3872803151607513e-01 -2.3872803151607513e-01</leafValues></_>
        <_>
          <internalNodes>
            0 -1 454 -1073840129 -268500993 -1 -65537 -1 -1 -1 -65539</internalNodes>
          <leafValues>
            -3.2572177052497864e-01 3.2572177052497864e-01</leafValues></_>
        <_>
          <internalNodes>
            0 -1 82 -65540 -1 -1 -1 -1 -1 -1 -196620</internalNodes>
          <leafValues>
            -2.7034816145896912e-01 2.7034816145896912e-01</leafValues></_>
        <_>
          <internalNodes>
            0 -1 86 -1 -1 -1 -1 -1 2147483647 -1 2013265919</internalNodes>
          <leafValues>
            2.3976089060306549e-01 -2.3976089060306549e-01</leafValues></_>
        <_>
          <internalNodes>
            0 -1 7 -1 -1 -1 -1 -1 -1 -1 2012741495</internalNodes>
          <leafValues>
            -3.2153531908988953e-01 3.2153531908988953e-01</leafValues></_>
        <_>
          <internalNodes>
            0 -1 232 -140 -137 -1 1157627903 -2700 1442837879 1610569204
            369049462</internalNodes>
          <leafValues>
            -2.5856554508209229e-01 2.5856554508209229e-01</leafValues></_>
        <_>
          <internalNodes>
            0 -1 24 -1 -1 -1 -1 -1 -1 -1 2147483647</internalNodes>
          <leafValues>
            -3.1572261452674866e-01 3.1572261452674866e-01</leafValues></_>
        <_>
          <internalNodes>
            0 -1 240 -32769 -1 -1 -1 -1 -1 -11 2147450877</internalNodes>
          <leafValues>
            2.3669242858886719e-01 -2.3669242858886719e-01</leafValues></_>
        <_>
          <internalNodes>
            0 -1 408 -1 -268435457 -1 -268435457 -1 -1 -1 -1</internalNodes>
          <leafValues>
            -3.3250311017036438e-01 3.3250311017036438e-01</leafValues></_>
        <_>
          <internalNodes>
            0 -1 354 -1073774593 -1 -1 -1 -1 -1 -1 2147483647</internalNodes>
          <leafValues>
            2.9855725169181824e-01 -2.9855725169181824e-01</leafValues></_>
        <_>
          <internalNodes>
            0 -1 273 -268435474 -285212673 -2 -419495938 -1 2147483647
            -1 2013265919</internalNodes>
          <leafValues>
            2.6888534426689148e-01 -2.6888534426689148e-01</leafValues></_>
        <_>
          <internalNodes>
            0 -1 354 1073643516 -1090584577 -1 -1073807361 -32769 -1
            -32769 1073741823</internalNodes>
          <leafValues>
            -2.5289630889892578e-01 2.5289630889892578e-01</leafValues></_>
        <_>
          <internalNodes>
            0 -1 121 -1 -1 -1 -1 -1 2147483647 -1 -1</internalNodes>
          <leafValues>
            -2.9884374141693115e-01 2.9884374141693115e-01</leafValues></_>
        <_>
          <internalNodes>
            0 -1 236 -151064834 -486610182 -285278482 6350578 -184549633
            1349875575 1895822454 1081570423</internalNodes>
          <leafValues>
            -2.7046462893486023e-01 2.7046462893486023e-01</leafValues></_>
        <_>
          <internalNodes>
            0 -1 367 -1 -268435457 -1 -285212673 -1 -1 -1 -3</internalNodes>
          <leafValues>
            -2.8146091103553772e-01 2.8146091103553772e-01</leafValues></_>
        <_>
          <internalNodes>
            0 -1 285 1073643519 1073741823 -1 788463615 2147450751
            2147483647 -32907 74776573</internalNodes>
          <leafValues>
            -2.5297328829765320e-01 2.5297328829765320e-01</leafValues></_>
        <_>
          <internalNodes>
            0 -1 43 -1 -1 -1 -1 -129 -1 -137 2147483647</internalNodes>
          <leafValues>
            2.1193222701549530e-01 -2.1193222701549530e-01</leafValues></_>
        <_>
          <internalNodes>
            0 -1 591 -1 -1 -1 -1 -1 -1 -1 2138963967</internalNodes>
          <leafValues>
            -2.8106361627578735e-01 2.8106361627578735e-01</leafValues></_>
        <_>
          <internalNodes>
            0 -1 445 -2 -1 -1 -285278209 -1 -1 -1 654213119</internalNodes>
          <leafValues>
            2.3599410057067871e-01 -2.3599410057067871e-01</leafValues></_>
        <_>
          <internalNodes>
            0 -1 347 -1 -268435457 -1 -1 -1 -1 -9 -1</internalNodes>
          <leafValues>
            -2.8147843480110168e-01 2.8147843480110168e-01</leafValues></_>
        <_>
          <internalNodes>
            0 -1 498 -1 -1 -1 -1 -1 -1 -1 2147483647</internalNodes>
          <leafValues>
            2.5350591540336609e-01 -2.5350591540336609e-01</leafValues></_>
        <_>
          <internalNodes>
            0 -1 358 -1 -1 -1 -268435457 -1 -1 -1 1862205437</internalNodes>
          <leafValues>
            -2.7254158258438110e-01 2.7254158258438110e-01</leafValues></_>
        <_>
          <internalNodes>
            0 -1 596 805208063 -1 -1 -65537 -1 -1 -1 502562804</internalNodes>
          <leafValues>
            -2.1555921435356140e-01 2.1555921435356140e-01</leafValues></_>
        <_>
          <internalNodes>
            0 -1 394 -1 -268435457 -1 -285278209 -1 -1 -9 788332532</internalNodes>
          <leafValues>
            2.5450992584228516e-01 -2.5450992584228516e-01</leafValues></_>
        <_>
          <internalNodes>
            0 -1 72 2147450879 -1 -1 -1342177281 -1 -1 -1 208994300</internalNodes>
          <leafValues>
            -2.0658801496028900e-01 2.0658801496028900e-01</leafValues></_>
        <_>
          <internalNodes>
            0 -1 300 -1 -1 -1 -16777217 -129 -1 -1 -1</internalNodes>
          <leafValues>
            -3.0402466654777527e-01 3.0402466654777527e-01</leafValues></_>
        <_>
          <internalNodes>
            0 -1 64 -1 -67174402 -1 720371711 2013263863 1886877687
            2013233023 276264823</internalNodes>
          <leafValues>
            -2.6432010531425476e-01 2.6432010531425476e-01</leafValues></_>
        <_>
          <internalNodes>
            0 -1 178 -1 -268435457 -1 -1 -129 2013265919 -9 2013265919</internalNodes>
          <leafValues>
            2.4257646501064301e-01 -2.4257646501064301e-01</leafValues></_>
        <_>
          <internalNodes>
            0 -1 409 -1073840129 -65537 -1 -65537 -1 -1 -1 -1073741825</internalNodes>
          <leafValues>
            -2.5387504696846008e-01 2.5387504696846008e-01</leafValues></_>
        <_>
          <internalNodes>
            0 -1 441 -1 -1 -1 -1 -1 -1 -1 2147418109</internalNodes>
          <leafValues>
            2.3486520349979401e-01 -2.3486520349979401e-01</leafValues></_>
        <_>
          <internalNodes>
            0 -1 286 -1 -1 -1 -1 -1 -1 -1 745865205</internalNodes>
          <leafValues>
            -2.2901014983654022e-01 2.2901014983654022e-01</leafValues></_>
        <_>
          <internalNodes>
            0 -1 128 -18 -268435457 -2 -285278210 -137 2147483647 -140
            1953824628</internalNodes>
          <leafValues>
            2.6035022735595703e-01 -2.6035022735595703e-01</leafValues></_>
        <_>
          <internalNodes>
            0 -1 504 -285216978 -1359020033 -2 -285278210 2147450711
            2013265791 2013230964 2004254581</internalNodes>
          <leafValues>
            -2.2312775254249573e-01 2.2312775254249573e-01</leafValues></_>
        <_>
          <internalNodes>
            0 -1 548 -65538 -268500993 -1 -65538 -1 -1 -1 1073643518</internalNodes>
          <leafValues>
            -2.3523303866386414e-01 2.3523303866386414e-01</leafValues></_>
        <_>
          <internalNodes>
            0 -1 550 805208062 -1359020033 -1 -285278210 -1 -1 -1
            1056735220</internalNodes>
          <leafValues>
            2.3731462657451630e-01 -2.3731462657451630e-01</leafValues></_>
        <_>
          <internalNodes>
            0 -1 122 -1 -1 -1 -1 -1 -1 -137 1568473085</internalNodes>
          <leafValues>
            -2.2743855416774750e-01 2.2743855416774750e-01</leafValues></_>
        <_>
          <internalNodes>
            0 -1 289 -1 -1 -1 -1 -1 -1 -1 2147287037</internalNodes>
          <leafValues>
            2.1208821237087250e-01 -2.1208821237087250e-01</leafValues></_>
        <_>
          <internalNodes>
            0 -1 538 -65538 -285278209 -1 -65538 -1 -1 -1 2147450879</internalNodes>
          <leafValues>
            -2.4968339502811432e-01 2.4968339502811432e-01</leafValues></_>
        <_>
          <internalNodes>
            0 -1 250 -1 -1 -1 -268435457 -1 -1 -1 1727987708</internalNodes>
          <leafValues>
            -2.3546537756919861e-01 2.3546537756919861e-01</leafValues></_>
        <_>
          <internalNodes>
            0 -1 169 -2 -1 -1 -1 -129 2139094911 -132 2013265919</internalNodes>
          <leafValues>
            -2.5238767266273499e-01 2.5238767266273499e-01</leafValues></_>
        <_>
          <internalNodes>
            0 -1 266 -1 -1 -1 -1 -129 -1 -137 2147483647</internalNodes>
          <leafValues>
            2.3818567395210266e-01 -2.3818567395210266e-01</leafValues></_>
        <_>
          <internalNodes>
            0 -1 108 -1 -1 -1 -1 -1 -1 -9 -134217729</internalNodes>
          <leafValues>
            -2.8243106603622437e-01 2.8243106603622437e-01</leafValues></_>
        <_>
          <internalNodes>
            0 -1 255 -65538 -65537 -65538 250539774 -1 1392508927 -1
            16732159</internalNodes>
          <leafValues>
            -2.2424826025962830e-01 2.2424826025962830e-01</leafValues></_>
        <_>
          <internalNodes>
            0 -1 359 -18 -285212673 -18 -285278210 -129 2147483647 -140
            1156906996</internalNodes>
          <leafValues>
            2.5764915347099304e-01 -2.5764915347099304e-01</leafValues></_>
        <_>
          <internalNodes>
            0 -1 63 1073643519 2147483647 -1 -1359020033 -32771
            2147483647 2147450749 208961396</internalNodes>
          <leafValues>
            -2.1643079817295074e-01 2.1643079817295074e-01</leafValues></_>
        <_>
          <internalNodes>
            0 -1 497 -1342242818 -1359020034 -1 -1359036418 -1
            2147483647 -1 654196732</internalNodes>
          <leafValues>
            2.3988683521747589e-01 -2.3988683521747589e-01</leafValues></_>
        <_>
          <internalNodes>
            0 -1 61 -1 2147483647 -1 2147483647 -134219777 1476360191
            -134219777 360151039</internalNodes>
          <leafValues>
