solver_type L2R_LR
nr_class 4
label 0 3 2 1
nr_feature 950
bias -1
w
0.7340981456222585 0.7482747932246885 -0.3946435428692098 -0.3394186064287282 
-0.05456944319493862 -0.211845979745336 -0.1482332940107506 0.2633607859200739 
-0.093227832579009 -0.714887599841829 -0.07550122327159833 0.606867697899 
-0.2723227193179888 -0.2925548624744975 -0.0001969511457513441 0.229245370242892 
-0.5046423960367052 0.4286592773746073 0.3819134180790201 -0.1342504800961032 
0.1743777217388487 0.1397046174859144 -0.0515273544270068 -0.2112544170072768 
-0.2075544491980564 0.0188878564057406 0.07715167180986006 0.04322655807239536 
0.1784169173689657 -0.01930123804249809 -0.06071867078388326 -0.03220798162400994 
0.1614355934392843 0.07851981560419004 -0.02882776748785451 0.0348612183195873 
-0.2297777923317663 0.1018023824210295 0.1511619790020272 0.05476814179413979 
-0.1232244250073041 0.06447651104247761 0.1100494814448532 -0.1599026048353885 
0.1427857438831502 -0.2536444263016394 0.04675617039610225 0.2760456968971489 
0.5462238427694071 -0.2853622509213039 -0.1719454010535214 -0.1970574325025208 
0.118293259113741 -0.3632269358414852 -0.2127540808177502 0.439671002693159 
-0.3492530824152301 -0.0001990090079580179 0.4720517589859528 -0.1988883467567379 
0.2682763996271808 0.2422520652908802 -0.1277990102400416 -0.03581633478344171 
-0.2739312101002226 -0.1352615563002408 0.2603901542515038 -0.03111784655428747 
0.7337432086900402 -0.4430896054768447 -0.2083810813064851 0.1336657616780162 
-0.1241341048808973 -0.1085933471424237 -0.2153744973044198 -0.009847474609499699 
0.05902601491230749 -0.1332885116246143 -0.4595409652222439 0.207536494586032 
-0.861604278761775 0.7228916422048191 -0.3068689451487233 0.6432228878260068 
0.02824575192219136 -0.4816730748519996 0.08852870581379625 0.3494211837214135 
0.618044336283076 -0.1393963353367326 0.2194909827264281 -0.5156919592024309 
-0.3156683628255624 -0.2250259584034883 0.537817136544398 -0.2333746596434669 
-0.9832579462592776 0.3962595612384981 0.5986989440097527 -0.3705867272143075 
-0.6128262307556002 -0.1869419284064807 -0.02496014004733888 0.6012624350529818 
-0.1645640844113843 -0.1080286339271255 0.2146443054970065 0.2257252643842111 
0.1450358306791658 0.004181717562656357 0.240131345363918 -0.4596470747185306 
0.4181765397950444 -0.3588879900528064 -0.7424856424114229 0.4517698464308029 
-0.09860879628548348 -0.007974371119262774 -0.3940370404780709 0.3740002954034611 
-0.293057103421933 0.188404506075022 0.3058475895271428 -0.0311326539181844 
-0.07940441061741313 0.212447721812214 0.2169743310126034 -0.03039720353399035 
-0.06082359712790326 -0.02024801337578364 -0.1180367966007033 0.2847939053776414 
-0.1833198329776832 0.1141058380651917 0.1091094035311206 -0.007501370869371747 
-0.4774807741818645 -0.009396418157871702 0.1260233865438242 0.1495375568676824 
0.8535357663690338 0.5250519469528445 -1.07703390847683 -0.5793064514955979 
-0.7283760526123632 0.6635835325538246 0.3210231204739779 -0.1772134976625936 
-0.5674427337954128 0.4731848754438929 0.3601874645848436 -0.1650022571755252 
0.08147334716442636 0.4339700284319272 0.08267422903463467 -0.348694929189606 
0.08367531043960691 -0.3017246708151431 -0.02288294083131278 0.03189564187385149 
-0.04369618200382062 -0.4914923094180014 0.1178863842379835 0.5584571358670949 
-0.07985215851365852 -0.2483439516262788 -0.1219746625758764 0.09309539601055783 
-0.1435630019719963 0.3557995500351622 -0.07557412892748026 0.03037894153603336 
0.03434160852363081 0.1383183659063487 0.1388569237011635 -0.07241333976355127 
-0.1150746925405857 -0.2214710752405687 0.02771206750318991 0.1797647870471573 
-0.1963607749367953 0.02286135702352165 -0.179449559708032 0.1186956289301653 
0.2473143331599102 -0.1016968761348272 0.04620638250957752 -0.09010614354810882 
-0.008302329217903564 -0.2346861679723592 0.1265924163658726 0.1472314143624851 
-0.1457801477660512 0.07115856036490607 0.03604336329000948 -0.07368849268204658 
0.4514006051775356 -0.4747448438403937 -0.2131444689051254 0.08068285488149603 
0.1329650562201756 -0.3012088809552439 -0.1488258957678106 -0.03047844449895125 
0.3470580915744947 0.03824382943223693 -0.130477180921642 -0.02293569839209469 
-0.2780047759522136 -0.2283084591610396 0.1739905898807805 0.5905898294528493 
-0.2204152959130043 1.040738344137905 -0.631483204465304 -0.5230958121580993 
0.5053736287554491 -0.4911600657913491 -0.05618793496287668 0.06094692645497248 
0.5345903651259235 -0.5970524332274876 -0.02972082348175067 0.51465595427871 
-0.5217196337876543 -0.007073364911281344 -0.5576252698988253 0.4348160606102662 
0.4410535136297716 -0.1613443530512272 -0.3660728000511081 0.5034895575783773 
-0.9719963091731822 1.437763393919616 -0.2478333192809352 0.216283100023785 
0.2838214556023856 0.04974498959886321 0.1642704019871556 -0.223622632535778 
-0.04004222376010964 -0.5343724206019546 0.4139889982451545 0.1661694636677139 
0.1957157108889986 -0.656484850349125 0.4368713505649621 -0.09095304979037307 
0.08423845131956439 -0.214405188249453 0.1785331899817833 0.01076478600530206 
-0.3640636160035047 0.5681974183774897 -0.08521828921522218 0.2119352440834018 
0.12434888187592 0.0676408347675594 0.1619227065840318 0.049930914252165 
0.1251189141949356 -0.4898278422772572 0.2910844987131326 0.3165393404861356 
0.2969590907977955 0.2884169571498458 -0.3117302444336902 -0.02096341289295757 
0.04709822480989043 0.3041813895286071 -0.2285043144178427 -0.064461098916387 
-0.04518303447406294 -0.02135608619348997 0.077141039100736 0.1444051018367037 
-0.4356396383856473 -0.09079632387857785 -0.02842737319455901 0.1878641286081142 
0.4339032685442225 -0.1712948199430828 -0.1990741524762547 0.1363987254775441 
-0.05395192327874432 -0.08987100300870689 -0.1041850488004451 0.08017755218611229 
0.1684395928131042 0.004903350931381877 -0.03496863569942605 0.0726045354189962 
0.0842136452750262 0.4878758370306648 0.1885080233156352 -0.3665195906246711 
0.3508845289475966 -0.1212892808587689 -0.2974178970587398 0.07492308318571966 
-0.855215988861655 -0.1009878340124849 0.85389251862145 0.1634742033864544 
0.01388330921737462 0.3926366757971131 0.2629752597534349 -0.2199361096721658 
0.1125536275792281 0.2302598249219356 -0.05534364377278334 -0.1888928822512948 
-0.6294704656375609 -0.3490930962848102 0.7163605844656934 -0.1542937010930962 
0.3366912544593798 0.1371297594722434 -0.1997155067213479 0.01543928407239977 
-0.4140913425047271 0.2952454983126883 -0.09310331124170462 0.2769476819279523 
0.1163706773786108 0.3567577022072945 -0.1036117399226445 0.02540043519035417 
-0.09590198695822942 -0.03431147257035023 0.007308015680039732 -0.02612560437705462 
-0.2965873550292557 0.03355450819287554 0.1251102025133522 -0.183929222818357 
0.1611063629964232 -0.04966322422418881 0.09560554540926869 0.1376313746885104 
-0.002675282305340324 -0.03276788937607319 -0.2008792112463924 0.1341335918311621 
-0.03168073737837927 0.7104520157520157 -0.2562988537659941 -0.04414360809574268 
-0.2153480433402277 -0.2100207431342995 0.01143275729343915 0.3799310200506208 
0.6834779950383097 -0.1672513607265192 -0.1363387253935147 -0.2285717897539376 
-0.1670239610217706 -0.135369333797801 0.01953621751673081 0.3316965265372266 
-0.1159508789448366 0.3330133445589387 -0.5145737019057622 0.4375131489143738 
-0.5917779224709876 0.9758426061557958 -0.09807954070050101 -0.4117246722921251 
0.07750273694362773 -0.1737153294264935 -0.1253712067087707 0.08588861676792317 
-0.1533565667374153 -0.2185244687254867 -0.0113559029101219 0.3018476989124553 
0.1766453959628315 -0.03091442139256229 -0.4326888643734194 0.3563040103453832 
0.0383249214516188 0.08702496966262288 -0.6671675958842045 0.4695313073324994 
-1.319964281768964 1.691709909962008 -0.1762165394393156 0.2295484673974339 
0.05346707576404801 0.01679979879457674 0.05101416797025222 -0.09351643134527182 
-0.08833325618440667 -0.08737035555483863 0.1865365578183565 0.1663300675069447 
0.04166736783081655 -0.303638374635992 -0.02428546133403606 0.2219066409449479 
0.3429442513429957 -0.9245379972560143 0.6996276905730743 0.2683845452408242 
0.2188230666597845 0.1455166752198634 0.009189415530867478 0.1006001460801396 
-0.02981830095722857 -0.01381984895950633 0.1417427976310248 0.04732535678608363 
-0.2899891478957698 0.01086256853558485 0.04418812980297489 0.2270184124952336 
0.08173856832743336 0.0195770030920908 -0.2921791630952724 0.125737178566253 
0.3921146848110401 0.1314054593432827 -0.1888644492527367 -0.1785031251693173 
0.5412788636030562 -0.05560473784632056 -0.06754831327681546 -0.1300702521769485 
-0.2008453733388001 0.1677186392878842 -0.1426487762066037 0.04165265138054756 
0.7874380880668521 -0.005713696219853804 -0.3063836819454757 -0.1825306917155723 
0.00624161120884684 -0.01921929318550144 -0.1940608315411267 0.08844614757292976 
0.05751668454784966 -0.184144101804553 -0.1017192070083472 -0.02472342686295805 
-0.4709926600366892 0.3840737314344822 0.5397209182273647 -0.2749202679520519 
0.4013619903371882 -0.808496318589618 -0.009420125525914681 -0.1697997850457287 
-0.9637979764362098 0.1724206470880557 0.1944606993810154 0.5143262134358623 
-0.005784743553094126 0.3334754028186027 0.1369968640979131 -0.177541592862636 
-0.1294261974289543 -0.03280775081162426 -0.1891999143835553 0.2467099319618322 
0.3289352341745631 -0.0296037261322318 0.1607336924426656 -0.04062195664936338 
0.179121989833656 0.05643682822651725 -0.1577911135882998 0.1749819829581256 
-0.7331294739592918 0.337250795917096 0.1763338254027601 0.1782156613289405 
0.2564024629322439 -0.1075883691478514 0.3245828746600196 -0.1168356789406299 
-0.3804378014609189 -0.1903066102895175 0.001790079670277214 0.1296157569364055 
-0.1687371250320754 -0.1888235108258398 0.03448039186333787 0.01662313452397777 
0.2043775792856298 -0.1802207240838217 -0.05469319748057855 0.1827669163550809 
-0.06301687264943737 0.1092701927671864 0.04365952642812226 -0.008408782686965103 
0.1429251125043032 0.1127341900030142 -0.02802051096533423 0.01829214611362541 
-0.1634079675495246 -0.09873498224251498 -0.0634184603273002 0.1985490160570862 
0.1831737427975311 -0.356705094613757 0.002590256971093749 -0.1483813257375367 
0.1514078976990445 -0.1700814742950616 -0.07618800982516054 0.2037635790504582 
-0.5126761606628624 -0.006112027799802119 0.0103667457116769 0.1609507847136752 
-0.5279995763692725 1.03767006784488 -0.103846357013592 -0.4375058166247748 
0.4784053063935231 -0.04520918162639864 -0.4888923971327606 -0.00977985561903242 
0.2274173830022044 -0.1258054989611841 -0.2276302200425341 0.152521324807552 
0.336540430604877 -0.0684473793179006 -0.6501152768239441 0.4066127467648711 
0.1279900072317217 -0.04912908142825506 -0.5110697583816183 0.6757946596488426 
-1.167987217753274 1.901702272750897 -0.2426134433768583 0.05319389449558087 
0.1969704503880301 0.1284086068444727 0.2451448196623968 -0.30181379015656 
-0.06930305608550295 -0.4395166198278261 0.1773838913007558 -0.04610859273908593 
-0.04423349550560709 -0.4607155746004126 0.3168624166506173 0.2472824463577856 
0.3507489028564432 -0.432176325869845 0.009289199222648915 0.1901284588490517 
0.2130926536771034 0.4045229893811821 -0.08029028303633295 0.01893043558995901 
-0.0985446452410355 0.2324187420582534 -0.0104852224425415 0.02766948586323158 
-0.1358488955754154 -0.1293957044692062 -0.07394196938501292 0.3066996689582562 
0.3900650534552375 0.1606719526847206 -0.1057343680378645 -0.2209974436200819 
0.1087564507289617 -0.263902596549516 -0.04073074503729526 -0.237324389531148 
0.1566989388020478 0.04513032347921023 -0.0601594344097162 -0.03664498069608363 
-0.4971837544558785 -0.1630351201604081 0.0778006025148768 0.2611740648535092 
0.6416752801296196 -0.2127095201335307 -0.1298594233681683 -0.03438417989864033 
-0.2534601520724715 -0.2459849177970034 -0.02100269456050947 0.2432503696386246 
0.1822552892590233 0.1038711964411893 -0.1145992249224042 0.05337505078772108 
-0.7247928801417027 0.6014803158581479 0.1076395711303261 0.3602625028035698 
0.1396892054527537 -0.2495759913629325 -0.1030490261929067 -0.1247308999760105 
-0.7183848088338781 -0.1681910315431019 0.3038281225201582 0.349375259672292 
0.6878134901903085 0.588703267791689 -0.2526168565113787 -0.382964664010244 
-0.3392383264976501 -0.1728146304380019 0.04527346607415497 0.2909294435864801 
-0.7400447142408625 -0.4085308101355608 0.5258839152792348 0.3110700241754493 
0.1677284223049106 -0.2205679400101659 -0.09841195906654644 0.3311487857845296 
-0.4695426336394558 0.4550190222129376 0.05330821993489683 0.109522951212403 
0.3277728770053875 0.252388112916019 0.232420862337253 -0.4102100152323067 
0.05409461736187713 0.06498488778245876 0.04336201536647553 0.01064406615900924 
0.297329239301338 -0.1012614690590032 -0.2020410879259203 0.059016535855955 
0.1502108242703271 -0.5575913729012698 -0.104184274404689 0.08203309481444886 
0.07164775135357526 -0.2557939493018097 0.006950031509201142 -0.04587321578449952 
-0.1223216714079618 0.2185221816463616 0.2313805841790104 -0.2141095064359548 
-0.1239408188712646 -0.1437995593564954 0.1901189757623912 -0.2666541718217538 
0.7181227931531881 -0.4953480167210293 0.003986048370508692 -0.3428199382088493 
0.2134806559670011 -0.2755411860979836 -0.1445336680018692 0.03564651618408705 
-0.3371890677437902 -0.2828386274461447 0.1696088256270711 0.4461794666276682 
-0.3207019121910055 0.5576885831104275 0.1537951855892356 -0.2681718134882575 
0.358109835759483 -0.4385152879541374 0.03646312250726901 0.1482111983787848 
0.08184439485753156 -0.2031925116202579 -0.02729566326671048 0.3252620866996154 
-0.002227628537558871 -0.1352211086782005 -0.3410545829658795 0.4784715557533333 
0.09318736524326784 -0.07496075826871978 -0.2511751510702369 0.3825918931770307 
-1.040334437205693 1.192472820511896 -0.035107713350104 0.2573506297567077 
-0.0157959646418332 0.1702640746907156 0.4688230608563397 -0.1119732336271494 
0.3306513383415221 -0.4592785379261244 0.3135353863921837 -0.5287272590795196 
-0.7889073942401479 -0.1128905421241082 0.5524414813359693 0.05214719003170937 
-0.9327233260048599 0.1780373561985787 0.09529497810642854 0.2044205470664718 
-0.1645689082333369 0.2316238356009697 -0.1632095915208724 0.1223970041708409 
-0.2999873893741883 0.3427654157562532 0.1820569250839442 -0.01186240320820776 
0.1167607618691092 -0.103974442605131 0.0243746701395057 0.09637022648716766 
0.6545763781288936 -0.4443540942087252 -0.2118207311886875 -0.2095970158269155 
0.2420920256326743 -0.4158908518301581 -0.001105422384690742 -0.1900504505147319 
0.4455895622302614 0.1263950055564454 -0.1640708873171225 -0.2176012202552048 
-0.4802462031875371 0.1729569228283825 0.09740681327391022 0.1454566598974904 
0.7470456566202233 -0.2889207515613854 0.1065151001913908 -0.002396232597134793 
-0.5883648620409411 -0.1155238315046929 0.05802366078928387 0.3546492345609458 
-0.5015157775955776 -0.2320637101152545 -0.01809186690511689 0.2733976155242075 
0.5405672677396711 0.388482040241473 -0.8655650694518939 -0.1513049081232359 
-0.538303927858886 0.1673980618208606 0.01422647172471861 0.2909995103858639 
-1.260345909995128 0.1810545097441823 0.3247284928243545 0.3984908832571168 
0.3541477676221413 -0.03932764848259206 -0.2099448295926391 0.09565152535602041 
0.5275939597871774 -0.3160509044971783 -0.03827348883874788 -0.01398059097823139 
-0.4440544029142779 0.1888478254065666 -0.04659027661904135 0.3463106519915957 
-0.3891157713156787 0.1379336177563065 -0.1306797726001663 0.06973832312520835 
0.2749614351165158 0.3325832992490192 -0.1007869601686317 -0.3526907535663373 
0.2286459901628179 -0.1152325433840063 -0.1397072266013638 0.4420291525728732 
0.002403286119890572 -0.1111161695991958 0.2158036168652854 -0.1771531761187901 
-0.1517276081065468 0.09397795530863874 -0.158489207102001 -0.1627486090428525 
0.06359562845113913 -0.1255220547064296 -0.1951633354451131 0.276605379514191 
0.152034965990084 0.02888237086279291 0.009192012183639424 -0.2274317877967868 
-0.4732529602605105 -0.05102388331890002 -0.1258777389366891 0.5766071386287112 
-0.1993419595001121 0.02339745009849896 -0.004211169813700445 -0.1005973964432362 
0.7044880368414813 -0.2052145418592755 -0.2487647576387321 -0.1789477493057285 
0.3377344548108097 -0.1893887354894722 -0.2287913372306868 -0.08889479555423326 
0.08897339338863999 0.3228222133075861 -0.2753318961014014 -0.1422523809585055 
-0.09978990210978964 0.2723626809074897 -0.03668607332552271 0.4032032127262444 
0.635729176510643 0.09046533459226322 0.09517560339014 -0.786770356845661 
0.7018658066448253 0.2662544362606913 -0.3209255892829524 0.09373791081346595 
-0.06971480904377692 0.04416964978699768 -0.2280071451040268 -0.01327095179086379 
-0.0797512462829605 0.05288482831690908 -0.1640069173178276 -0.1773385778354532 
-0.6532669014319971 0.1878798685360576 0.1757363649951057 0.4431324744464964 
0.01355376335444168 -0.04267500880905411 0.4417564097140819 -0.04954247327780597 
0.2736009007494448 -0.004472756830455601 -0.2540265462975482 0.1006206791553231 
0.1138334234240508 0.006759705878666256 0.003404799673425195 0.04928173338176539 
0.3713828596710255 0.4737765588375241 -0.4954492549849826 -0.5132175978340855 
-0.4453837930416808 0.8017246844279532 -0.2343013461543527 0.5739552640458803 
0.05722555101741097 -0.1378984396058314 0.4021195003274376 -0.2190044532208441 
0.05315018014393232 0.2142677995952463 0.1246374127377598 -0.3473747438088374 
-0.4064268334880309 0.0570286853211719 -0.2331331132042891 0.50570982674457 
0.1950707497509455 0.2479589617781563 -0.192731907292537 -0.2463137315335685 
-0.7674495811386313 0.7191179058999868 0.3316015263842326 -0.396021400726756 
-0.5130067362124678 -0.05988852518524162 0.5783853820375416 -0.3256380743537038 
0.7218556372375359 -0.2655712126707375 -0.3921702891948181 0.2347751662848458 
0.1819347772454209 0.07610928322409502 -0.123358681361415 -0.05947268039169521 
0.522434775314353 0.05501160034566063 -0.4220550086080723 -0.1028856026486109 
0.2902367522157258 0.01217134513674848 -0.5588480070743418 0.2778423360257228 
0.09192260825027936 0.5155948539930824 0.001544114715604424 -1.1419117370718 
-0.3552416210854094 0.8278815870513505 0.2006238115948552 -0.3269384958556726 
0.4500795481719951 0.08665254021969318 0.2794982446408346 -0.03513249467460711 
-0.3571515641971667 -0.05502049780472158 0.1223161519713232 0.08039480085448672 
-0.5189859577049738 0.2811739658172491 0.1067098159338277 0.2646875549880438 
-0.2345654636157256 0.06757266840163757 -0.004668968088431247 -0.08772580754608932 
0.1390519932985817 0.2715402012910979 -0.1773771787544983 -0.0744781181242252 
0.04478615451689914 -0.1275833239235096 -0.09321641166020082 0.3765057501496693 
-0.02201618208160629 -0.1525191577375173 -0.05225914112725378 0.1969869530746712 
0.1008069285503008 0.1253926438206103 0.1810879813494931 -0.2560024177661265 
-0.1746120411345095 -0.1208019285491048 -0.07269653766891743 0.2814285962672615 
0.04527670861719667 0.01269990869499332 0.1680521496377429 -0.09482596729162873 
-0.8532279686817378 1.056582516178423 -0.2896053009099721 0.261890616508769 
0.8453916716288974 0.3253622590882098 -0.3646560772883136 0.002002342915739582 
0.05224552986374227 0.06202542933313408 0.06719105824227217 -0.2036215921706023 
0.1927945720402233 -0.241671969678714 0.05688212601249008 0.06476038785690552 
-0.02659051705744023 -0.5435047055020761 0.4047807738448212 0.02579283467022694 
-1.123758812238998 0.8937096770985509 0.4816579136332521 -0.4346005699037783 
0.772090778255901 -0.47308009439299 -0.2339599925792628 0.3630638777638308 
-0.1661593304530029 0.7656116437775723 0.02587913582533274 -0.369290470705246 
0.5781921304454658 -0.3254938102199515 -0.1014930568306445 0.4589358206094902 
-0.5030159267251225 0.7253992310783512 -0.2320928009796924 -0.1572535217415499 
-1.114251136893482 0.2535413728633218 0.6512827246313833 0.1428202857821692 
-0.0259011072952338 -0.3758346806325267 0.3046869006491852 0.04778952004794214 
0.3422323879145689 0.005028689267117477 -0.1868269242428796 -0.1542381841581657 
0.2424278034501697 0.1046389611220697 -0.3805280384714769 -0.05199775311548727 
1.218396759741242 0.9271825315377284 -1.171656767684324 -0.3919272785453062 
-0.5190295354226125 0.3120911957763126 -0.01698380547896007 0.6651656066958276 
0.566795284104162 -0.2378937330670803 0.1138235640052863 0.06603156513430655 
0.07764349654639954 -0.3265446623929314 -0.05868400066955584 -0.07486828946005682 
-0.04058817015140703 0.07292592569656405 -0.01678639174737011 0.03066030067118116 
-0.1811929188762256 0.09127068318801934 0.01400893708366784 -0.1335202105355516 
-0.2762230745336982 0.7951502728520451 -0.1315230470524906 -0.1475418356705148 
0.2669236623533471 -0.2561392737408056 -0.05209542158392297 0.1737427231537491 
-0.3536634753768539 0.3919502023563567 -0.352685239297678 -0.05977878541216748 
0.2676002414917615 -0.09092085810897885 -0.3673760981020792 0.1882758134671396 
0.6399460875705916 0.239585712766734 -0.6567755352345261 0.03423870105373253 
-0.06876256879012362 -0.3086079324624686 0.6248606591534654 -0.1122127646711418 
0.7906634664012598 0.2020899308188228 -0.6142066868914932 -0.2771836488984555 
0.4125449333856512 0.00494692582233347 -0.4382185675350018 -0.02916014066133133 
0.6787996966139671 0.438195056095962 -0.1307372372111236 -0.4298335532396304 
-0.141146068113107 -0.1130488970075587 0.04379871675388993 0.2152401249324648 
-0.5790138681835916 -0.5558393930008065 0.9467824017165696 -0.2100499940373412 
-0.07613821947321274 0.02571176385012162 0.01477022303997751 -0.07799742655294892 
0.07844508220379347 0.2007608552384688 -0.01271402560900868 -0.375425096044498 
-0.04008341117265128 1.200660090182836 -0.6734288518320141 0.08335099580147583 
0.1107887773408833 0.1664857785113207 -0.2867320111718651 0.3219904212533817 
0.03642976293581393 0.0583410959706057 0.0113885336034905 0.1130619633203886 
-0.03808545473339493 0.03604022435281975 0.2535076049724005 -0.1015832485348296 
-0.002252901146300768 -0.3007775326294833 0.211772235680251 -0.02108527323512809 
-0.5701866529769036 1.377146185625439 -0.6230756598213588 -0.2270983003777325 
0.7002905384495577 0.4184499291713498 -0.9885883335284432 0.2077143016117817 
0.2418950588137537 -0.272978414540726 0.6431879463013884 -0.01899919659697494 
-0.3060181949662039 -0.03785850213345307 0.1454242224210559 0.5324943493459369 
0.298709198512443 0.1357107910654208 -0.3343690572472661 0.2717574118436022 
-1.08650729619212 0.4957983161011432 0.8876352430501154 -0.5182181735189073 
0.812802046468217 0.2243763405344331 -1.416641900463586 0.7249196121593562 
-0.4499116339984571 -0.3379641595960357 1.009688979567817 -0.08808032793034401 
0.2474659664644635 -0.5083885971632833 -0.1842703865708392 0.2555609033983338 
0.4998505482487902 0.1537383391017737 -0.07744786548822247 -0.009519748614182337 
-1.039026003175877 0.7560460183153397 -0.02400652234906488 0.295264036544077 
-0.1495736020597159 -0.1215938645619495 -0.490698321968645 0.6262311675056373 
0.1247759591428716 -0.306236914138065 0.4359484496976805 -0.1273462504667645 
0.2688812922352963 -0.1910056885725994 -0.1339364459699311 -0.04034960017757019 
0.6838946470860916 -0.1919893620142022 -0.09465222326690476 -0.3765255104023603 
-0.4308898848365597 0.5194913306637158 -0.3651760751720118 0.6731560710177242 
0.2602891198492708 -0.4410191327156314 -0.02458919689009628 0.3047754805633323 
0.1354719370314014 0.02089574622721463 -0.1760871972288903 0.03562683138882909 
-0.1364766863279357 -0.01208331599406177 0.03173240100472861 -0.01222475307977688 
-0.2882088661928973 0.0578131928384417 -0.05551355024241841 -0.1685294350287539 
-0.6019546823806632 0.0512148161794021 0.6754029680857209 -0.07106514475392481 
0.1449301972661201 -0.4053778394628802 0.2409589125223194 -0.006564024509115174 
-0.5095795835991375 -0.1522643578305208 0.85737605942843 -0.4031415804353508 
0.2866094082739625 -0.2096503127034083 0.01918884732186678 -0.07999675137046461 
0.8081411348977786 -0.1759059515930561 0.04725535445230239 -0.4357993927688733 
0.2344003667540192 0.478879239738469 0.5415686344976319 -0.8623826208909851 
0.4515364000735188 -0.9894426521848975 0.2981755348317383 -0.2261409239566056 
0.4816721364713734 0.7322959446999516 -1.194032991098443 0.6798697274666594 
0.4408889556985976 0.01676582147531429 0.09258136650675221 -0.3106650819866233 
-0.04362300464431026 -0.09419970536887275 0.2567452413586209 -0.006633306612865415 
-0.447401511203151 -0.4606122844473425 0.5577333496784544 -0.04379391741226161 
-0.2740185094540608 -0.03562065863285823 0.219026987908708 -0.007483851370264171 
0.2164907681047928 0.3361439201912179 -0.3479272244934057 -0.245542287661176 
0.1150837466720177 0.5010294120494013 -0.4419749591067708 0.1116543865037709 
-0.1196048243426939 0.1946797560904154 -0.1670600998729212 0.2497552018743648 
0.1337316579526082 0.09026282198105441 -0.05344813810722946 0.2280509369965738 
0.006081284362727084 0.2205661623001009 0.07792632981474164 -0.1321438891195783 
-0.21925528945095 -0.2362603470409637 0.09716736589531252 0.2548343413068082 
-0.4034685520401872 0.9516026298348637 -0.2837106433679265 -0.3079651663680167 
0.7890415354570214 -0.06493899045882635 -0.4783781569591207 0.06498962405588712 
0.1846744020838718 0.1205507065943729 0.1958648756749848 0.1088681011097856 
-0.4849115006842439 -0.05182261073447467 0.1256271558967823 0.4457138039749021 
-0.3686883745045161 0.3121061722593759 -0.03358624818315751 0.3163981014953058 
-1.197583650045383 0.7351927564551731 0.5892506496448466 -0.1158869603598862 
1.114498431021679 -0.468117036108433 -0.9396813043604018 0.6934431576825031 
-0.2916074225527103 0.06523082056818445 0.4162456450191301 -0.1091943156823715 
-0.2718564477689486 -0.6033572026286353 0.1233807320637895 -0.04537727286715874 
-0.2778106910875331 0.2222726527040291 0.4250450929006544 -0.5376028645749048 
-0.7943374967922885 0.3936222708248497 0.05762558956344967 0.4697225187597713 
-0.1050176747869688 -0.6301230804218156 -0.1328890848657585 0.64606140936344 
0.2472114136167129 -0.202043809668873 -0.109823261851813 0.1439957397552227 
0.1480818668208287 -0.3703970174798611 -0.04111973509174564 -0.04916073810467649 
0.8081078751477567 0.5463391342856843 -0.6454735899715154 -0.2475824442168471 
-0.64652728424404 0.8610031323506083 -0.217816030242855 0.3675399678145219 
0.2760535199506841 -0.4142285129306169 0.1164491534691058 0.2302059261004673 
-0.121640314611536 -0.703197902294001 0.0704268397233509 0.2058781708131356 
-0.0019043599635212 -0.1226826033774459 -0.09261136632600636 0.1710705011392926 
0.1083765604020927 0.04516423895639932 0.1543718052291359 -0.2010013484607863 
-0.6646926999757449 0.761398385981765 0.1203959784288044 -0.2132222350948707 
0.05494410009364355 -0.1079308980229604 0.173369747898575 -0.06283977727013111 
-0.2963970913019863 0.166142360222623 -0.0022334069313808 0.01707484059549899 
0.6074055722255599 -0.1554036952904866 -0.204615406446192 -0.04396284841764866 
0.8166809552039682 0.006202669353471267 -0.3188305148794888 -0.1913462504515753 
-0.5152213100008523 -0.1627912405403522 1.359122190231969 -0.7428905672294774 
1.020570644226723 -0.2869724568969834 -0.5616822750480491 -0.06500653649157741 
0.2742139162042352 0.186020319509518 -0.44213633451062 0.2652830202161894 
0.309070704354086 0.05180657869232584 -0.08408270529149695 -0.2371470380184936 
-0.447869106292372 -0.1187690827158149 0.2828375318141705 -0.05957248370206661 
0.1647602298653751 -0.06982640072020836 0.09266469989469088 -0.08533187360567969 
0.2379751347475433 -0.3112751437723863 0.05228253606675567 0.04704832211810895 
0.1807396929144559 0.2533309847818576 -0.1593027163997296 -0.01149611222274326 
0.07071682746997154 0.06498768902949922 -0.1010337204757609 0.2364118967040253 
0.1139133667072303 -0.07887928722393764 0.1055084716962628 -0.1397959178397533 
-0.09830689570613575 0.007367152496175873 -0.003960821920360263 0.01634472291992792 
0.1872511524821438 0.1016378015099382 -0.1607036403404202 -0.1196916757138643 
0.2976089787296259 -0.09328819964817485 -0.2219396424246655 -0.04882700461132072 
-0.3144829072701612 0.4065258685579251 0.001623221692277868 -0.06611809966456607 
0.5108701855970531 0.1259346147614515 0.091213512729069 -0.2182921629652768 
0.02403812713718156 0.2374993667763084 -0.1576064366729241 -0.006679366511690142 
0.2650994193814595 -0.2046350449184257 -0.1930667105649745 0.08264460890153985 
0.04149361365758588 -0.3927256231610948 0.1802462011275804 0.008478108098691907 
-0.6998131275823051 1.008345407390132 0.06493142507232777 -0.191005554029591 
0.1814640905693312 0.06889996822987199 -0.1029587622915681 0.1809507983227079 
0.0993760924778314 0.3616768505739251 -0.132901740130495 -0.3034000788839596 
0.2095761492435646 -0.06998084419040189 -0.01302895018361519 0.003386727795465736 
0.3703857097270687 0.2938817592666068 -0.07595976879193901 -0.4021236639171635 
-0.9321502229157074 0.7415826151286213 -0.1469243128351626 0.3109135217977849 
-0.1299214403608532 -0.08609776890242272 0.1680363508293222 0.01807310256905287 
0.4424064943966365 -0.05002256813133996 -0.06767519740436675 -0.2195217834106156 
0.130006108905514 -0.2118751857331359 0.0758917124138298 0.04582898089963031 
0.801115314260457 0.5647585686996059 -0.2276770652886745 -0.4455641458380453 
0.0923853222974427 0.5718992496912595 -0.2836471630164417 0.2037569877735647 
0.004994696911760095 -0.2657777770049286 0.2499366479525008 -0.1610511063968781 
-0.3176086470919092 -0.4153335485755955 0.2341073748340033 0.03320128938252893 
0.1064817019805157 -0.008345956280925394 -0.07715231313735973 -0.1187154032335253 
0.3694993858722987 0.1156347258882909 -0.08245195310660013 -0.306821641076164 
-0.4944540976516756 0.4777187915432545 0.02155572339526059 0.1872838880632152 
-0.5246232594553129 -0.1508267914509208 0.1727135270057575 0.2265733693807503 
0.3984620461645267 -0.0003635559402661442 -0.195784522367937 0.06972549399308074 
0.1749376662536585 -0.1707651906724477 -0.0247091207788476 0.04947192357923983 
0.007160984888760314 -0.4346157644308194 -0.1235871677643056 0.3001256842094957 
0.06974324545571348 0.1196172979284706 -0.06718128495405438 0.0443888329542966 
0.1658257891077809 0.1502219640074205 0.3891266397344004 -0.4256456113842191 
-0.168158942362063 -0.004446187850487006 -0.06746156314023473 -0.04715005856028306 
-0.190817945552045 -0.3345054434294509 0.2600586484674757 0.2068493823284514 
-0.01987398045094547 -0.3114549940177112 0.07461448932172113 -0.0006682097232140237 
-0.1406633796565575 0.07823913718614808 -0.1048637482836647 0.1161032385184544 
0.7394704349676838 -0.2135860984542868 -0.2346717608852008 -0.1029279870197719 
-0.004697353274733057 0.3552030263821651 -0.3813308345528144 -0.02532052363778909 
-0.3459827981253543 -0.6630514297241732 0.02584276194671868 1.074415460830862 
-0.3504529130681716 -0.1463443619207287 0.1832236267760474 -0.05252778202707722 
0.006428544998770477 -0.1964142501200587 0.1565419870784304 -0.1462406617227962 
0.1032025074204976 -0.2448025578700792 -0.3637193550549367 0.1946599105808688 
0.1401496281886892 0.01623795375790504 -0.4997950392166932 -0.1057300028120375 
-0.4761448430328771 0.04312678329913976 -0.03348321991499489 0.9089731422617658 
0.1369446848097997 -0.284040314910135 -0.1152244876945385 -0.1146309088518716 
-0.08271877949224797 0.1190042677820026 -0.03769060196950087 0.1215858080761122 
0.3662589351481522 0.2603262652108155 -0.03219744099232004 -0.38558934063475 
0.2337069533562335 0.2840147970789648 0.01926564619634798 -0.5221254780991457 
-0.6105160188696069 -0.1087278678985741 0.4601999181881186 0.4098685336819515 
0.384315699706848 -0.2828418470243142 -0.01840947305470383 -0.6131777290424028 
0.6369906418119952 -0.07917737925996579 -0.08093473563467937 -0.03786512911134102 
-0.1757751201403065 -0.4097305074195233 -0.04156742963573565 -0.01578656595994579 
0.4493662956730301 0.08087421729080761 -0.1565544080283294 -0.06666569007590682 
-1.010825596949414 1.042962140448054 0.1022469544229847 0.2624438685946114 
-0.3012162615309715 0.2135717584808539 -0.04019065911557507 -0.07895712211341442 
0.756111816561297 -0.2387583269244369 -0.2916960404110475 0.1726667773304127 
-0.04563450810656146 0.2732336363391821 -0.1053725984979913 -0.4054235909416121 
0.6219536135702737 1.156865413841479 -1.227191504062865 -0.8574549137146802 
-0.2916907676330488 0.7127590384013185 0.4858085716705471 -0.1150750763198904 
0.4907540619497474 -0.1513073553811863 0.5201708561083681 -0.4074021415838437 
-0.2233367641830467 0.2050591423668404 -0.0383645438884913 0.1203595449665447 
-0.363790107563194 0.7070028301428146 -0.2060953140014093 0.2192615234820048 
-0.3144460152433155 0.481960065964211 -0.05667683594783128 0.1787544224114296 
0.1799122430267465 0.6334595720091246 -0.08682234945018566 -0.6434461145681538 
-0.1539697676356168 -0.1717779646898179 0.1044055960340379 -0.1392336925073561 
0.1183024666606192 -0.1548348663823 -0.06836253050548324 0.1182018512114134 
0.03398314720349281 0.06102262807019226 -0.2343324348323078 -0.1275624807685342 
0.5254183253075467 0.2919045583347731 -0.5918713855428206 -0.1696128038723873 
-0.3813132998771921 -1.08173707982875 0.5385518255147463 0.2085723556382557 
0.3234519475202259 1.042936593559305 -1.022990174879349 -0.9861360671481908 
-0.2129745340599843 1.054534673373154 -0.113720075591603 -0.2258755874721555 
0.3321013962891141 -0.05666708962890565 -0.1563047924858604 0.2832277468455563 
-0.07554126904682321 -0.232830276810754 0.02342594567645417 0.4785146067099303 
-0.4261121053388335 -0.5074694753993935 0.4324821434611839 0.4280379043925924 
-0.3588504989074328 -0.1935294496715524 -0.01916436822438517 0.1693652850075777 
0.4238578007327909 0.3586810520218378 -0.1954119261425022 -0.8308936229723864 
0.05910247019980503 -0.08910295563558154 -0.1747721313651784 0.5075742559085792 
0.1504275128522014 -0.260834824575241 -0.03705925881435372 0.01603155806324365 
-0.2115493891267847 -0.16360188007931 -0.07461482309068344 0.3690884497761817 
-0.2996386320366583 0.08402194551998528 -0.01863925695637205 0.2422574457581234 
-0.06931923975970254 -0.1054705501083463 0.1758853993134537 0.2521411970048301 
-0.6028151198306834 0.7649231355188756 0.04073645204154283 0.1016460919337305 
1.246667191934842 -0.1235905328481108 -0.7724236142123306 0.04789504730843062 
-0.6053744048186328 -0.3326305555072278 0.6850498729140284 -0.0676126239732221 
-0.3083158844388646 -0.2661035221830875 0.2045009976837146 0.01685134661603637 
0.4255086890355478 -0.5664125795081676 0.539388456937005 -0.362182871367253 
-1.368303237643785 0.900875445618663 0.6349304941935437 -0.1582406449209966 
1.49211667509694 -0.04903409551674757 -0.2615736286190502 -0.3852329921394884 
-0.1571072008286088 0.03905554272233278 0.6916393694747016 -0.4421466155037638 
0.02786483982193445 -0.6986675366603319 0.4939925210094407 -0.3704204933110591 
-0.1997558332929129 0.1336780586277201 -0.01230254532829939 -0.2506030864873463 
-0.7424681282645581 0.3557319430130765 -0.227105889527168 0.7474654635368614 
0.318129712970277 -0.4600462064279957 -0.1666038529227507 0.413501286004224 
0.4538130507262771 -0.223518977156834 -0.1034181376235268 -0.1498380629437184 
0.3715879748180302 0.1014010023779545 -0.1239545573288422 -0.4202205632910904 
1.142808364780302 0.6137450906834008 -0.6333272532655734 -0.7942669149359597 
-0.1519615050783296 0.3933000407965627 -0.06829524177636215 0.6562212807944153 
0.1006896450093348 -0.5099706710688858 -0.03638402448697294 0.199437582978483 
0.03203828179437256 -0.4511406966654791 0.002958350973294177 0.06139723965286398 
-0.3221539375950517 -0.1557168645400243 0.1745691121921176 -0.04113744970293855 
0.0002633439714763678 -0.1420719641688604 0.233330720545682 -0.2645676278465889 
-0.7556009787145016 0.6644921642716211 0.2019276997244328 -0.2649028416652057 
0.468222494481139 -0.2043132007165315 -0.1630728282986854 -0.03301473142308367 
-0.7162121250854406 -0.3243283917632013 0.4548805276457207 -0.05693151388698397 
0.5808148313960121 -0.2876804882469339 -0.1043598421598121 -0.1885782144529646 
0.7642878467256629 -0.2337866608319283 -0.1432786700978879 -0.3685082651833214 
-0.1771909288166724 -0.2170664840677766 0.3989846945803577 0.2912678758328134 
0.2564656145358009 -0.3159262115657234 -0.126044807397056 -0.5692297758467472 
1.010983271855448 0.7436313203247557 -0.4403819491832117 -0.6761462175917858 
0.697165136369514 0.2746415095916034 -0.1390285275744073 -0.208471501159743 
-0.1387753108527408 -0.1064304840066082 -0.3624483136093783 0.6510194052914785 
-0.5806562688567469 -0.3968042378133918 0.7373666694938266 0.3742985592735941 
-0.08656698402570008 -0.09796960176405606 -0.2137623499890428 0.2090017049020219 
0.3536973153808085 0.3025677035868287 0.1749820618577198 -1.054047271169781 
-0.159080892377866 0.5166080543777412 -0.2095375164967453 0.09417254806497805 
0.2889378302721586 -0.007464846980133649 0.001452904910545146 -0.006106727618180374 
0.1315782028773266 -0.3648147845229869 -0.08097773597524754 0.09323782841996864 
-0.1535871043981257 0.04981351869387229 0.0847789057570258 0.2433014397022173 
-0.07384958378710817 -0.03571796521027587 0.01096272807205972 0.317629107974722 
-0.3454636853232795 0.8121178281499994 -0.4053980463401452 0.2578515533200864 
0.7833011849890646 -0.361864419570001 0.04127458781914308 -0.3522761695009751 
-0.2109927165135595 -0.7665625756170197 0.8231116115943011 0.3934820911735497 
-0.08167565178360689 0.09697878025439576 0.1403767564117755 -0.08261265492904053 
0.07753971696853983 0.2391404090956183 0.25197563102416 -0.5647764073287201 
-0.7256254303198779 0.4452991540822183 0.7920498783026794 -0.1896595529977125 
0.4847624143585479 -0.4156474443150327 0.1773765889903164 -0.6798646806202225 
-0.3316428898897509 -0.9531510343895864 1.096446972278834 0.1115534151366106 
0.4288109883267689 -0.6242124699264711 -0.06290370283444149 -0.3604429792425776 
0.514261908348209 -0.3417100307520402 -0.227656807943861 0.02788159970770197 
-0.3790366568054812 0.7463675677722823 -0.4216671692053586 0.5429782838219681 
0.2970845548862616 -0.02816355596735565 0.005159378083569859 -0.1038882512605393 
-0.01330778739630833 -0.970464401879529 0.6745854472705756 -0.03006198220511809 
-0.08755612542663577 -0.02923402242956446 -0.0771831992493484 -0.2075201361304637 
0.4447129024805203 0.1895179995834948 -0.01136925058265782 -0.5754491873624368 
-0.8557482493476869 1.025089544946344 -0.6834858420254917 0.8246584629943577 
0.511612644219806 -0.2076274350800726 0.2079318040465851 -0.1887666982719025 
0.3051018701087163 -0.3568005586794698 0.0687994907302258 -0.1236382742878928 
0.3828086428748302 -0.4279946889575411 0.2842479993547615 -0.1054748985252571 
0.01473357263353567 0.05232420350532865 0.1870066329456213 -0.4992584832799369 
-1.053832714300012 0.5768859751705274 0.2034121871606424 0.01444577663066432 
0.1613283256304284 -0.0419764020326907 0.03347469542809638 -0.1812905075194873 
-0.5058160061915812 -0.1056902191440282 0.4984932170909967 -0.2340478422145423 
0.35862433940222 -0.03853560083468938 -0.119948515194237 -0.08285416284769652 
0.9443557893478081 -0.03084796836658097 -0.1689279479061647 -0.50010242355097 
0.7264892404911862 -0.1860731804628037 -0.03359602540006439 0.1195083787020287 
0.0897948116651603 -0.6590303859079684 -0.3906490536738932 0.02462908197080007 
0.2900562256492017 0.5053608795778557 0.5353442680587995 -1.006493701136065 
0.7949123060091247 0.3135653697151994 -0.3260615452940308 -0.3357448583525507 
0.08268310124421757 -0.3874989079182634 -0.2002677797609362 0.3992169846159543 
-0.595639641827471 -0.2612899315809054 0.6087725174228226 0.4384004626160433 
-0.1883868857452748 -0.3680551603909907 -0.07021355781948418 0.316918011187884 
0.3232329221963042 0.1528569313831482 0.0064878305408322 -0.400436082505084 
-0.140217878541454 0.6853645354116072 -0.4575007333684077 0.1372958091477152 
0.270825937690351 -0.0275178040439101 -0.2530107876125183 0.2128846161150187 
-0.04715130557750863 -0.1445093568916459 -0.1356737286809459 0.414289872376598 
-0.4924846840644691 0.2439307108666624 0.1812467533154534 0.2100656666590169 
-0.0924035545612816 0.1025118419017377 0.05957820629636221 0.06038907942762203 
-0.3717843732769621 1.064242302562322 -0.3672081396692871 -0.3106645738332342 
1.111174300163007 0.07354875332283869 -0.6524929708956766 0.004658021861511158 
-0.8433223545812243 -0.0868684709658577 0.7607251048943779 0.3214336493190828 
0.002183973241944328 -0.4209401943624478 0.2336007304585199 0.203907769364966 
0.316855676481294 -0.3150076134355335 0.5182289601762748 -0.5464763002877489 
-1.088466080146256 0.5049417148160051 0.6127275825498542 -0.06823265832127264 
1.298962493033349 0.1077346040239892 -0.6411457160664695 -0.2782813675254699 
-0.5136868800752479 -0.6472787530473179 1.154729387675782 -0.0393030135261538 
0.03882694658661567 -0.3774674424001254 0.2630573773163532 -0.5239721570263035 
-0.04442231617873719 -0.3608677076879054 0.6049479160054139 -0.202872411764557 
-0.4554452404574271 0.2233226109713199 -0.3793643313891593 0.5000052234073 
0.5255399562329374 -0.162584312815064 -0.4754293173028407 0.2612543296271434 
0.368335454938485 -0.637182316142727 0.1179037008037095 0.0658773499613447 
0.1076067648979613 -0.257090393467143 0.01282121095334043 -0.4594676766253348 
0.6289464300544111 -0.2062164164029358 0.07842304763923666 -0.7768999297744876 
-0.3413032046280513 0.697455980162788 -0.3435926881620517 0.5397751903064688 
-0.1313937705836822 -0.02420044808767318 0.3246205680482023 0.009366497616154519 
0.08494250770479723 -0.2399918451710272 0.1020895871428032 -0.3756006754501134 
0.3100602277090982 -0.1896383316701891 -0.1926306963457577 0.3041605720442786 
-0.405622013790917 0.3070605158035937 0.07429863519484915 0.3737138628398747 
-1.063274224563673 0.5668125064275582 0.5440116845558401 0.004613869291057155 
-0.06566498112299392 -0.3123737931213724 0.524686924535982 -0.2255364626836226 
-1.216295289770586 0.03289043533456042 0.8514423852927187 -0.3259570048069485 
0.3453814070586653 -0.09234160841642258 0.2344439062905487 -0.39779746083073 
1.193488066593059 -0.1197984812757315 -0.06242692013019739 -0.6552457980073078 
0.3813964790098365 0.300632650169151 0.2478912887528097 -0.2386300087114806 
0.003192522364544259 -0.3668079642496919 -0.02950221711912714 0.0528669816990615 
0.688114650595029 0.3799364797449283 -0.07128750493138887 -0.4969633466044381 
-0.2087364393471936 0.06609513607347135 0.4321343938563599 -0.2165779493433095 
-0.3982034700385849 0.1262506208481414 0.3343716121000171 0.1351329590899472 
0.08052554868696953 -0.3426915701571702 0.1788486587521929 0.1464598762362971 
-0.05569407014973456 0.05663074266375591 -0.1132738359355445 0.2906657880269593 
0.716705538734461 0.402070036983786 -0.5038055039981305 -0.8127938420400891 
-0.05652697029508763 0.1616234535956225 -0.2916518847469824 0.3629268047904665 
0.004869859288283596 0.02485736887316261 -0.1838977210531735 0.1999955251489393 
0.2462252371111164 -0.3355803253306213 0.07936179903224179 -0.2113948597844674 
0.2354638853313204 -0.1429003795302848 -0.008814037622816712 -0.04655163753766382 
0.1936856801923885 -0.3233475840937301 0.02313781305029023 0.00379568134340042 
-0.3148609545358503 0.2571160047752657 -0.5871246494585814 0.7144487146696877 
0.1557691063432509 0.5084913657623003 -0.3116027569987415 -0.1031251493849661 
0.3652383999448907 -0.350738456617841 0.4124792280112955 -0.1031577615867019 
-0.08680331724106949 -0.0001355599648584956 0.2941218338294205 -0.1995492595164747 
-0.04890408658224509 -0.3336024896605626 0.6861356463697467 -0.2317459248701168 
-1.718827613805727 0.5754030958675012 0.3674744723697482 0.3480104558579402 
0.9616322147069402 0.3075879051759103 -0.2419250225855288 -0.5501535371600538 
0.03514824310994062 0.06224114475204791 0.7840115520324161 -0.5123825963539254 
0.06452578839199541 -0.3694518682368061 0.2633957186111149 -0.233396678050192 
-0.05890657157355136 -0.398314603259904 0.3703858636195416 -0.2450471261654091 
-0.4594323673567185 0.4308617983174063 -0.1891025594548263 0.4205430192026782 
-0.08213258892807525 -0.3230422275116046 0.0494721447301817 0.2628879396195354 
0.256603966912577 0.134505223817019 0.0775647717118106 -0.3467705640984452 
-0.03766325862482137 -0.01070699126790836 0.4127515721019058 -0.4731252189494931 
0.5768026623832144 0.8374928701430991 -0.3890102599087701 -0.7785683746105398 
-0.6921927065844757 0.5647868727356797 0.1121315302828187 0.3639292949284741 
0.1989370682560684 -0.2260637470411954 0.1597995361260036 0.01219266855072551 
-0.06213364378800663 -0.01268948837877779 0.1895107863598314 -0.2361089484428166 
0.6197180723546648 0.03119252623888884 -0.34794786878245 -0.0336561518168159 
0.3559096059198404 0.0752880590597344 -0.3847948041027783 -0.1353777870284202 
-0.5209902090136316 0.7224914458758966 0.2426050237597298 -0.3199421051909058 
-0.104594938017361 -0.08137931847155988 0.2675646176286449 -0.4079202529271065 
0.08531029957115673 -0.1976130914588646 0.2910532752561074 -0.426994882740537 
0.4734290856396574 -0.1331785145994134 -0.008250137770923585 -0.3998305306721495 
0.3707707589118323 0.2445088326317219 -0.2649318111038348 -0.465953314658231 
-0.1888580254326112 -0.4599711764911805 0.7208615203546361 -0.2651206513986515 
0.8266305565948574 0.3109958394506805 -0.6985490413404006 -0.2042461876771224 
0.4359773650399315 0.5042190023185147 0.2065619248432444 -0.7368899240649158 
-0.203359021385021 -0.06899840453091348 0.1016140221167877 0.2412949549670625 
-0.1702542750465987 -0.3623091655659448 -0.01711808279637434 0.3556009731235842 
-0.1489194034000831 0.01671121865895753 0.3717763139624707 0.127618637481889 
0.2563182374670606 -0.1787510519248773 -0.0547829584894161 0.1855222562148701 
0.0608144056607067 0.3669654818912272 -0.1965691067786096 -0.4318689956888888 
-0.5025054167562647 -0.5862643061929431 0.1573885431495347 0.6543339046602541 
0.2748571353161368 -0.4149018699584673 0.1315600970825018 -0.09797594945808775 
-0.1448426750215133 0.008631139131205681 0.06611314190659584 -0.117377631299584 
-0.2412310064166545 -0.007034751925804168 0.05230947878087193 -0.1871510967236382 
-0.1190568676005379 -0.279302193722051 0.175003435086658 -0.3107108843089529 
-0.4766203278283934 -0.1982350237962061 0.03282390026481644 0.5890333761237647 
0.172439851095578 -0.6277319762929003 -0.05236974666774386 0.479181540994237 
-0.2044418599724107 -0.6628889233753869 0.5783551260175886 0.01428648155562245 
-0.06368444497709151 0.3665625047833981 -0.3968046486870628 0.1103176721526733 
0.2247670778942683 0.958168676971083 -0.4902481669946678 -0.5008252592972345 
-0.3011992090848 -0.044192446549364 0.2531579694942251 0.4400296918714885 
0.06036370642778242 -0.9152299514278653 -0.06303785369255969 0.4861192390781731 
0.2534413310604007 0.1268926967635109 0.4019914863226892 -0.3875532636157964 
-0.001401791542716618 -0.02861519115177154 -0.2668870317028941 0.003757090278442444 
0.2366865487646311 0.4011831205346829 -0.235430676967027 -0.3529737077354986 
-0.635982093929034 0.7494534984154936 -0.2037015675383912 0.4082213312145362 
-0.1400357170076841 -0.2967283614341359 0.2137231068905426 0.2306817264245364 
0.2952881979196905 -0.2966172954789514 -0.01261431563921034 0.0754123174058685 
-0.1736284673320069 -0.1743599771674399 0.0007931095288547017 -0.1892575851068535 
0.7228417503445457 0.4700693977777923 -0.3743336141391336 -0.6907291474335129 
-0.4212915504686659 0.8735850209017417 0.5225664315179673 -0.4348418997052175 
0.4786947327062864 -0.4760684445579881 -0.05525404007391214 -0.04559460382122111 
-0.5892408409776211 -0.1820653848443151 -0.2383315174090316 0.306618900595818 
-0.2421462370500617 0.1027146433778998 -0.1853052251460004 0.3738352944864234 
0.05411189969674909 -0.3547751746625528 -0.08867101648395428 0.286766835966864 
-0.2087707302267664 0.7105418276568582 0.4237931971828713 -0.4122077554524223 
0.01772921666121886 0.1027094178381308 0.1090218603805096 -0.1364737136742768 
-0.2693754772636874 -0.104965476916684 0.5962974621515242 -0.355282765603899 
0.04698427053450668 -0.0383842450370414 -0.1436504739610156 0.03210194429382202 
0.3918525130831801 0.4256397145848613 -0.5151440166854669 -0.05668536984185067 
0.3701157465891732 0.1301479543774857 -0.377173238135791 0.3745201502729001 
0.04908356416657431 0.513826969753269 -0.3424691679523348 -1.355055829919261 
-0.1354193021039039 0.7825132101941878 -0.3271929357421639 0.2167635713875551 
0.5123878243841162 -0.1442648279693813 -0.1093346208628111 0.6270708204325801 
-0.4046316887957714 -0.006088318275207708 -0.2938363671134078 0.3964945082479885 
-0.7540706292259619 -0.5908490349731024 0.5338900308109609 0.5896816661035192 
-0.3765728448065769 0.005104254942997162 -0.01861627691286997 -0.03656682415082405 
-0.08049949276350354 -0.08900971464640012 0.02374977607007622 -0.2117080794432586 
0.3280979454844258 -0.4711445272330955 0.02381732002250248 0.5888059679801096 
0.1857144354718448 -0.1449294172419729 -0.1817405532675643 0.1923480710842182 
-0.03143907907259212 -0.1582911625716678 -0.09851814556835194 -0.06086280487647231 
-0.6209933871019698 0.27838206757559 0.1990673415646695 0.1015706517753128 
-0.07672173555265144 0.080512405800794 0.0827737116389918 0.2049605784141957 
0.06892989601333528 0.577586819744583 -0.2990202663168939 0.4549827268040033 
0.5448602043753185 -0.1899454948015733 0.1577380863293552 0.1065705072381121 
-0.6264839187044837 0.4055331350243225 0.1099713879452814 -0.03060774585377469 
-0.4121121750532737 -0.2728386312568832 0.2988583739040904 0.01603106531714587 
0.1021670459855168 0.06666176219686912 0.05213115027872371 -0.1233384404229897 
-1.513317917764017 1.08163153088532 -0.6758848440636774 1.188024053056197 
1.062924936617225 -0.3931718558428406 0.6324845968360132 -0.4176551959060956 
-0.5795738365490382 0.4945843691835374 -0.3889717136653481 0.4623802111305976 
0.4399962270501082 -0.1457767460045803 0.2947134850770433 -0.3650536565974349 
0.2147169449003544 0.5785336963669397 -0.4537816176021653 -0.2392378287621319 
-0.8377388938641864 0.4923420628250683 -0.367265888999027 0.583873475388472 
0.03874532955659486 -0.2356779030726003 0.05236683533729491 0.06638271702407246 
0.4940614560279905 -0.3109102595832305 -0.01423707340421852 -0.121206015699597 
0.2938586542042759 -0.2085330821623254 0.08937698658412824 -0.3979288333180113 
0.6373180114893908 -0.07045909941287998 0.367838067735034 -0.9035585306344914 
0.05132984847133358 0.7853877143138088 0.4036469238688956 -0.4074074360719908 
-0.266663030562785 -0.3528587490404053 0.002130775263154584 0.1360478304141709 
0.06136146034600649 -0.4133499102395091 0.1443890103027458 -0.09480519006946712 
0.1191732311273385 -0.4293662160289913 0.1495164259871756 0.0935410215005829 
-0.2371184455904073 -0.01673594918683826 0.08834301491765945 -0.07412037186058072 
-0.3352396545847633 0.9705381176623401 0.3996902196277516 -0.5279603139288187 
-0.2988177293424502 -0.3577568077987844 -0.04299807223745902 0.3297096239216616 
-0.8845619414737459 0.09290250708811867 0.1760747259596896 0.1617233647833785 
0.2543548813293554 -0.3876160493306682 -0.04004449582321234 -0.05715012503372602 
0.7246370755712589 -0.3838014756343917 -0.07529478638268551 -0.1951120621711193 
-0.2095842008072391 0.3065913424627518 -0.4150202803482899 0.9066855201664191 
0.1925397831399987 -0.1800884513054549 -0.04480939189723318 -1.01721722946427 
0.2134271654313633 -0.06438892873783789 0.8609418135716805 -1.237081050789299 
-0.2704411419655287 -0.2156866473904048 -0.1924603471777939 0.7182573181661526 
-0.4709006099245753 -0.2740399103170661 -0.3925081353288692 0.7228529711988941 
-0.9392713052436598 -1.42585995735112 0.3558999781102197 1.077876675989651 
-0.1342000813528251 -0.3939714780278779 -0.2398545416186063 0.2327528398429028 
0.2034522041604882 -0.5480016319429613 0.5050286122803295 -0.9552550590865373 
0.2060223153209498 0.06050832215851715 -0.23630744852599 0.3400438657185341 
-0.113268390646535 0.01087132171197481 -0.01272101023301841 0.2240521908320371 
-0.3542365514625478 -0.1683514497246641 0.2287832505951166 0.3083254679094289 
-0.304198765599961 0.2359446267925667 0.2169848828489096 0.01994524856399852 
-0.2452982975717824 0.3220868100792541 0.2040097305084999 -0.1457252553615231 
-0.2826394663207995 1.165875463372727 -0.4689568405126852 -0.07213217167855146 
0.4531966322696964 -0.03978257127811746 0.3364165483790469 -0.6717704955255481 
-0.7739943714720371 -0.5670739376283581 0.2873253722318113 1.214397456038472 
0.1810027734020218 0.06042346858762884 0.272089751871086 -0.01493805000327665 
0.1015722217750956 0.4377428903070615 -0.3854669126964272 -0.006274632322778787 
-1.262173800570679 0.0639466549970556 -0.5608932781717562 1.445870891661684 
0.5699345465864927 0.1618145579102963 1.101308096793068 -1.747009947228136 
-0.4164401654898356 -1.495257562470308 0.06266912789778868 1.685599458978752 
0.5232997314640483 0.1915004216597659 0.6172152142181029 -1.139640760520304 
0.2401129496959032 -0.5887650714827419 -0.4170679167077337 0.569834709791134 
-0.290494903634967 0.7102057769006673 0.01955609399209319 -0.2543517654151909 
0.1561681896049731 -0.2169144914896383 0.1534637532928831 -0.5713324562770173 
0.194287059185576 -0.70576018072792 0.5429968063348054 0.01673726859062145 
0.1216677827369825 0.1415209099796827 0.1140935157527528 -0.7824580481783472 
0.03106971230765955 -0.3085270215242367 0.4563225190663116 -0.8397841384021452 
-0.09731890688409739 1.03280091315173 0.3093445057834147 -0.8559432396291091 
0.07289566996791982 -0.2911293534276779 -0.04161307882684052 0.1273228623977354 
0.0815753061947985 -0.2684089214823925 0.1847716299347633 0.1419740647855153 
-0.3805209627333609 -0.2453007982798535 0.08136286442888904 0.4062194615991436 
-0.03970358843818547 0.05799157829774777 0.2533140895391417 -0.07045855758221983 
-0.3254388494369861 0.9240416533567054 0.06171607510295563 0.07693599689445252 
0.1680850993980376 -0.08452463497202103 -0.1658185567215655 0.3855807020887215 
-0.5411972131741676 -0.2522183683122201 0.04696389208324826 1.108991695715601 
-0.1883972723285134 -0.1169936740225777 -0.1754110421104607 0.4816447838938949 
0.4502350325903429 -0.4404761329264151 -0.1898039601469775 0.280217922623105 
-0.0884795672199494 -0.4631399231063543 -0.5314063404666898 1.197726289549146 
0.6074016875294574 -0.6735393323234393 -0.141776729440749 -0.2133487927248668 
-0.4008843830762676 1.12364957638856 1.221405205530512 -1.846470442849477 
0.2360971351160838 -0.1055558605513436 -0.2083133654710271 0.6560815917027288 
-0.5517365166063376 -0.3255490598379128 -0.3451123618959743 0.5637370131066515 
-1.390561959617177 -0.6929584142181945 0.4098945390907613 0.7324918774665722 
-0.2243436251599797 -0.1611331794082551 -0.1662224888113785 0.05885334099243255 
0.4477292997391997 -0.07311407145568424 0.2021768740251186 -0.6148218633986774 
0.3635302818620094 0.2845042533494411 -0.178031929333885 0.1025127375267334 
-0.105366756952583 0.04344257990097782 -0.05408152607935357 -0.007948235767919431 
-0.0347481493367682 -0.2361607820460175 0.00965175691764596 0.2557318322152837 
-0.1233352346850164 -0.09914748148428254 0.111093988562555 0.2555191640742943 
-0.2026242711982912 0.1073572435668711 0.07089988179226828 0.3321983793294266 
-0.6198310379555653 0.796470572542581 0.03778453385145895 -0.04535932893492534 
0.9558335008776343 -0.5869865199977374 -0.01918987647603601 -0.06930454493193057 
-0.6693309672074372 -0.004162055968453676 0.04863475102602216 0.7803952086013952 
-0.1420466699219783 -0.09744738878391551 -0.02397696263998582 0.3155713530478101 
0.5218565451088476 0.1914412992229861 -0.2267313760465314 -0.2433197689932809 
-1.023910133186505 0.8308546850901752 -0.5705460132440915 0.7161118097225465 
1.402847065400112 -0.3849034460526513 0.4297983262230425 -0.7939000703104291 
-0.6747123335461566 -0.2890684225419491 -0.1299252655319512 0.9505202999504622 
-0.03028456359455128 -0.2876806114393589 0.2387683418477972 -0.2379470896623161 
0.2933843021383604 -0.094959090324346 -0.2424883103870074 0.1946390451346801 
-0.4660796285545493 0.4613670749653589 0.06698136180179408 -0.00254788715675896 
0.3528290067289524 -0.1322001181860631 -0.1360643025120911 -0.2011088189195743 
0.1580044006902946 -0.7619348452264488 0.5009469953958958 0.1069472943517335 
0.04060556404600109 -0.1028695108187753 -0.04073509494194013 -0.4621116911985867 
0.1347793104770795 -0.1722249758048448 0.2898044008498855 -0.4660580021135776 
-0.2636993894995597 0.8763694625423215 0.216777831526713 -0.4229347481467672 
-0.001106799132098895 -0.1215705857647202 0.253035978560915 0.01001663338211071 
0.2608289382053434 -0.1326772522814972 0.265176625375104 -0.2770510881764618 
-0.1236474252089592 -0.2764140777156299 0.3353003654671762 0.1432162667785886 
-0.2132943712171163 -0.07526642966078594 0.08231688574492538 0.1269873165018939 
-0.4643953223550025 0.889314193792467 0.1473611415203677 -0.1036994458739842 
-0.3539554985840355 0.031287552202378 -0.1251457962886089 0.4647367898296032 
-0.5329956564065578 0.1044811379074293 -0.0850038394546202 0.5764247041299545 
0.004730856805653622 -0.06730611191098843 -0.1662003098740468 0.2400418110817471 
0.9900203538963496 -0.01251214357853853 -0.3158995498533186 0.0009150741630045735 
0.2654168875492889 0.2945144372251962 -0.5188137343534744 0.7092267120086253 
0.1838287251610472 -0.5795737129339065 -0.1455085024919786 -0.2534549013106991 
-0.01507158991966224 0.1824463128906067 0.7157613047736424 -0.7890638827773921 
0.3364242598952283 -0.5574797028030752 -0.02132139229109275 0.2168235878277307 
-0.1633993677324677 -0.2401174258613029 -0.3178759343953093 0.3186907099927606 
-0.3123893829868479 -0.6967964147408017 0.5091675342854973 0.05523010933352869 
-0.2529384006438558 -0.07739704332939601 -0.2301839816313386 0.1837036869531946 
0.4816556189194116 0.1820399481179381 0.07165642440474521 -0.5269620730032238 
-0.4655025745731548 -0.3602341860909414 -0.133789960521142 0.8160041630091619 
0.1260417456538254 -0.2179586794753471 -0.1458021075112896 0.2118664196814214 
-0.1169631156550315 -0.130156149329217 0.104985692268514 -0.1479664665938744 
0.1268685975479344 -0.2869841033018924 0.1671723047556684 -0.3159343526968565 
0.1603179214147016 -0.08076946481907377 0.04834448514675178 -0.09255241289005128 
-0.3018709220094545 0.2422314717573703 -0.381127311913633 0.8070510934110263 
0.3313628329746884 -0.4850177128834979 -0.0955224243777623 0.324647273944293 
-0.2572583230299352 -0.06491348464559904 0.6331017330545339 -0.462398234623642 
0.1256629376094503 -0.04442319099778431 0.2198232219016405 -0.3841717626644282 
-0.09686422463072357 0.3008094505334279 0.3289209069015491 -0.7335055709942574 
-1.4346454801833 0.756774597383807 0.2920429535183054 0.2040912209096876 
0.6327463228215557 -0.03093565861872986 -0.2497126092381649 0.04880261598392056 
-0.6245485752101819 0.3128131004171206 0.7264280015191955 -0.6959998171019941 
0.6133542354303113 0.08216500455130872 -0.3704089190713128 0.20841346908169 
0.4299983213178171 0.1383958955645661 0.009381828416744273 -0.2774112466833945 
-0.2391773949295688 0.5241570170965021 -0.3238192486662078 0.4391593932233196 
0.3910598801690675 -0.3059039021838586 -0.3453686569758148 0.4114791171652449 
0.08658349198787896 -0.213346609003117 0.2081103231877349 -0.2853553219876699 
-0.06835900461917234 0.0959400007994872 -0.08441008087565988 -0.2441297853090396 
0.3273277632092862 0.5542694958930545 -0.01141989000784708 -0.8880104784557576 
-0.3833939582566044 0.4095723709894328 0.5470264133977412 0.02756926379483993 
-0.2667560466195827 -0.2363752277459866 0.2390774074644551 0.2337517078253347 
0.07486147450866443 -0.1228096003629124 0.208023715517345 -0.1893007910629144 
0.1739271181754831 -0.07516056722447627 -0.3291643757822886 -0.1208858574988932 
0.3013727581365229 -0.1189904248210804 -0.4395274925360325 0.002062068051094495 
-0.4473939347055267 0.7746461034034648 0.3938114083792482 -0.5373177667821347 
-0.2344205723443323 0.1836706350617809 -0.04605714297145203 -0.0530207965818023 
-0.3931236113035766 0.1346994575321256 0.5294980418081406 -0.6543110216216625 
0.2764257787523262 0.1076450912225834 -0.2655482715899924 -0.07356755551859644 
0.5782262511385448 0.1574946626662854 -0.3397476014459209 -0.2640157792254815 
-0.05708085507472294 -0.2862908576845951 -0.100308316936561 0.452767393482091 
-0.01761932281364936 0.6682179398324559 -0.04144561954480117 -0.9812056778727357 
0.528462573201523 0.3781362643388306 -0.310747087657749 -0.3174196136254538 
0.6889452596798192 0.1738361112456894 0.2974747355101322 -0.6767132621819004 
-0.1485464694860184 0.07225442354225083 -0.1361389343501633 0.198722880716389 
-0.5447536575215799 -0.334083281094976 0.5248901775488648 0.3416694092017643 
0.5106654691574835 -0.07435914414845876 -0.3658674519649288 0.2609221231946788 
-0.139157440560171 0.1298808864833508 0.1402832683849158 -0.09600250555940533 
-0.1215967006947574 -0.4778867946090857 0.8784938456270992 -0.1033620117080499 
-0.07934380288405245 -0.3436263197860435 -0.110299907317092 0.2203995464501518 
-0.4583080135619615 -0.1543152895713676 0.09404540655941938 -0.3451923734325639 
0.04640486301203636 -0.2933573758780079 0.1753069300445034 -0.3898062503051999 
0.4427732036954628 -0.1794344230780489 -0.02512010333415493 -0.3950096778702533 
-0.2725326929869802 -0.4443983220907197 0.4874526648722826 0.3686958271297603 
-0.6695125929008112 -0.6748098706965275 0.1661606749825122 0.4213874751977802 
0.4992022524375698 -0.475375534168832 0.175968141239698 -0.08279174557399137 
0.3818475422259338 0.2536139351078071 -0.3554622484514779 -0.1083979687528956 
0.2776722247283622 0.6158139637956944 -0.3309965928565589 -0.3489539718849048 
-0.4557017991153752 -0.284826949766568 0.3438223916648918 0.1313157622902165 
-0.2159997300361229 -0.1770083182382745 -0.04786539415950666 -0.1956508774986018 
-0.1696283871244731 -0.8352296344950363 0.6163693099810303 0.05604199026256605 
0.1567205882900086 0.1165722384276316 -0.1898122599446399 -0.06723386550873044 
0.4907472134665259 -0.06994437287237772 0.1853132672029054 -0.1431917807097476 
-0.5666927312853641 0.5750727551429936 -0.1877407217240068 0.4135259480972941 
-0.2122829853672411 0.08964760639567793 0.09688336643998936 0.02534106789018607 
0.1901144816681544 -0.3779072326527145 0.1686975361654638 0.2887908316376267 
-0.1589766791126858 -0.2848823758444525 0.08998315841904138 0.2369434684144435 
-0.02412188980496058 0.2741039351280784 -0.3503778318182164 0.1379942148829445 
-0.2548237686506847 0.2194942322606563 0.400069783097544 0.05841407015997566 
-0.03052572380697698 -0.07183487176326059 0.2430632402993561 -0.2711433845509864 
-0.6007329194893711 0.1819542990304847 -0.1414574024531915 0.3265218244734543 
0.379997005703953 -0.3736830622516392 -0.3630822143614558 0.4007701955019681 
0.08211118292564158 -0.2696441031319355 -0.1158461763986725 0.273369932697358 
-0.4704437213549463 0.6299254304940473 -0.01149022556907328 -0.1983369751949002 
-0.342107845588002 0.1530625268873718 -0.004185137912093142 -0.0311252513783146 
0.2293373124159983 -0.6028446741480873 0.2513009577011469 0.007159232050377249 
0.06285807573066718 0.09969170284742571 -0.1855560804593482 -0.02929223828798273 
0.1677241731136586 0.4035575744777395 -0.6568122611384497 0.01808092482485474 
0.6731150595637649 0.3225305600911824 -0.0199710257857757 -0.6078073250957683 
-0.7113811461417539 1.392102203608443 -0.8473047876651318 -0.1003448383427833 
-0.0190986743250832 0.6395168599128035 -0.2548309266316239 0.05613903346377017 
0.2546703711992307 0.07762423051979421 0.07644265743005441 0.08152991961571189 
-0.1558876437294877 0.1367392174194117 -0.4226880036310984 0.06854541197676686 
-0.646841351658241 -0.4974932776545031 0.4657456436972123 0.5155363924600487 
0.3907093242178944 -0.1561019445179705 -0.3543935948420278 -0.1021175351147714 
0.3069420929026463 -0.19204508871951 -0.05941094487318672 0.07307177249698057 
-0.03848634783889369 -0.06527306332736466 0.5402495627992659 -0.0003597374089445793 
0.2155962963966022 -0.1531220207075489 0.06137224853134312 -0.0575964997984273 
-0.01956593276545879 -0.1890542853559981 -0.07581358508427813 0.04730604153875825 
0.1378123406586681 -0.2071116420564768 -0.04474592284047212 0.07874086211417236 
-0.1725889646853346 -0.03702856843852677 -0.1464591305128679 -0.1586497414860356 
-0.1108468718217994 0.4699084985587618 -0.006080164239230175 -0.2038531499964659 
0.1077712990592258 -0.2789206379896372 0.2467409562766561 -0.2892007226236464 
-0.003887846801284045 -0.1585218169318339 0.01464636939902687 0.3166804023850173 
-0.05711059227062244 0.09918579692688435 -0.112907058979732 0.0848652565646498 
0.08282871723086122 0.1137490344398193 -0.2539223563411102 0.3174198678689485 
-1.2856760155016 0.8769963475873602 -0.1842221502921816 0.1901042091369945 
0.6163469183346219 -0.6529818014570685 0.6876073477659611 -0.5228274123858097 
-0.6548388069647285 -0.8586954524715711 0.240651188095703 1.022606724791533 
0.5123326077918103 0.1643810796777342 -0.4220136272054389 -0.1379821716195041 
0.3362274568106851 0.1144151445401877 -0.4697584308897162 0.03847408298109321 
-0.6685936201983512 1.218150850573886 -0.06558867638452119 -0.1913144541484313 
0.2939671338441088 0.2589658647119189 0.1219257680070823 -0.5577937257527783 
0.1928767175454023 -0.8323214959518216 0.3241621260957296 0.5844350383324911 
0.151342656101274 -0.249037711315851 0.141533040517054 -0.3132197720509285 
-0.4214725467733773 -0.5629490114163475 0.1309505328889212 0.321905472356484 
0.2083989991496115 0.5539271493049237 0.4811378175716615 -0.7460464141381326 
0.1024043547990784 0.1091141136028894 0.1403909621490646 -0.2968992685400528 
-0.7382531377643902 -0.3092641890612925 0.2716248666810172 0.1932270305289746 
0.3266572777005373 -0.224318302808251 -0.008892259562659438 0.1811951515334542 
0.179062375590099 -0.01966827382007066 -0.3611848254065912 -0.02092559060052664 
-0.4737761734838738 0.3154334333535592 -0.008605275955652464 0.2423987479135532 
-0.1864919315719664 -0.1360805292922668 -0.1738387563593318 0.1504781422485385 
-0.4338354572702444 -0.4615485397573702 0.141655725953874 0.1046769864724611 
0.6651154372186793 -0.4775021429085696 -0.2306660206064588 0.07983887774930581 
0.5214172323271795 -0.2067526205964697 -0.4656756105760335 0.01477788152704258 
0.0814510166362058 0.1399186446666297 -0.3197030427253518 0.2060884717285689 
0.07177623623956352 0.361400116302941 -0.380136299858912 -0.003891625739007732 
0.0909395161354567 -0.4769115541468603 0.2745793963163589 0.09119534778821367 
0.05743864408605911 0.2105002853619552 0.1035373488956313 0.007439782403682787 
0.1877313691995015 0.1081435159436684 -0.5172608609016586 0.2263730570387975 
-1.011919430153963 -0.784823857337609 0.7717344513220843 0.5887781579810548 
0.05004112127018229 0.0003047982934972979 -0.3243099765473572 0.2781968455090454 
0.1185097879603244 -0.3946431243494241 0.2223401509265483 0.06133409871241245 
-0.1803463933993395 0.2064019615902445 0.5082874514809895 -0.1505451434972123 
0.3103161614348596 0.008272858666946315 0.03619095954214345 -0.09858337204555459 
0.03279164733417977 -0.2469211774338043 -0.03232494170314058 0.1817722720330185 
0.129418070139023 -0.0913494363815799 0.01614245565788515 -0.02228705491737063 
-0.2930137754920387 0.1778401129638012 0.05640141882723685 -0.09312442532659874 
-0.4144175485153476 0.8314719769081746 0.06606178168596866 -0.2674453146676462 
-0.3138687795051774 -0.1385149578417163 0.3470793003674298 -0.2713729793199358 
0.2965444048236015 -0.1383707772566268 0.04597214975180808 0.459797444975996 
0.1117693685026785 0.3534182649257342 -0.1640793069713557 0.03650531987059994 
0.09473917899724336 0.7351405768898536 -0.6750615249469567 -0.09800414307004676 
-1.239088213389872 1.337536745115021 -0.3938833783937803 0.4828609719979914 
0.09703136791135075 0.2839320682127277 1.012251896514093 -0.9097089985088768 
-0.575729510445667 -0.9971482870074981 -0.30768042004362 1.582454206535931 
0.3386546077011962 -0.04431660712229855 -0.1555428726477441 0.1383977444416291 
0.1940563006589913 -0.01025245799116678 -1.206150333899725 0.8613870332386596 
-0.6088390752465984 1.449992527732616 0.07817508625450881 -0.5782869339004743 
-0.1605984659175053 0.5715799501447256 0.3712888365484512 -0.7905157887185783 
0.003859413292678015 -0.9078465078459219 0.429911562310738 0.4638130371218567 
0.1160420143076018 -0.4275735192242799 0.295125871097177 -0.1672800921066711 
0.1974606188137964 -1.366429067937622 0.1516367891458169 0.6678270219122331 
-0.2884259100891779 1.045043001739819 0.5457898296453046 -0.7528081519480582 
-0.09911007886253465 0.5035203891185213 0.06784202947256682 -0.1114708136023489 
-0.2039163458482383 -0.1179821001383377 0.2281511933930857 -0.0941866900376141 
0.4635217269494676 -0.4793525567430061 0.04051405753530147 0.2686607643081899 
0.2701137279138196 -0.6818988053880587 0.000600474411677078 0.4442740164961107 
-0.1847384976901337 0.04483290900403942 0.08013883076045704 0.1362793094101068 
0.2031360816863425 -0.0399845530906832 -0.2852476549638321 0.3404146252572375 
-0.4894048552862657 -0.5816166447790829 -0.03086640513475383 0.4795154741245873 
0.5222159073085264 -0.07394780997217695 -0.3416991470165232 0.08908315426083718 
0.3574978456290908 -0.3372618387825727 -0.3073998687388542 -0.05459287090038038 
0.1434944188515231 0.3820056089334932 -0.5721642508029853 0.3411080229449825 
0.4333348359343968 -1.201401297523877 -0.02876891196143162 0.2186904404786577 
0.009945599108703589 -0.08707676618975531 -0.1125031615157366 0.1655717754744472 
0.2104851666340705 0.229278247915531 -0.07179321934520075 0.1441424596700376 
-0.09047996421587849 0.1154054049125485 -0.1618029693833844 0.04622836116334997 
-0.6897706639871555 -0.5027765780650416 0.7635750864092533 0.2829352904651613 
0.08458951670707213 -0.08908504312198462 -0.1496492618101719 0.06573829433198272 
-0.1929709409292527 -0.2879714414425523 0.08500849936951956 -0.1477224958582477 
-0.2329802065274556 0.09849053728367131 0.4334860748785331 -0.1569184995193764 
-0.01470590147756728 -0.03246630343187604 0.1770829403523982 -0.09628171052710739 
0.0545735397637233 -0.1478639044632413 -0.01264866320438588 0.1123464757561748 
-0.1073736782579113 -0.1074500551521489 0.02775057151657559 0.100802679632054 
0.2678107662718254 0.03689968154362547 -0.2486108233518405 0.1054537684679132 
-0.2485510126961959 0.6311687732014164 0.2761406619611487 -0.3455676999254895 
-0.01165325585995969 -0.3172118586019594 0.4000658635554143 -0.3017615107444291 
0.304701238260958 0.00723912108789288 0.1459064042679443 0.09479555585067138 
0.01990731105973038 0.180943790260799 -0.2772728464183237 0.1632469843663282 
0.00548525208457154 0.1774964104690881 -0.6773125900018391 0.3387297469862745 
-0.9183322598922596 1.044265488391687 -0.1392051372529375 0.0985123373035755 
0.2364798329923385 -0.2721058368440473 0.7807234705196558 -0.5869720786237348 
-0.5460741225942166 -0.5783441604080883 -0.03574282632772609 0.8294046230197505 
0.1777665627728703 -0.02635090148285022 -0.1234946265587111 -0.009862623041015317 
0.3355413331245929 -0.09570893541614982 -0.7852920229964838 0.5074566093778294 
-0.5146740421977867 1.175279113030047 0.06889969061545409 -0.484327950619656 
-0.3390035501222972 0.2921639134995631 0.1290881028443814 -0.2981570683385918 
0.3122651918969899 -0.5217516845302496 0.3560239205124777 0.1361401459449773 
0.4595138891913135 -0.4949762134287958 0.07142648734037324 -0.01562393823221222 
0.2507741359100731 -0.813796007895045 0.2196629638052728 0.2734010231646873 
-0.09678327995142698 0.5608819349022778 0.5144718308131987 -0.5292239523996352 
-0.1527801148239539 -0.03911079319227603 -0.01493634629734531 0.3028524406897605 
-0.09670905328052198 -0.2278714893412135 0.1328267215931065 -0.1878151913405069 
0.6103184055921463 -0.04501010916012648 -0.03403077532681476 -0.1234006508454115 
0.4198248681292364 0.04102936539464178 -0.3148384863465565 -0.1501443306440668 
-0.3277592647177384 0.2012437337285559 0.1071121569374693 0.1723243548460134 
-0.2327974913001578 -0.2573182724854758 -0.09282370364740446 0.4759483872874199 
-0.1244033348548559 -0.2843434012806127 0.1425785603230998 0.278010419873942 
0.3015676683971987 -0.01696178241342292 -0.3180768421068504 0.09108425212785536 
0.1730180629575281 0.1398197922414685 -0.2743246502921489 0.05264826787330254 
-0.001948720422989304 0.4707153823387091 -0.8028778786021358 0.513741146800933 
0.109190767477866 -0.3299681663539691 -0.5363456372559229 0.3756813937632063 
-0.1098554297323471 -0.1674484680251105 0.2039239134408202 0.03716969386573661 
0.748721942384228 0.1459321692953638 -0.03134638090071358 -0.3715893116498225 
-0.3911109153045981 0.09612221913893818 0.09398125105420893 0.3733957516656468 
-0.2709637270352477 -0.6205052438236038 0.8289203048443488 -0.2160474490370495 
-0.06247757229719055 -0.02087399427574682 0.107811088659111 0.08862843701633159 
-0.1139064805731789 0.2733522443512678 -0.2813926250868723 -0.006360358025304137 
-0.114927471685337 0.02352309757730782 0.1600413125410211 0.07570523986920513 
0.3567054671322701 -0.1239990195750338 0.1213789112726505 -0.1252147682411842 
0.02181609264244648 -0.1547661029015703 -0.05863064648300623 -0.3077383419610119 
0.5576111898353411 0.04802655324521031 -0.2593033457539153 -0.2935782035396028 
0.01969598921000734 -0.03441168172056406 -0.1335429370148268 -0.1532694788951035 
0.1753952668776793 -0.07987670316458675 0.1441058323947282 0.1028274056475219 
-0.334822235574625 -0.1042155680487092 0.09488202030982443 0.1833901038158597 
0.002168442598809286 -0.2094855414561125 0.6061680912980089 -0.2533505015996456 
0.2751217271192258 -0.07705455482458569 -0.15554622634641 -0.07733253534189044 
0.471213443531158 0.2031718051969407 -0.5913462948805057 -0.2954121061410952 
-1.061348644572804 0.237150749978197 0.7162653741203344 -0.008570317010184762 
0.3068712690756969 -0.2573760770259736 0.389290344434996 -0.3323848045141275 
-0.2286308290397762 -0.7037676481842501 0.696232887669411 -0.1014033748812768 
0.556762573691968 0.0004892073717271406 -0.5305324890840709 0.1912507978082289 
0.02033374430027789 0.2746195931955624 -0.3869533364131 -0.05986732888865034 
-0.8135951396552252 0.6032822392825322 0.02330866281408044 0.2931242063432815 
-0.3140829469788721 -0.1957439328898566 0.2948654635259859 0.05079585084692749 
0.01597124627540102 -0.2848595048376917 0.4932692706912669 -0.1277234945795082 
0.01276331956938879 -0.03635632287746886 -0.1325508963010079 0.004838652128467227 
0.1367325715221989 0.4480560460517946 -0.4319642758002916 -0.1501948632157481 
-0.04082751264404962 0.6862947484799589 0.5054246116226349 -0.3538460231513972 
-0.5187901492204008 -0.2392028584333654 0.2702042281393308 0.2317219670489069 
-0.9899102975240381 -0.06851906947675621 -0.007471995257874088 0.3534101654122994 
1.191753062065675 -0.4104971654869978 -0.2911727992777431 -0.3654101807169265 
0.03431165188540396 -0.3199507390745892 -0.3414674257878469 0.2455556183709313 
-0.3030615611320557 0.2488385999365481 0.2904320533705792 0.08494344728499312 
-0.9576420811332454 0.01400336798198366 -0.03668204875542582 0.4388425352646272 
-0.1743589511133397 -0.5278291901819899 0.533628649244466 -0.1971800087629557 
0.4306727367644768 -0.01702000966063349 -0.2595194378724698 0.2094230143031096 
0.465113449011624 0.2454676396215984 -0.4264418410268456 -0.06769819180736267 
0.6033437987509125 0.2553960788015464 -0.7051220455960843 -0.07614379796960148 
-0.3885015571331516 0.9707564403565939 -0.6441202349223206 -0.06817647034384167 
-0.04834579078176968 0.2273556709158338 -0.3676563219226953 -0.09354593539430837 
