solver_type L2R_L2LOSS_SVC
nr_class 4
label 0 1 2 3
nr_feature 1475
bias -1
w
0.1416134073025251 -0.0358259760421307 -0.09098785321433994 -0.04213457269135431 
-0.04943166078327839 -0.02431041572440814 0.01586420520274805 0.02933162061158713 
0.0662778474567874 0.01124306369250403 -0.02537992407871692 -0.03346264525295384 
-0.01880712971307078 0.00675973002486769 0.01525269772099277 0.01986740720229709 
0.09015136557992642 -0.08588056159286063 0.04994115080356281 -0.0351143885312684 
0.02992580398332013 -0.02044212693755704 -0.008370785306638474 -0.0385793810706394 
0.03344385836458364 -0.02625033864217653 0.01561916184347627 -0.05623378417164911 
0.03480832270936696 -0.01789131006169832 0.002127465776902111 0.01636440634102781 
-0.01686028080269372 0.0317453874977584 -0.006207456753892225 0.006518551810808613 
0.1651077021650279 -0.04663911160452613 -0.08298103284715695 -0.04073540299695184 
0.02067336092727834 0.005887697169361273 -0.05320960488764989 -0.0002644208308993062 
0.02211372505494938 0.04753683098783593 0.05177692158276225 -0.03539798145547281 
-0.02739016395888772 0.05704113640793813 -0.1388206105403198 0.01415117865109269 
-0.06289595575231903 -0.05175971132570698 0.03338364913077081 0.1040482779452919 
0.04237920480453571 -0.04350725525236709 0.02191772367168549 0.0769221479438366 
-0.1297789628734258 -0.01344468424013675 0.002512207287235246 0.1251434030327344 
0.04267561403144429 0.05039601609994039 -0.08632804636922324 0.002131524824233459 
0.02324041073200765 0.05370751727272654 -0.006821945629799266 -0.06459963990633318 
0.03422423800594937 0.01665232367534533 -0.04911117080933125 -0.03420114943171841 
-0.009654847039020864 -0.07049831224766859 -0.04798128693350214 0.06469990151791098 
0.02968966749090429 0.00756264359511435 -0.018185174259424 -0.02112091924661853 
-0.01613602630978381 0.06415677982863499 -0.04919018609763108 -0.01546862734394101 
0.06718463777377062 -0.03201757136588835 0.005258340805809236 -0.07916690927703353 
-0.00711513034264248 0.009552774943215563 -0.002479379224134937 0.03308397965210996 
0.01670784500196809 -0.02297518582846947 0.01865062969943963 -0.05947938652723665 
-0.03756610418346128 0.006529055715796011 -0.005122323544056733 0.06070997583342159 
0.01444469363958951 -0.02543814286838934 0.02079911588432646 0.01402410102382772 
-0.01343478602014893 0.07063067555629257 -0.0615928845637537 -0.03250864796961477 
-0.09697572452827125 0.02758002101288788 0.01256581185167631 0.05391765484392985 
-0.05413694663880392 0.0509703731309425 -0.03687194904350796 0.01532369888179928 
-0.01488908975731776 0.02670702836454865 0.0329331456433898 -0.07884046352782353 
0.06454482362880665 -0.01603786163510454 0.001388507350279841 -0.02509273291268202 
0.03820185824190089 0.01532695003658849 0.001840440877231741 -0.04080605428328714 
0.1286547599071736 0.02565074579608079 -0.01830678491309012 -0.08893372788594037 
-0.1119382832099832 -0.0007145404314566474 0.1041993265186612 -0.01666132155096314 
0.005719521878105933 0.03314118395545023 -0.08304673660823469 0.1031282611361303 
0.1219523420619455 -0.04543647234244567 -0.04440587600677092 -0.04871258174436611 
-0.057379183384123 0.04484560119313918 0.005022488131487049 -0.03511645734667031 
0.07432483823039214 -0.05983944832661536 -0.003267798281348576 -0.002637520850171816 
-0.07662680304472229 0.1142067878064694 0.02099295959562914 -0.03236655266118964 
-0.01579422221597679 0.03660782988658906 -0.03655634667299969 0.01672224999503103 
-0.08484641806125054 -0.01075715608242514 0.101875447108032 0.04640180535614881 
-0.06316966301090188 0.07824205236361451 -0.007950921225457243 -0.0127726141234453 
0.01338242899252724 0.0126967542582463 -0.001814806626157044 0.01560135816893115 
0.01386434601594144 -0.04574876472141807 0.05198319009667668 -0.008279061897522162 
-0.0377048241869258 0.06230393821182689 -0.0182120331305176 0.0135048053392725 
0.1517175742729183 -0.05277388570918495 -0.06138070237204473 -0.0565770553816087 
0.004975688781819362 0.09412687298715322 -0.05102401258355994 -0.07899691499347278 
-0.05019303482776612 -0.05196220764460871 0.08976771729313163 -0.03113041519485425 
0.03392940491570599 0.04682412848391952 -0.004365237528391778 -0.0125286911264435 
-0.03973657393934761 0.04719807047951658 -0.01727321977924357 0.03555788317664233 
-0.00638448238598774 0.1195803628559918 -0.07840053683351078 -0.07979937390225625 
0.007642577521379668 0.06948532711627099 -0.09789433437050074 0.004938053498345145 
0.05745072566712361 -0.01083482010333803 -0.02134509568093471 -0.01920159204820607 
-0.03986208958509889 0.01458608502730499 0.01339380184107862 0.005777322567063361 
-0.01161710695553484 -0.04738813450411013 0.03685801173725151 0.004970564706386363 
0.08885780386205573 0.05159331447020265 -0.04914942777292487 -0.1031191044880185 
-0.01318759708494433 -0.09799315183422154 0.05373603510151916 0.02546668537726266 
0.04844924027619592 -0.05788865447126965 0.05693424131658647 -0.01319035228633276 
-0.0183096927618683 0.01009179495154227 -0.03614879209463088 0.06061997919337043 
0.03306241745345089 -0.02398671819829801 -0.01416963547435899 0.003741446155634253 
0.03686003175488541 -0.04345270248495862 -0.07770483604227264 0.02835474262464312 
0.002763847021748433 -0.007180122802926788 -0.03599277448232547 -0.05071253545178438 
0.05547164788432782 -0.005803119267911805 -0.05356840179339956 0.01790795281189001 
0.09488868098214615 -0.02314723381891281 0.0100160581670553 -0.04458011375271199 
-0.005228506928145579 0.03068536458224323 -0.03057448983527081 -0.01341049641280699 
0.0364629878862617 -0.04060830389389134 -0.0173776523792725 0.01921087420379801 
-0.02548540035696233 -0.02868337716046297 0.04697484886293442 0.03413624309921193 
0.006261035171038281 -0.00483528768882914 -0.0226347305242278 -0.005546863476966483 
-0.04837671920854528 0.07188223212232236 -0.1022512674319584 0.06275820832556556 
0.06561283432712224 -0.04531101615467092 -0.002813574514085327 -0.04376830144457809 
-0.06857752711134213 0.003566255474603124 0.05902350320816468 -0.0309630610051262 
0.05888273964569327 -0.002701418835150803 -0.01235554404542554 -0.008541321144564459 
0.06991105704075076 0.03222163068031961 -0.03783282130799685 -0.04930011612504816 
-0.01703602978461293 -0.02201595455127843 0.02059180843105393 0.05699285236710307 
0.05630183702303437 -0.02437934541757069 -0.04271491595650743 0.001635693413235387 
0.003986837711672121 0.002886458965198479 -0.01839985605615575 -0.02541698215073239 
0.04322348197026105 0.03052595426522994 -0.07160913137248251 0.02455063820338049 
-0.05284922199093633 0.03189620762174281 -0.02626711308920895 0.05179607592466424 
-0.04580991143861278 0.01582724648576705 0.02963467191250035 0.01373001156282262 
-0.03495383845018683 -0.03690544442111943 0.01393119578761582 0.08800389564189147 
0.01085942498744969 -0.006674179055564976 0.006270687146762519 -0.06090442615642102 
-0.02501362029760274 -0.01387358552436369 0.05233489375689593 -0.001005029012686387 
0.05464449815210987 0.01874356755707982 -0.01176952706779579 -0.08937075803867935 
0.05023934884000898 0.006079760768744446 -0.02385834827081598 -0.02948545446806313 
0.09170281451378492 -0.02788174533000645 -0.05014842271814472 0.03480377491313949 
0.08798950722434021 0.01183011193761937 -0.02277429282209364 -0.03614602055653232 
0.01312695134678422 0.006920538210898635 0.004021188031696047 0.01633947502954893 
0.01390035002541283 -0.03853375112695687 0.03764680944491461 -0.01533515453126254 
0.02251498543920117 0.02334376985017123 0.05839071232545485 -0.09741981215191942 
0.05883500014899647 -0.05757176780012949 0.003619560435756664 -0.04866435619128923 
-0.0227951825973264 -0.001512642747806033 0.02159081770493143 0.002547931938890557 
-0.02824102275220386 0.04349102471539313 -0.1154071249042212 0.002671997248483472 
-0.04384802234025118 -0.02050375605913233 0.1073517483322016 0.02899004955215613 
0.03729928241524155 -0.02088072662149738 -0.03396551606817599 -0.02063486284418438 
-0.006379571344764082 -0.01182392380009784 0.0105672717873585 0.0249151119658559 
0.0206285208067868 -0.01900865534402007 -0.0246158549756655 0.02612552881878687 
0.01611651688706402 -0.06581290269117124 -0.007085167190068821 0.09533366789794359 
-0.0399222930436197 0.0275212906974775 0.0137758095667254 -0.02793022248914026 
-0.1086001757752166 -0.01601759277988625 0.100230098922804 0.03792443279556912 
-0.0005486206884659741 0.02697554844919738 0.061130129322637 -0.05505906086023782 
-0.01396575093808786 0.03355989401228162 -0.01934396105980726 0.01895706815039635 
0.02074528109477695 -0.002877608615754402 -0.02693128673171115 0.03351072094759547 
0.0259119958977688 -0.01576019064188281 -0.004490858340057385 0.02089102190573979 
-0.03737359935570031 0.06015516467238245 -0.002144239372544011 0.08547816588067907 
0.07158198276725407 -0.03075880445442175 -0.08049997252350914 0.006154029274236278 
0.0805412054825083 -0.02643560082704792 0.02711637516093307 -0.0628377763640761 
-0.05745913809934042 -0.02309331519794008 0.03339215970460962 -0.001394599363006564 
-0.007349701829958285 0.02928920672475285 0.02446720397320898 0.02552860896362558 
-0.04421144014976428 0.03641266632071011 0.02351048347522682 0.01719223910743302 
0.04362371729001229 0.006258097371009392 -0.0726694596965218 0.01055276885869498 
0.02614865071307137 0.01319926484947844 -0.03967968888185159 -0.01402787866289753 
0.003851367607655528 0.01553976159758878 -0.03913589577853217 0.001249110467947842 
-0.01824575896795089 0.08275488340653811 -0.03221209418216902 -0.03685119832891035 
-0.01716610885186472 0.002377949102856981 0.02901728652362764 0.002707401034050517 
0.09724352699362412 -0.005320289833572969 -0.04555981016751089 -0.06994408813190035 
0.01117297244964763 -0.04209972501776986 0.0391691763728717 -0.02935282910868496 
-0.1295668811577911 -0.05613444254917832 0.1292094783004963 -0.002431291711957966 
-0.00111736481503245 -0.07146241751780759 0.0798234402601783 -0.02513852582670141 
0.06073309090564698 -0.05501317173033636 -0.004087575036525543 0.01648936550332676 
0.03218364028965206 0.02267001693457906 -0.01371776301842157 -0.05313152253012576 
0.01938740393967188 -0.02069177957045401 0.004078274070902161 0.0002070120889803983 
0.06088555782705342 -0.04030235558833697 -0.02264400986557218 -0.02216771327422064 
-0.04001757158168801 -0.07230916007968759 0.04608212118606886 0.03301848355054129 
-0.108559249555531 0.1118974660588621 -0.06053086267910729 0.0883455537704529 
-0.03358445173013994 0.003650534446205328 -0.02536778968718187 0.0210441074462143 
0.06511639075663195 -0.0343869215090518 0.03966378456026563 -0.03189837427432182 
0.09231797397231158 -0.05098160212000129 0.02103416534988228 -0.001002309277664337 
-0.08332886091798221 0.05963633848577028 -0.05004821083720901 0.0740277647696253 
-0.03428611083308581 -0.05021104269786654 0.04060290187435521 -0.02151960691806411 
-0.01792005791994132 0.05853780284060048 -0.05032569593460374 0.01144696297158239 
-0.08120477315618557 -0.002498513800845864 -0.08777776861554144 0.1631969161726348 
-0.02678961534844952 0.03432378838026286 -0.0504080787533932 -0.0002512954029131048 
-0.05463294605559609 0.003919706461759461 0.04893523902584664 0.05257548021277877 
0.02213621896585764 -0.04518670906404277 0.03452029380618027 -0.006464379090684007 
0.05491659975950162 -0.02436132006979376 0.01751306764466677 -0.0353316974508202 
0.05320709239308584 0.03150772773947722 -0.04595249666644062 -0.02934330615150624 
0.05277133193761911 -0.08728217474330736 -0.08551771254639846 0.05528154368921066 
-0.06760634606002365 0.009677543202490606 -0.09950596550042824 0.1091792189774787 
-0.05346641474243174 0.0222553548228315 -0.005213640610776279 -0.009515346273312091 
0.01720433923177281 -0.02022978221226642 0.03861225418236938 -0.02465937663320084 
0.05468250374991154 0.0234996210251408 -0.06207815999239179 -0.01086230716857263 
-0.0502493724906551 -0.0207893074702822 0.06823610093910445 0.02589519162311723 
0.0589362932636731 0.01070631024739455 -0.04533504400962237 -0.0237468276744298 
0.005397349105416021 0.004656328509593882 0.03869370860576077 -0.04687206775012429 
0.03260331903875096 0.05510182079001845 0.003368836445767973 -0.08377203757046446 
0.003788388605470144 0.01344497065333092 0.01241430939373979 -0.02378613201858812 
-0.01340183773198398 -0.0561630824448367 0.01745461423930987 0.006201020960407843 
-0.03132013604393907 0.06876378578728276 0.02722101739402066 -0.0510659255581554 
0.05920635189839402 0.02299226581941816 0.006593776519562877 -0.05869568733670017 
0.0252446461043672 0.01648887599861279 -0.02397447643065705 0.03705704101534397 
-0.04597331585864496 0.1432421968472052 -0.1623596233502437 0.04838150779384386 
-0.007223007740922288 -0.02520047453890598 0.05245645002369687 0.02868658030680643 
0.01509816370236072 -0.01262785040153822 0.02796627517594169 -0.006546079786876505 
-0.0002903128181429756 0.0001348732667681901 0.01213776222284398 0.002199207485698041 
-0.03311290719726234 -0.01554178580279076 0.06044434433697791 -0.00441524172442626 
0.04711163666774264 -0.01754896107287284 -0.0006692132942298535 -0.0294464860793569 
0.02128516956472469 0.01367206041433508 -0.006275202832672694 -0.01524879911022592 
0.06878708300749201 -0.00217262424444785 -0.03186578564521263 -0.02990183647137803 
0.02163789597401464 0.001778634033448619 0.0171029083152111 -0.004940948792415429 
0.05203503869685482 -0.01149654338860975 -0.02435660826858648 0.0009412192902097884 
0.00428545739629249 -0.01464693027824194 -0.03039654845746514 0.01848489707528981 
0.00280986591210667 -0.009043996969776881 -0.06100379351310118 0.03151855010205273 
0.006838061651567071 0.02417252353074692 -0.03294164932064082 0.01795214089530392 
0.1155668895241566 -0.09657458570296146 -0.01142175431265561 -0.07210364026529689 
-0.04178273314619973 0.01456390917269088 0.03384666365478869 -0.0002733752538926549 
-0.08940400298389717 0.03705970077523686 0.0276694862450973 -0.07341533100619108 
0.003061108478156323 0.04067203801016582 -0.01662383611849956 -0.01727091950676132 
-0.02444841436495482 0.025748837484623 -0.02194719491403982 0.04425279121648153 
0.01493363317083736 -0.02863996222350348 -0.03312451577886087 0.05227286707632309 
0.01725022410471161 0.01687645805175491 -0.06746152966915311 0.05484359112959311 
0.006710895389948499 0.009555526313042156 -0.0183336416549341 0.01757848689031825 
-0.0299840575234668 0.005415634022952108 0.01317163401956517 -0.01601827224228199 
-0.009617278563379713 -0.01626739936962067 0.1086548760842842 -0.02815744895566331 
0.08981459037338382 -0.04706822176176829 -0.008318447310174205 -0.01922541622557682 
0.05533976376120889 -0.06054575486587316 0.0446680172687911 -0.06360135181446437 
0.02755855225622274 -0.06725288661638051 0.08406227908384541 -0.02810072184330025 
-0.02757482422294272 0.002371370784489406 0.004767604112317545 0.002649249504237992 
-0.01770852388721295 -0.01656093162739727 -0.01566408100395379 0.04959822746694759 
0.01026733472811724 -0.05286468189213928 -0.0240348969648507 0.01755976895132771 
-0.02794658056454857 0.03707100548557105 0.02720063397758242 0.01730786200330554 
0.03181088220814057 0.03855228805257709 -0.06008292500968693 -0.001824773337369647 
0.04802513030859967 -0.05717361018490169 -0.01304464677913217 -0.07113240095550442 
-0.1107052270988045 0.04076764590691488 0.02925961299822034 0.0684454083250446 
0.116106189012179 -0.07406430054698976 0.006490422651214306 -0.04095635201869292 
-0.002753451529004257 0.0191325826967375 -0.02603335730713482 -0.002050564739212285 
0.04062430877957902 0.04140977658605403 -0.002251502431272016 -0.007912505573213841 
-0.02300850041325382 0.007871968792635374 -0.0469833390550235 0.02612548197212884 
-0.04581451585641531 0.04010571770156506 0.05680420682288098 -0.01626443625682279 
-0.03741498672510395 0.1014086162242529 0.00765606770615241 -0.0227784430031052 
-0.03382322602257961 0.009200193031382644 -0.002248106022696003 0.04870170938873377 
-0.053782500112281 0.1175403863531787 -0.2096842798842173 0.06445126289076737 
-0.04132598720275222 -0.07081870095362822 0.06141276319970403 0.09271347703595655 
-0.0109347834144074 -0.001016237036617866 0.02435254460600552 0.02091257606414595 
0.03075302496054189 0.02114958654510074 0.04677664315296379 -0.07420812624013463 
0.005224174487717552 0.02956375270592802 -0.07075992830652827 0.02703632965771702 
0.04258700826462052 -0.02774514520539887 0.009041842704997902 -0.03262909371694352 
0.0160588161035874 0.005819167169066997 -0.04580130112482502 0.06698977078432775 
-0.01519606211368235 -0.02076573362480722 0.1017545871863384 -0.009894558034766266 
-0.08715420217616081 0.02374012140083896 0.02858433677185729 -0.01172473925648206 
0.03924219241894464 -0.03845636995117468 0.01097489939010247 0.02516602369911679 
0.003321961829574152 -0.002931484297662014 0.05697180222712019 -0.02951650809110647 
0.07474135975910577 -0.009041517733613435 -0.01593575195251191 -0.07978185633721495 
-0.01759134185743343 0.05369004044939956 -0.01185963898719939 -0.002236614097714695 
-0.03232996384599705 -0.01520353363661027 0.06248255364694007 0.06077433866836057 
0.04773910028975491 0.03425387079855072 -0.01167294880661093 -0.04468094095140971 
0.02540545631485133 -0.04901525648025305 0.04667411196357005 -0.001738768541336984 
0.05850258419841032 0.01295194706515208 0.03166745011587037 -0.07076153092266989 
0.05904816232006639 0.001192428779772421 -0.0351382452852734 -0.08126416993010271 
-0.06372882608178561 0.02534272675011587 -0.02422186308170896 0.09148475977416017 
-0.06069054750750247 -0.004404699141371403 -0.004063557151264488 0.07206761851705125 
-0.001894743577508865 -0.01102810310971277 -0.03145216411065729 0.04058809532457022 
-0.004774914173150648 -0.01619213877731454 0.01342241782593181 -0.01654031409015913 
0.05346680450226224 -0.04427546821394156 0.02215820602108194 -0.02982720570821977 
-0.001878277623194461 -0.0128014142336456 0.04121280795596106 -0.06067774790309133 
0.03325544680671125 0.05909155587190666 -0.07821623947157227 -0.02112158004973265 
0.08848620546048611 0.004173730334567089 -0.03479090851892482 -0.08177021335100135 
-0.04072976703000959 0.03347300905331269 0.03128286136911863 -0.002987121184019179 
0.001900304807153453 -0.01691459927269669 0.05284878545286303 -0.01297969340289027 
-0.06200676807233228 -0.02040085681909546 0.02084374206535104 0.01921481361269468 
0.04453070425927186 -0.07387578360850638 0.01340958708155081 0.04233596385811807 
0.1058234043906099 -0.06345180679172831 -0.003074581209683203 -0.001291580846318619 
-0.02111578754772921 -0.04133483207229207 0.07060940129590791 0.006175985448243412 
0.1004566502580707 -0.1147600545381705 0.02079928626532519 -0.0707478662704959 
0.02474398723742895 -0.02358930158433158 -0.01731454612627335 -0.0002191895861193315 
-0.06924672646620043 -0.05655524903298025 0.08444406234430785 0.02077267056527099 
0.0432099475578086 0.0626830132303175 -0.1180714819604385 0.0267613715483571 
-0.03606757052776728 0.01817701570561005 -0.01000169258277422 0.00159469442035686 
0.05426734257621315 -0.004185301072924736 -0.03013442288935044 0.01306466804296988 
0.01419773242714902 0.0194461038215858 -0.06543411327539132 0.01034535890646658 
0.05148184229359545 -0.03041800942514215 -0.03894712915319698 -0.01489793760083222 
-0.005968490778427448 0.05719554500693677 -0.01534187507381782 0.009803656396430637 
-0.006156246927105128 0.008499946967505957 -0.01065358161590058 0.01961127412687887 
0.04851739547865146 -0.06637008089200092 -0.02605335677777837 0.02411081190407436 
0.05320797104703438 -0.07556334678053664 0.04861060983416665 -0.03093539423379321 
-0.0329553650419872 0.01107819237541474 0.03106262258990837 -0.04566283317787552 
0.1259979228926419 -0.03658134427744721 -0.02891688259419899 -0.05913874291757883 
-0.05954792546219034 0.02304302009708325 0.01940763903849062 0.01132502661141438 
0.1432520746351575 -0.05714044239689669 -0.01774525463245679 -0.03609119795915291 
0.06423129484310917 -0.1080890690630727 -0.01150544479214237 -0.007571661147812076 
-0.02015412388590792 -0.01365163101870673 -0.0378465379255703 0.07180049798010329 
-0.03032394963891229 -0.03070799687555322 0.03665425187874456 0.002978108824828977 
-0.08580680955765166 0.01997476754160688 -0.02184218335348714 0.056925224868464 
0.0270155083512315 0.002150022439499715 -0.01788369089339155 -0.01614250887112774 
0.1903552132898969 -0.0476201541905553 -0.05515924420505375 -0.06518821849893633 
0.1117949085512083 -0.01083754462762487 0.03145279306740382 -0.107016110366101 
-0.01511828030118253 0.04028795495033958 -0.0244221506577249 0.04755639570885321 
-0.05717272503496417 0.05148667556025082 0.01345998645116536 -0.02704207331952582 
-0.007559441851308784 0.008289365454484759 -0.01890915415323343 0.0009471937210448398 
0.05841322616705327 0.004380557747980796 -0.006762788927087978 -0.009823016779101397 
-0.01483357184533778 0.1103203554284939 -0.05965859074157448 -0.007777002816715646 
-0.08820983109031703 -0.0242605177853741 0.05985443505620882 0.07189694831375328 
0.001664636664617655 -0.04939777705317606 0.04520061303422291 -0.05922737774877122 
0.0113584871388087 -0.01875875358954214 0.0369376428901158 -0.02189099917237174 
-0.03952921658399261 0.06121280281429575 -0.0004509591994506086 0.01508785905289085 
0.02452069686775652 -0.0526001309147611 0.05462667147835486 -0.03266963256384082 
-0.01661041540536801 0.07137211850853417 -0.05362772218801343 -0.003529179704244973 
-0.01733398135571509 0.02811649556466154 0.03445885696605795 -0.0381171805806363 
0.1014387103513119 -0.03657686764278457 0.02296114484496989 -0.1464523317692642 
0.05674439397349743 0.00145642091326226 -0.0005465135103064881 -0.01361881510323384 
0.01301266390106318 -0.01703083151971663 -0.01784587047558457 -0.02033143037129195 
0.07452583497421998 -0.02792092014614653 -0.003945634349021936 -0.02661023047616101 
0.04702502161046462 -0.03697957841913517 -0.02130293959395939 -0.02567773480386269 
0.02546562691453971 0.003772644751135727 -0.01277211197295439 -0.02456742450946535 
-0.07876297404747713 0.02883208239566566 -0.03632017126687505 0.03295726404357061 
0.1496193218335955 -0.08471119757744604 -0.03836306283768458 -0.05847544433959342 
0.04418960075592993 0.01805533785558345 0.004214789302510982 -0.04785254960946205 
0.1524038953861039 -0.05440318217147719 -0.01051501683942821 -0.1194852280949955 
0.05568574977335618 0.01405457475060747 -0.0276728347911336 -0.02276487608130221 
-0.03181707658755743 -0.02327995166547158 0.01300843641681395 0.04426927096233464 
0.0712264111816707 -0.0968327032427047 -0.0191787851545538 0.02241528784709114 
0.05450482368362698 -0.05605719836975109 0.002040011173018735 -0.03541749519129345 
0.006725737698840414 -0.04235904979338374 0.03794563074438009 -0.004274150496996166 
-0.06860783240735732 0.01684914407359116 0.05655648560499042 -0.03041204323247471 
0.04818238541045821 -0.03313848216864743 -0.05699126004028016 0.01836005000559041 
-0.0504028864426865 0.002841065620741208 -0.02411459371781254 0.09824498610007373 
0.07552481011806367 -0.03724770943675777 -0.03662330501836047 -0.01483637469158296 
-0.0217225839433554 -0.02844928761994631 0.02819896617459228 0.01320075622938169 
-0.04535203227721303 0.001305080914626221 0.08216514143093057 0.03759669102537865 
-0.003402592445071556 -0.04240781282659849 0.005731010997927665 0.08047075513443137 
0.02367620704162636 0.001816905110342486 -0.04050502731413052 -0.0331501350642331 
0.003577670183068822 0.007619307011114603 0.02541789198640917 -0.02439795320972695 
0.03123125039624083 -0.01049655083787544 -0.03811495598257138 -0.01431817158105517 
0.007675245424299933 -0.00620355292792266 0.0006471488275524385 0.01054553912169933 
-0.1084793514068087 -0.07014218543078862 0.143723876525726 8.861640925584577e-05 
0.1206831965499854 0.04161059977594239 -0.08254391491622583 -0.08346181236024934 
0.004364214515367783 -0.01744171177764286 0.02873332756602968 0.009373385388695405 
-0.0209341272149164 -0.01324244983311902 0.06055303316491153 0.03537277860161663 
0.0112295009770511 0.06851728306372565 0.06508081213060278 -0.04617911272307337 
0.07379796994702696 0.009277817755281605 -0.07561238981497731 -0.03951960755703798 
-0.05966416381383909 0.04766570622055761 0.04024459856354642 0.00334569545716298 
0.008018742376455888 0.04340936657988406 -0.02172499741030198 0.02129221451870417 
0.1041094503125673 -0.006828710313850571 -0.07213044934751543 -0.08072346926622648 
-0.0318080371586278 -0.01098813069669287 -0.01425098710211942 0.08291412838952744 
-0.03152331767346397 0.03944912349091489 0.001886902555037261 -0.04618363978384793 
-0.001595115114430171 0.05518113104903018 -0.0400956086396998 -0.05077020464593193 
-0.04230206461112798 0.05992597821034201 0.003845550923182483 -0.01383961524334183 
0.004964292413819419 0.006149270706428115 -0.02449592775553424 -0.001788027737373047 
0.05683704735657943 0.04197468422463284 -0.02135285079092736 -0.03823023714503063 
-0.009618147921942169 -0.03976881851802257 0.006565706300990915 0.02394873747390007 
0.1537180370987197 -0.04820044219788987 -0.0245849486370336 -0.03828189428038542 
-0.05247784840679902 0.0249787575477881 -0.01332203022259817 0.01157116559763376 
-0.03156148260075292 0.02847593224662762 -0.03527898624288555 0.01478296141403635 
0.02396667661756262 -0.05126923060200063 0.003806300818217206 0.0161540997863398 
0.07273593489694766 -0.000252246626499691 -0.01516068530756176 0.02647187448667864 
0.103131467842006 -0.04422718604707868 -0.03516404874313718 -0.0444038380497509 
-0.01527579423054994 0.03066872495176355 -0.06820638130771278 0.005996720200723555 
-0.002112537017701217 -0.01830519554849176 -0.004343831771622888 0.03121735837221714 
0.01600785892373671 -0.03161779368747801 -0.0334026833220667 0.03275170798202171 
0.01295060120457912 -0.004638429377352362 0.09526981432827662 0.009934850267897007 
-0.06043345034263078 -0.0334374710286606 0.0179056155654104 0.1420799077049648 
0.07950865360253706 0.029785261416451 -0.06620730266127903 -0.03202288572672243 
0.04376712878168577 0.05590180530347011 -0.07840534664239907 0.01213831360011909 
0.06477808045557969 0.0211797100647455 0.003834632526083992 -0.1245584019861481 
0.0578578331321862 -0.03114288520842673 0.03743503899269664 -0.1101531043441473 
-0.03212073609030851 0.06042826708537607 0.04143037620187948 -0.0840804670971135 
-0.01674751222154514 -0.01107720753819466 -0.007490678757973566 0.02247189739820958 
0.04502258362690201 -0.03467889755846012 0.02148737333501772 -0.06928597687387299 
0.01325306718249205 0.0309560916885244 0.02594273264026487 -0.01950650470818454 
0.004317722369014883 0.0340095922637879 -0.03927348533166732 0.07371426315349779 
-0.1234665308422124 -0.0520370899484607 -0.04640073502873949 0.2566564382764294 
-0.06315720733805112 -0.0006420768296449027 0.02521384596232508 0.05752445568252918 
-0.0962223242320059 0.05745353615820808 0.04375067694762948 -0.007548780581706406 
-0.1044661449304598 0.009858188608098211 0.0760214933235778 0.02005159004103301 
0.01353025354282649 -0.0349598341702926 0.06189195737701902 -0.08018251239446271 
-0.08622616237929125 0.05330682778688985 0.05479897636796944 -0.04825488693941343 
0.05941354842390298 -0.07927878967586516 0.02682797215345519 -0.03265440460841347 
0.03681889433701233 0.00539708187011919 -0.0758628787140033 0.009430845980091578 
0.04138577253901117 -0.01516764185199435 -0.02923621391602226 0.02949449436668766 
-0.01477278086000149 -0.07353209812491024 0.05199810853290813 -0.01332001808051485 
-0.007501308475594693 -0.06225441351524073 0.1193801268271433 -0.08289388324371215 
0.09528503589360472 -0.03211230244009165 -0.04321308864065772 -0.05572264071792162 
0.001901671716881092 0.04974699105545541 -0.01934403973224523 -0.04042931713635792 
0.08585681598341098 -0.03553143503925937 0.008013024857621349 -0.07118070333819027 
0.08004153780189224 0.003760980925325612 0.0008306024097656209 -0.1042042594586713 
-0.0280839941270685 -0.03070140203062732 0.00738428407725232 0.03539053294152007 
-0.03616082082523716 -0.04728998115832493 0.1136258344627081 0.006071626351777524 
-0.03914932911680431 0.1102926012778054 -0.1068465695707764 -0.02393679650176017 
-0.002228771731249883 0.05789519932584693 -0.01412907127626669 -0.02766956412164352 
0.03415323011080323 0.0149595880332159 -0.06446379252251538 -0.00432027466338769 
0.05079747593518023 -0.006976824465105023 -0.02260428403539222 0.01237761575245716 
-0.003367892815635364 0.01838886998653805 -0.05434412741559588 0.03180990386110352 
-0.0005679695344700281 0.07197137513664631 -0.1318968358236718 -0.04320998564114054 
0.02255673229087057 0.007690229899096555 -0.02532534334556167 -0.03920045771602371 
0.08869064323930034 0.01776681240810997 -0.04795813091700252 0.02373905216769158 
-0.0001922912236042562 -0.0544720166101581 -0.03779779417163877 0.05469223672460395 
0.0009389006086905018 0.06493832579037453 -0.01924882696186036 0.009581235159531826 
0.03002638638028423 0.03257471472983255 -0.08394791993453696 -0.007873293403237627 
0.04626326315547196 -0.01078097852425693 0.007480213368655017 0.03178926233094551 
-0.04089174960142322 0.04142465046553924 -0.02390415092831534 0.04540120725658994 
-0.02918960368857664 -0.005264525535254655 -0.000494324074299779 0.01366468438956257 
-0.06711309843641484 0.001610891366336584 0.08546311395411982 -0.04146273462891909 
0.005437478572918771 -0.06314655006793601 0.02903886292912388 0.02113633173269463 
0.01871816097898857 -0.03683026515763417 0.0354918249749195 0.01952851837222064 
0.03954415365788523 -0.01229257981370749 0.02930291615339953 -0.0722152466081834 
0.0001741319905347357 -0.03055243513580913 0.02311935849642254 0.006354321744080348 
-0.01109818134837733 0.06082596132570883 0.00397835080174096 -0.03101817526075891 
0.05282089514648362 0.06792670314993347 -0.08853465551189731 -0.002352214782086009 
0.017281639805658 -0.06330406489763579 -0.001440712380208054 0.02261534154980429 
-0.02793751969379662 0.007673522153028039 -0.03061180251301775 0.01044708711006875 
-0.00627359274849042 -0.02489690669680084 -0.0899724093973784 0.06776221842423095 
0.1042220808627333 -0.08854778732945719 -0.002944185970768796 -0.03804501543723685 
-0.03580159766861445 -0.004111360681596771 0.02959390184965599 0.01629313864233283 
-0.001418440506037341 -0.0106380273311394 -0.03733938089989969 -0.01447882952167076 
0.08623160336548021 0.0240006914992635 -0.05839673958839543 -0.03136417252338045 
0.001850251780215668 0.02389574273199946 -0.04100671613941041 0.007013041753818183 
-0.09575235672360591 0.0387320147294796 0.04348690588590914 -0.05247186509257377 
-0.05567860311766993 0.04672634200108197 0.006159849464658353 -0.02606537254923257 
-0.1053736151855408 0.05039594444821906 0.01924254455986037 -0.0217006209236664 
0.1051148006389776 0.08604833332663042 -0.0388774581515488 -0.05619558524441729 
0.01775238413050893 -0.0417723972892482 0.01394231946997032 -0.02441915601408644 
-0.03177217782542629 0.06712823245226256 0.03884841754651475 -0.01585386717766288 
0.06936109910344494 0.02749382444843301 -0.05619479052936694 0.0311239850309911 
0.002561780001183696 -0.03674054510416468 0.1237427563078327 -0.01640375005475207 
-0.06276171543450915 0.0194757340831493 0.1001743200051785 -0.1042427374884813 
-0.1038197507360754 0.04640389986362014 0.06607883388730133 -0.05093361430254483 
-0.02139564373389669 -0.002332638716402195 -0.01334253032951704 0.02939931268248819 
-0.03790780385658727 0.03455326334035878 0.07274988678779631 -0.0700900657457028 
0.0137644489682277 0.07122972932853897 -0.04554245917708565 -0.05773108824449489 
-0.1375982976496162 -0.02558786515029306 -0.09003233736022999 0.2650086922302812 
0.03174168111753965 0.05454710826924503 -0.08031829659270355 0.05418425402759795 
-0.03401910045367192 0.021783131228965 0.06466496831056456 -0.06394161325248839 
0.04302009801672666 0.0006880537350286956 0.03046382476731883 -0.06266216575486828 
-0.009983933793550252 0.008581550575631444 0.01153584770026188 -0.0655729308101289 
-0.02047318231456494 0.007983331518398159 0.07096390017888791 0.03924012376309271 
-0.02947297828551269 -0.08561568018953962 -0.03165104462192488 0.08757509557239328 
-0.06527565326146488 -0.08894320917264457 -0.005009477231097108 0.1348974802226372 
-0.05490366827654029 0.04844723010422382 -0.04782939852936288 0.06217076772334201 
-0.005949843963523727 0.07316181585650997 -0.05324297007082006 0.01977560804094833 
-0.07223940288801822 -0.01039619683342979 -0.007851555833295505 0.1140071505666425 
0.05402756830808374 0.04242605467884682 -0.03290954478573214 -0.04580546017561948 
0.01413814334666287 -0.05355420598348173 0.02784112678098214 0.01157342568189228 
-0.04845494375880863 -0.07160452876535391 0.01498094811970586 0.10493071264849 
-0.1010908386323197 -0.04961281945031525 -0.04149764377489226 0.08109708182173853 
-0.06840092259345483 0.07651238883267249 0.01591298404381463 0.03913826628536433 
0.06283769179476938 0.01567023553899269 0.005124035198196385 -0.03620771469731669 
-0.04049331541930742 -0.06287295647328998 0.09140009590095344 -0.05420693139793809 
-0.02706940489324507 -0.04109059795928624 0.1007289602545183 -0.03790817958005793 
0.007161670572400133 0.02680260000733054 0.015267362789289 0.04086607204262406 
0.04917369251504431 -0.0310376050051662 0.01542214947620932 -0.0009654226273498827 
0.04103602513407685 0.05448146194238707 -0.06043992549607809 -0.0108566324063083 
0.01332519075337216 0.0304665561481137 0.008483709576107248 -0.05865573137223175 
0.1060297628975248 -0.031548880877315 -0.01310858489463122 -0.06240756643522438 
0.06929242694112284 -0.03783217473605114 -0.02676429939447776 -0.03214890039805009 
0.05138595377598317 0.009259937646345275 -0.01075780510744988 -0.01139721686345135 
-0.09287688357859945 0.0768049783601613 -0.002311766299925916 0.01311811351109426 
-0.01793087647261897 -0.04420043152868795 0.013854727432507 0.02041271456379951 
-0.03931646524606612 -0.05045565665474643 -0.002399522750128965 0.09729556217540652 
-0.01123566720495706 -0.01892239487279002 0.07431148398386873 0.008402173169869395 
0.01542355079839529 -0.02385403082021731 0.02834726595798513 0.01148062874633545 
0.007125227455702594 -0.08663679823456746 0.1032390539733613 -0.02804189514826195 
0.1238062930407385 -0.06216465663074145 -0.05612344632022302 -0.01552107038307717 
-0.006394110990849547 0.002253376270525351 0.02170977350222988 -0.04373810012805768 
0.06843560115030026 -0.07720948371305919 0.07161379914263677 -0.08247877216902885 
0.03130686966606678 -0.1029555031587816 0.1436939553277981 -0.03103558921721288 
-0.0276451586880905 0.01320713829347299 -0.02621487269539529 -0.008543703936256619 
0.01752318719440311 -0.04424944673376068 0.03810384298005496 0.0400604444780556 
0.02790122417661928 0.001424379858045817 -0.03659191671909116 -0.04466800956026482 
0.01300448841067375 0.02341540891624755 0.02692873480293176 -0.03544418055047473 
-0.1156239613865594 0.07464034063587031 -0.1038489192003527 0.1356274082511701 
0.005561876401962953 -0.0406372831273208 0.06996530476436309 -0.03967059006350877 
-0.01339386892632726 0.01021822653804265 -0.04327363500567329 0.0501924811026242 
0.03906350595736929 0.008311939669707166 0.0136218240187384 -0.1090630897724865 
-0.02000016382276399 0.01033449899402013 0.0173597217929899 -0.08143227615722362 
-0.02189961661703088 -0.06250748446801183 0.06074245399450401 0.003802343115150423 
-0.0003820835294795523 -0.006705294468622294 0.02714912046168005 -0.01231020936129029 
-0.01538326154440619 0.0366773678060214 -0.06872444684005123 0.1091376228939173 
-0.1067222766571733 0.0382121285059978 -0.00987325014729447 0.002205997603555111 
-0.04966346740476286 0.06530960516214719 -0.007210787420726424 -0.04787150873147429 
0.02234982168864984 0.02592090709859396 0.002535149750595493 -0.03101086401272973 
-0.007130333427225495 0.02687161311204235 0.02120019156823624 0.04456666210515342 
-0.05942680417666639 -0.01153063270041425 -0.002725410213192682 0.04125575356767122 
0.00576715140749471 -0.0358188558336657 -0.01402631534006498 0.03702560477130428 
-0.04023431985320395 0.1101526152693947 -0.07097545886790219 -0.03119003101699682 
-0.01081530656345229 0.07724150323974448 -0.01025921032307912 -0.03114535734109068 
0.02594206737378079 -0.02980445230582197 -0.0163935097619468 -0.04732528722700389 
0.04359947226303929 -0.04041969800245805 0.0206001590281725 -0.001749227227859233 
-0.01619697086274544 0.02468273845012175 -0.001311411903751471 0.0264734115699769 
0.09010283319626995 -0.05392324010797403 -0.03013384145602484 -0.01995746444610949 
0.07000890481986613 -0.02492807210644716 -0.03006778073879403 0.03126201872928606 
-0.02865020515474058 0.06644300084219086 -0.06660357126037451 0.009277765086139266 
0.0578048743699612 -0.008544579552625971 0.005841860597514743 -0.03543454949092673 
-0.02153459909063263 -0.05816384964781208 0.04821120655412787 0.02822737052889153 
-0.024354272305198 0.02791206365242179 -0.04002265032342207 0.1061710582120928 
0.04767102515052986 -0.04441516301482855 -0.09469567832612062 0.07536383117290786 
-0.01855275022583015 -0.01580686483496965 -0.050402474679051 0.06685337587603586 
-0.09375014459297469 0.1335860162835694 -0.0008229665095242086 -0.02689130911943749 
0.04160092423095416 0.1117591175592222 -0.08532632126299843 -0.04402711755912201 
-0.02466803839637264 0.0688847997979104 -0.01926456298960185 -0.04431016579180986 
-0.07568203356912308 -0.04416420293505273 -0.013875460758527 0.1045277914653941 
-0.05105230581990599 0.01219697792968777 0.09193691759443859 0.004728640998516186 
-0.0361981667057913 -0.01362983227564413 -0.05169027687207992 0.1046155808032957 
-0.05387705241730918 0.01360341307361139 -0.1183142499403209 0.1413896120972775 
0.002994111592006765 0.01940331187542156 0.00912089572334979 -0.02209585992750458 
0.08524454368344529 0.03972560478257856 -0.01177143616943605 -0.05747860232651742 
0.000736321991715221 -0.1578440861251743 0.1645780101725238 -0.0370229547491975 
-0.08279973790626405 -0.06684776077464545 0.2444632532592063 -0.0627057505230644 
-0.02975030516331584 0.01908152650621705 0.07913958079403011 0.01384952496416596 
0.0273077538815548 -0.01193756059197503 -0.03346068280573186 0.02087282190332485 
-0.06624092729265504 -0.054460921920976 0.1660330117689464 -0.04653974429784938 
0.01507724201306451 -0.06030389161899876 0.05675766302267365 0.002396046188711647 
0.02390908482849903 -0.05741358475548865 0.03099166132269403 -0.01766514764422358 
-0.01721853230724067 -0.007205601484279362 0.002247387288779032 0.01341821573325116 
0.0997391577561615 -0.09885401339732273 0.01655851762518851 0.004497057580358175 
0.0316795608916744 -0.006973132990325689 -0.004021830727747472 0.01988354919430124 
0.03800197861796462 -0.03126936994822974 0.01154821057014255 0.03247552656428692 
0.03519787478056271 -0.02975859616046755 -0.04991301283332277 0.1061831566846174 
0.06916224726954058 -0.01538397710827464 -0.01183284756687222 -0.009753428811581798 
0.008314325654547905 0.0369746554497906 0.002376508718757373 0.01235406102249775 
-0.0215155051577868 -0.07487279732435101 0.1029230059637977 -0.07152283513670785 
0.07405915039692253 -0.00315906102162382 -0.05327478191922622 -0.07823500406470477 
0.09162107555008522 0.02674234201019457 -0.06176720637560342 0.0301047250114003 
-0.05856187267748592 -0.04143066450737287 0.1178155400240156 -0.01358490953669697 
-0.03067264157913166 0.02140863140731522 -0.02164755999085962 0.04775474072441581 
-0.03964510844037338 0.02899970969797247 0.00547393119364708 -0.01906578259633535 
-0.06142843517036061 0.09023915552066485 0.07037396672363748 -0.005426848002506156 
0.01489160587176536 0.03822541917544654 -0.06710849232835156 0.05796911592057308 
0.03268513220990586 -0.01163712501515819 0.03863789947244439 -0.03233672979094703 
-0.1342821122138876 0.03607956060392765 0.01997450548853821 0.09554685187674704 
-0.04618764328697944 -0.04211926410108727 0.02413582673090098 -0.004254088808370702 
0.008653778436752102 -0.00669811227203609 0.04245773321701344 -0.001124981371441474 
-0.02699577730810206 0.1120948973632322 -0.07085006692745426 -0.0001465703091362048 
-0.1887712387097391 -0.02129885325300421 0.1315193818721627 -0.02741757333884167 
-0.0350537800401489 -0.07432680759920049 0.08555875634202283 0.03840161328913658 
-0.06774988903245756 0.07722249758756751 -0.03575557793705408 0.09523034465990976 
0.03626831135445722 -0.05710078521136955 0.0278092328661427 0.08847987577875595 
0.1270585769747997 0.07335412072750555 -0.09121948155716095 -0.05880234511560471 
0.08508689562734377 0.02766228757550345 -0.008618358197734285 -0.09197684358765232 
-0.05786664609228973 0.008337985076549096 -0.03347510339164108 0.02823622417792454 
0.04175760375232723 -0.02235212534196965 0.04848360434226721 4.855669774859457e-05 
0.01807224106599385 -0.04474393127355979 -0.04748869483458633 0.03515015968667516 
-0.08832264384373745 -0.051443035055776 -0.03225487006975591 0.1332934618961029 
-0.0819857859444217 0.04753822927203919 -0.03406491751992449 -0.00430406648246091 
-0.02376593980310597 0.09477409746738334 -0.01671442722649652 -0.01844319345595664 
0.03787231042353345 -0.0005982320610324734 -0.01064148252911055 -0.002712395504346793 
-0.04255287087747046 0.0444782867587012 -0.01086754508960763 0.01825739317473815 
-0.09599990770343925 0.007570532056947308 0.06167156971248432 0.07887567856792092 
-0.02756782270719821 0.02277311200649689 -0.07822605687577186 0.07822945770197449 
0.001947897557471699 -0.0829418313223716 -0.03386318317676397 0.04217137340302655 
0.007929778948960308 -0.0237541721477192 0.04941666297608573 0.05677553623512136 
0.07180484545485843 0.007918423663615066 -0.01288482494357373 -0.06616979290644658 
-0.02253194331020357 -0.0417722623448246 0.006202478421958034 -0.005078046171473099 
-0.02155606479454618 0.02317820042021846 0.01084313793268064 0.02014235382107962 
0.03421609003070081 -0.009585687314947054 -0.03666121692834962 0.03068046489236758 
-0.007094638989286305 0.01782526426059394 0.05202657041654429 -0.005744382937692348 
-0.1411266573056846 0.1119437935520606 0.1038375307659956 -0.09496458388634221 
-0.04523649170036985 0.08593414057131858 -0.01622912798305443 -0.08005645340428824 
-0.02280271396772231 -0.03760354111365427 0.04801992122143599 -0.009320677400949903 
0.0367159540376954 0.03453850695601966 -0.06764008707151149 -0.01721710361829303 
-0.06607162095962889 0.03284971570324949 -0.03892573265764155 0.1106542673599741 
-0.003081764349834133 -0.02816741032856002 -0.1042172582948347 0.1234527678499511 
0.1489395953303316 -0.01604650767047747 -0.06183332240098599 -0.03926192555464618 
-0.05027509964999446 0.07038108424959717 0.05057550956457198 -0.06853264690085341 
0.02276485212230212 0.002058076989890915 0.0133445085859874 -0.05509038130055464 
0.03316615342492674 0.01528183716820324 0.04463120174771001 -0.04276316278303433 
0.03213972229693578 -0.04182391225369522 -0.005530900894722728 -0.00166058663174617 
-0.08677185892215221 0.01589457240428174 0.005948415293992527 0.07520452145655905 
-0.03468749038385917 -0.02173906517131308 0.1006928277327766 -0.03034870881885349 
-0.03573782420110912 -0.02953697489306859 0.04340223440674559 -0.05930217968861932 
0.02250501475374505 -0.04550059053149585 0.03326169511959746 0.005211100638928496 
0.06754600992359264 -0.0599086878342981 -0.06013280215640707 -0.01125393587314398 
0.05393316227802351 -0.09865642690570502 0.04990601957917217 0.01289561408870532 
-0.01989746075686528 -0.03559232599750463 0.07076472999053274 0.005290798838897985 
-0.02273276891564727 0.003863609664640426 -0.01024452163671283 0.04166742228442182 
-0.06189806489521034 0.00328862450907812 0.01603283827586761 0.07168807823603759 
-0.01813746126335211 -0.03537409847347368 -0.06291151416210794 0.06476003380799185 
-0.01818419636288336 -0.04365925164620075 0.04152642613520772 0.04117879547920075 
0.02221792315630246 -0.03112312809406221 -0.03185779024432724 0.03387473128301409 
-0.06586349713070347 -0.03318168186553967 0.06425360389716669 0.09279080497207209 
0.147929373115718 -0.0109410670349033 -0.04956035099411657 -0.1092721326690133 
0.04022338114494257 -0.003873742376269692 -0.004251194710621443 -0.01419853648103155 
0.09973107549831345 -0.03863792200560184 -0.02361451057947481 -0.01021271892289969 
-0.00543241228362852 0.01208496218448599 -0.01109491681347424 0.01370499805015182 
0.07052293906992303 -0.09396972966376736 0.004579663337767332 -0.00940734228398857 
-0.09466317082817398 0.02299921529758032 0.03505288252229218 0.1160045832715109 
0.05637113470396698 -0.01292785174105767 -0.04983944379699445 -0.04241508360494782 
-0.05560127315709096 0.03654132867482293 -0.02253611211815855 0.06344974950270078 
-0.1096434021185488 0.02344983857544456 0.03671890377759485 0.06295471528986622 
-0.009684570463082045 -0.006545947475488905 -0.003302573308515252 0.0008104088438727302 
0.1587152862971478 -0.05191595722627682 -0.0319676212722953 -0.07705256330411513 
0.000980073261970342 0.01629838199610356 -0.047727835557522 0.03313276148070671 
-0.07331585067013205 -0.03443052435770849 0.07009704405157172 0.04591358951514131 
-0.0356504989530173 -0.07298158438343787 0.09046531936620074 0.02705474931046304 
-0.07091828322476226 -0.0528805969416391 0.05825803229751998 0.0466934176036224 
0.04340059417924255 -0.05711716666132991 0.01959793139187118 0.03098661212433487 
0.02489278180561743 -0.01848936648937314 -0.0387608393357884 0.04626523437063839 
-0.02072576091312641 -0.07758351938486568 0.08272929062524295 0.05496397011191888 
0.02128740476080851 -0.01235162027008792 0.07164706367216861 -0.06662279701111626 
-0.05168001965700538 0.04026338419436163 0.04870774646122176 -0.003068566795425652 
-0.0230650717082915 0.02797639524377196 -0.004387665209069938 -0.01899007999422392 
-0.001605449602407685 -0.0654377019800936 0.03298737356219689 0.02326498343475208 
-0.02606152887087168 0.06097898881179389 0.0008339788807780081 0.05306752052578896 
-0.02372988224634167 0.07819983458376151 -0.01843346845685674 0.003649657483264045 
0.08662616896563721 -0.01120635397968748 -0.02086250825946 -0.06640324514393983 
0.05757266031067911 -0.008371318399250264 -0.0690338863143144 -0.06316010583741617 
0.05289813293774637 0.05366067619444891 -0.04750572297781198 -0.02261175560106984 
0.003732335743520084 0.03023556684408765 -0.002144393236460741 -0.06891350198144476 
0.1165353526955361 0.004229066823761207 0.01680425867757253 -0.1501322484889405 
-0.008530982175480845 -0.006892518505251531 0.03238136377549997 0.04316422561472759 
-0.04849464579480477 0.01538978451226256 0.02253666816931475 0.01847600466644747 
0.02880155482213386 0.0283086619212825 -0.04406565044605254 -0.05584294302152079 
0.03738777187559807 0.01954893346114391 -0.00988047480661218 0.01178504214545248 
0.02815127249143682 -0.003347092817711564 -0.05534616378578144 -0.00792315374597114 
-0.07890195497381661 0.03553150966569494 -0.0008571901152782075 0.001416580844860844 
0.00773644182032376 0.06365732648146383 0.001906995892146564 -0.0879792296155715 
0.1042782335737892 -0.06127938852993118 0.002642453999524938 -0.1023627449299583 
0.03654195001819948 0.01436907388959024 -0.01376651457594782 -0.02566074756793019 
-0.02410832854801424 0.01143390906562273 -0.004841536591898608 -0.02378021902768476 
0.002473226356807386 0.0006767048030450899 -0.0009495646645863808 0.006585616951097105 
-0.05007873677465468 -0.07436115242089615 -0.04363248815711355 0.1494600434549704 
-0.02324129369349382 -0.06354981515400121 -0.05914823870511932 0.08672128807853798 
-0.1524355834012503 0.01892228760017283 0.05378911103887979 0.00930253221825853 
-0.06734178176293164 0.06620362976451723 0.04696919008340752 -0.02209444333586602 
0.08825791512517808 0.01140919509009822 -0.03964527356746141 -0.01543287896713642 
-0.02686641824241602 0.02192662502356818 -0.004670034799031637 0.03413473485263536 
0.106392697019284 -0.0004504345968932602 -0.05607974987484719 -0.07691237021725335 
-0.08298206011113765 0.05281236490607562 0.04730804198911324 0.06059406585760806 
-0.1512466463543746 0.009636493647112693 0.05350989761734176 0.05520087515024261 
0.05392923646270308 0.06978665881809999 -0.1265679293075374 0.005470055236804491 
0.08331245863801297 0.02895919886109867 -0.06132177470705646 -0.03248067469298149 
0.1027041529255824 -0.009235366255853902 -0.01879545120082464 -0.0958267204836382 
0.006295150528643433 0.0306588997596842 0.05027739681254321 -0.04510412875702251 
0.03016782730197823 0.01806211335413981 -0.009181512653014444 -0.04437201619850162 
0.01239347915596981 0.03129041753357969 0.003870643388189298 0.01703058508730122 
0.05523657859897991 -0.02968009132342296 -0.05554811265073892 0.02789311049715073 
0.000914821150522653 -0.01472063910404847 -0.005083674507492225 0.002528899229957202 
0.008570624003749493 0.02918403616649803 -0.03631343740724043 -0.03685935525146509 
-0.009568789710702619 0.06064213040000306 -0.1120516211297105 0.02053011549258075 
0.03219294581548529 -0.01564712368178929 0.02982011047429306 -0.06939923549393601 
0.04852452379628291 -0.04048075117534789 0.04850054530689787 -0.01845530328554002 
0.001201559098135497 0.01849344515230207 0.08731447909597452 -0.06884074101562636 
-0.03034799540851469 0.03631065611141013 -0.009681511409680831 0.01934498314040727 
-0.04482261747177532 0.02351427017291744 0.04996696276977039 -0.01412451623737626 
0.007887271197974201 0.03980180488528397 -0.02966369287919133 -0.07122213550885415 
0.07698866089117036 -0.03877376560765491 0.01889372252294442 -0.07247808443115572 
0.05395727418618534 0.004391115550459494 -0.03620086949470164 -0.02722943971475298 
-0.09477810082397785 0.06138884834020096 -0.0122047652113981 0.07885519506779418 
-0.005392033384789076 -0.0163944299554278 0.01034962519695911 0.01822499220507397 
0.05070390362077927 -0.03721482583742815 0.05348166879224886 -0.04188237957590044 
0.006721717710557332 -0.04054417018644862 0.08797214944697093 0.01623815006309586 
-0.04580572093639889 -0.08807839098103416 0.09153174205048389 0.03473003198949526 
0.05003048105070377 -0.006348870280144614 0.01913178116469492 -0.007638263126254742 
-0.08567552061071496 0.06291418058501351 -0.04308537969371831 0.04541265909417259 
0.02759427351503742 -0.1077174827465901 0.07886805171392701 0.03445903957600528 
-0.09466461891942377 -0.1036093158620837 0.06643638915987245 0.05580123886277521 
-0.1097548803675179 -0.06532547006910804 0.05599265286055827 0.1576641975759864 
0.1305407087791107 0.004850931551151562 -0.01410880944580999 -0.1053900798422182 
0.001293571038038602 0.08570393919615614 -0.1004306035874084 0.01355436306345497 
0.08084672180173731 0.04561799743301116 -0.06320422408022468 -0.07280511006894834 
-0.02609212500308039 0.009298941677386229 0.08654198417880418 -0.05520202006110931 
-0.05848609079853044 -0.05096461406094854 0.06539926791390428 0.008327285396704616 
-0.03878645332811402 0.0126630337518265 0.01515779120665601 0.006302220314071325 
0.03486781206016883 0.06526781657437838 -0.04879349160832146 -0.09464406157869448 
-0.006550452186650315 0.03626426592059478 -0.05349220340177613 -0.02507995109683632 
-0.03105692167330086 0.03869097960720388 -0.04417799423887509 0.01400843396524885 
0.06049456838040085 0.03845957885143551 -0.005035074180917624 -0.02896588409635831 
0.005042404595639378 0.02764022105097128 0.02875368476132925 -0.002084056007011571 
-0.07754724252375135 -0.01191442892236743 0.07318436964518331 0.01504018465525878 
-0.06983157368418054 0.01616227186533349 0.009988531331759157 0.03218589552523356 
-0.009475141883834394 0.07131845242737425 -0.03227129541120338 -0.09154725572823323 
-0.03244900196820569 0.03674463320121767 0.009911652320354751 -0.06708714137709257 
0.02970485772231381 0.0594783095382801 -0.01543373499770841 -0.1081420683708484 
0.1600729269235306 0.04350281445779808 -0.08630542527678303 -0.1165980657725134 
0.0782480913543389 -0.007005362096381594 -0.04981480918809458 -0.03994742889255144 
0.005993739759334299 -0.05225810766317034 0.02425249321510979 0.08811349946900285 
-0.01136428805196178 0.03455575763916747 0.005987210105001462 -0.06652088931607747 
-0.02508492900646923 0.139082154441355 -0.1555984120482012 -0.0333878575707824 
0.01601814145813084 0.04839113161873556 0.0001839891120982243 -0.04468255782455247 
0.0138405598101745 0.03025391531523108 -0.01757887759251574 -0.05761886109332073 
0.0371830223392968 -0.006206113632503566 -0.022150958098972 0.0017254810686068 
0.01843133440542428 -0.03256128601811393 0.01830489634702291 0.01594874123031786 
0.01437658558926064 -0.01312120891662474 -0.002458731799950968 0.02634850893545009 
-0.007971177078641822 0.08321157973434155 -0.09382455572180397 0.006982056480018563 
0.04612682595477719 0.0004528635011170557 -0.009913899260338406 -0.06834665322888173 
0.04391108858813339 -0.01552186572312921 -0.03576628643451861 -0.03292054755806347 
-0.04937123472792287 -0.008243885187768425 -0.01001346717330048 0.06151894216192808 
0.0265000744092581 0.0005127758029385922 -0.08989974928030171 0.1615328909922203 
0.01291589054732036 -0.01921897667596251 -0.05601142314716393 0.07175900785367983 
0.1207640727638926 -0.0326123830852445 -0.07032562269325929 0.05257281989573454 
0.02539490433549613 -0.01321805020236208 -0.05605254745826057 0.05612472661909108 
-0.02391033907322844 -0.01554815781886 -0.04727649959634734 0.05793498010254035 
-0.04009062314005909 0.03317590832768124 -0.0009467334849873512 0.03372766652599655 
0.03452190494891366 -0.02386736970756065 -0.03762983586779276 -0.01268652295010382 
0.1079150200196772 0.05069027763622767 -0.05555341454825336 -0.07976860715938883 
-0.07479938473574227 -0.02047571604310615 0.1340654292141273 -0.05739461069476246 
-0.02557002542421935 -0.04152136599789369 -0.00124026614795786 0.02183601480707191 
-0.06825253648846552 -0.007399224874180098 0.07976761805351554 0.01270032054439398 
0.01531507055430078 -0.0146244657162477 -0.05063303604516742 0.0205794094359753 
0.06561702435466274 -0.03895807393861485 0.03244920098467757 -0.07647037325140837 
-0.02428412959445283 0.0472912614492976 0.03272651374929134 -0.07995912225971488 
-0.003562745097849844 0.003883168435744397 0.02403438878062943 0.003051469596035262 
0.0223717238857164 -0.009911966053705092 0.005694050803635303 -0.04094563219224039 
-0.0627959339720273 0.04533237266461783 -0.06839196827538209 0.07605088952009095 
-0.04325205430288069 0.04051173515041304 -0.07312448666536515 0.06308652035868767 
0.05564641373124997 -0.1085782003692355 0.05615076063295776 0.01197299101842718 
-0.01923127475781884 0.007796143193476946 -0.03265922342757271 0.09982238427226334 
-0.09694100036831564 0.07268637608635756 0.04087004085528612 -0.04140721318658535 
-0.06404164559265876 0.09715321896935837 0.0431612432858278 -0.02002750099501821 
0.04427148121580086 -0.03647166242649289 -0.00226968070679116 0.01317225581581909 
0.0297233245758545 0.100429183534115 -0.102430939031 0.01608095057485442 
-0.03983812308838452 -0.009033649326922681 0.03273928158163931 -0.03652608970305563 
-0.08696907298338383 0.08444289344815653 0.00669599134456161 0.03284954840589879 
-0.111851689107993 -0.09197581721925926 0.1686061228576641 0.001014166154499089 
-0.04048848879065272 -0.09624749331014115 0.1610938188928109 -0.0147918942281229 
0.1550659378001855 0.01047534845952427 -0.0953306784837739 -0.03570472492637054 
-0.03178206289710948 0.02251777875264074 0.0007322883500206444 0.005644310358324645 
0.0122152248759463 0.03572060400133052 -0.0458143933153688 -0.007559451264122503 
-0.04041679918716681 -0.02495782481446487 0.04172089394231134 0.07820424232900308 
-0.1020133273748021 -0.1014176980807665 0.08569810931251642 0.1097161074043442 
-0.02681710032568082 0.05040754156284059 0.1162347834976041 -0.08629162954370553 
0.04743407195616527 0.03501215485499089 -0.02428439568074202 -0.02127437676206006 
0.0367330633123145 -0.1013403438523671 0.03700502755374302 0.006286697952068943 
-0.03402228526172123 0.04657453145130582 0.04203999005773103 -0.01140905823936491 
0.08032241307059208 0.02890009104527157 -0.02979635494321086 0.01504023506924449 
-0.03410020280307809 -0.06651550990206122 -0.03402288377275512 0.1189547822870633 
-0.01793583737929739 0.05852109117729589 -0.02200661164716384 -0.0004137885534104736 
-0.05190963892332675 0.05895988399742594 0.03333966365239446 0.02959877016943158 
0.02398228467817247 0.01251448512336914 -0.01720817419785097 -0.01286405582439516 
0.03582362927014154 0.1038449304740493 -0.01539367723187494 -0.0348114998329419 
-0.01674511952513703 0.03967208996558379 0.004573134098820677 0.01628596148510035 
0.02662697340002933 -0.03171822004317446 -0.0235505085907026 -0.04782958746910951 
0.02661502442091482 -0.009663801118751262 -0.04136329306287776 0.01493602271698577 
-0.04912237315005794 0.05157018587125398 -0.08054968657891344 0.04222672774228789 
-0.03357265226956738 0.07305599362154466 -0.1232068443454358 0.07056290409337794 
-0.08180652392338426 -0.01796792266592178 0.003942051684110423 0.08830612454059593 
-0.03689303547854027 0.1389760427872761 -0.07793743137414219 -0.008461718603100812 
0.000403434824561383 -0.07352356041602399 0.1644098341260358 -0.007205655102092838 
-0.03503717531505113 -0.07139550055282064 0.006827352087390297 0.05948575052157207 
0.07211506633822654 -0.04120396536973555 -0.07025141827511693 -0.01364100027969862 
0.01470003097584239 0.03861502815396176 -0.1128449738601745 0.05451205271594517 
0.06811427274375816 0.005059112502104705 -0.02706445817162123 -0.02541462755934881 
-0.101205608588133 0.06043807670503401 0.07668419727678806 -0.03045326593927032 
-0.000921140866267406 -0.04886121800084777 0.1405495654344158 -0.1195286567993257 
-0.06714217018083189 -0.02769382706602585 0.09316136263198022 -0.06910644525233613 
-0.05717689896457567 0.01770284850507361 -0.0343220659324724 0.07119272114090219 
0.03860874616054462 -0.02804251092531803 0.0028937005201909 -0.0170395740042339 
-0.07998478790971944 -0.01306045610235501 0.1119425800893923 -0.04221238130485366 
0.0791011313377635 -0.04255756074250699 0.01187253798795816 -0.0661723025844302 
0.005805043288275307 0.05545300966989924 -0.01070812867706891 -0.02599196043928571 
0.06848936572938318 -0.07304945352241431 -0.01705185078139955 0.007976513214349586 
-0.08130845827348614 0.09404605634277831 -0.08450721758054464 0.02457161349124289 
0.0009673875489274771 -0.0008705904677049274 0.00654442933310313 0.02152543994382523 
-0.1071740888406148 -0.03876813940474478 0.0487728545652255 0.1051738032990831 
-0.0975254502334935 0.0614697151432544 0.03957991419932341 -0.05203119262381425 
-0.02973333265687117 -0.0003894949804630444 -0.05200511964601114 0.003436221225706653 
0.07154825050946491 -0.02413917673432762 -0.03575306875052085 -0.05917492642376173 
-0.003090523513992647 -0.007835556318505603 -0.03543922768258732 -0.03057901021332469 
0.142919531626574 -0.01506938898961862 -0.07945253800004799 0.01814354415508903 
0.05414616526084259 -0.05868128067969544 0.02542002392722297 -0.0306673050300238 
-0.03858145704352703 0.01413158536108123 0.06413444133701628 -0.006292058333858721 
-0.01936132740205838 0.03021977466324086 -0.02307379951472949 -0.002330278587265181 
0.02448055179191108 -0.01967565382925037 0.01297815400970203 0.03636041739241897 
0.0007147289170403789 0.02255286268470831 -0.07015288893296835 0.0551158244992515 
-0.06621735557807844 0.0002208806692437161 -0.0112805136011357 0.06922039777314912 
-0.05959897836232526 -0.03408408072810199 -0.04555605956738445 0.152410060078635 
0.0007310843132860323 0.004490532668468363 0.09654465093637454 -0.01666601171581986 
-0.02646671301775127 0.0882991113992774 -0.03132278173813079 -0.04585620742789634 
0.120561066956263 0.006951571033722919 -0.1055721196728641 -0.04567948119339851 
0.04466303935111474 -0.00689141003087848 -0.007959407113930379 -0.02241622582567815 
-0.05917960184629608 0.0131053719739095 0.01749233956935459 0.02885208405085713 
0.02769451062216468 -0.02623375393221188 0.03030535224372197 0.04271419884386964 
-0.071454953993871 0.01062915096447529 0.04386992724215558 0.1080443684670498 
-0.001344110655921015 -0.006320585342497092 0.06174382974372818 -0.0468546980922671 
0.06325765068886487 0.04569414494285551 -0.04975289532064386 -0.03336485740009553 
-0.1185342792864986 0.1114897613358738 -0.02816972080839291 -0.02352597413601916 
-0.001003680958592656 0.1332900015708132 -0.07553748357875727 0.0007966008911614611 
0.01790873568836762 -0.07094811485227358 -0.07600757346251813 0.08912030605748335 
-0.02793244946487679 -0.03861911274317208 -0.002818548544062366 0.06101361508742019 
0.01159376307729157 0.06209099711741625 -0.03993786795889667 -0.05890204525500693 
0.08835689016476272 0.04710842899875219 -0.1405521418745606 0.01412056218985344 
0.03672982236126384 -0.02605208602929358 -0.02833097473149265 0.03969443575770203 
-0.05551708336681203 0.08897231363141075 -0.01479787361489966 0.03726120756244031 
-0.03497967770327035 0.08509594703254435 0.02639914198158682 0.007207215352204929 
0.02035406013912502 -0.02097142688482678 -0.04163070211610447 0.02401966575688467 
-0.01083189449111369 0.03295830799202835 -0.08899610832039645 0.03359568040168483 
-0.009333034994485448 0.0496557011274763 -0.06373202352386746 0.07063060758410923 
0.1147938192861474 0.01364304450239617 -0.05577217539520452 -0.02832775538481912 
0.01923042901896773 0.04313199452160889 -0.04642003460283418 -0.004596039630988013 
-0.006382226440860349 0.04522416043988392 -0.01207938706981322 -0.003917815529648795 
0.01920640611785653 -0.09992124843610055 -0.08059521355674486 0.1730417856677824 
0.01232120266484369 -0.004837540558563338 -0.02592932776747356 0.04142688269044762 
0.04553763696126228 0.01074354389428603 -0.02406747783134642 0.05839192524334793 
0.1043353546159846 0.05456096232247569 -0.1346655991171234 0.0513465155242275 
-0.01678426582740061 0.07030406440542497 -0.0912536037559238 0.05791212970713876 
-0.04701308353872879 0.1201877018396437 0.001127622394054251 -0.02373048665643053 
0.01480392360522796 -0.0501976792444904 0.04067000536921624 0.01998831212930441 
0.02628858655193388 -0.06793523287809138 -0.04603569429618875 0.08269214252580402 
-0.03465828332980322 -0.02664863682658953 -0.06554694619185732 0.05504549908234891 
-0.07200887160240212 0.04838354923071495 -0.09729491795123622 0.1059206231325112 
0.04273859889090728 0.00213862802301986 -0.02019672253647001 -0.01221335305630878 
-0.1365304521974987 0.08147014239677271 -0.01623188358166312 -0.03669411737532222 
-0.1034046524252435 -0.1075911394105786 0.2006353543961027 -0.13718758724763 
-0.01285763730320832 0.0355151567403183 0.08090911492099633 -0.0774917663408423 
-0.06009193945395384 0.0306705519203557 0.01927198638070763 0.03643500263087049 
-0.06648534128609913 -0.0201020627728158 0.08315456289712378 0.01106808793248179 
-0.1007181680234721 -0.05913651632272418 0.2574760470610818 -0.1258725775508339 
-0.002438160811906689 -0.1110573803637172 0.1083601222176941 -0.08295414808949694 
0.005490482991381013 0.02993048150568458 0.0436013456190213 -0.04098781578359965 
0.03867896636224251 -0.05206298944458838 -0.01605101906576903 0.008794152555555261 
0.07004212525533751 -0.008143280985497374 0.05062758076327013 -0.08719732243708674 
0.01060127406685134 0.00101862071408725 0.09289490300745927 0.01332032906360657 
-0.1064049534300635 -0.01562199019340486 -0.0297994051195974 0.1466418851626819 
-0.0232502963064193 0.0810534423267225 -0.06153603425366529 -0.02597294005993208 
2.07245243259912e-05 -0.008655997651911478 0.04337476683623328 -0.01603250833679387 
-0.07465110630090067 0.05222006906043488 0.04363402701229432 -0.03278424097755885 
0.1128148122924603 0.01649460167827802 -0.1254248489032175 -0.03009581172740808 
0.02556857816463306 -0.05105446725241534 0.0168878908197392 0.009525209743064483 
0.03588705190767513 -0.01808311815218769 0.02164232645944782 -0.001198579681307258 
0.07740904242111724 -0.0431181387246125 0.00216617905577631 0.07144576404861551 
0.03696222903962992 -0.01587524649985141 0.03558148265768248 -0.03526330017285997 
-0.0437797053271978 0.05189538252146717 -0.05604036386289433 0.09086058418860671 
0.01569304435566587 -0.02261215277290247 0.02276208269350384 -0.003277947318639643 
-0.01031709206538188 0.009925615505097917 0.01358076427958498 0.04747874589271835 
-0.03768465246411173 -0.08688039690528329 0.08467667957514105 0.04157467832841303 
-0.02283028187924472 0.04686475782705548 -0.02849221440945202 0.07816343042211545 
-0.09436126375488242 -0.01300125845909843 1.339869608017752e-07 0.115736745142748 
-0.004121286734930674 0.03667233188734689 0.001574232632882278 0.01170826982104361 
-0.07116490431466312 -0.0388157521110619 0.14687098040357 -0.0198560590282615 
0.02251430653835831 -0.06534690921591309 0.02114193620969601 0.01739152229842458 
-0.03069440318815048 0.01616761833935761 -0.03206103197540659 0.09818728261581501 
0.03510785180077332 -0.06534212132766179 -0.03502018753672939 0.01693711648676446 
0.08161856854137092 0.0167073441665497 -0.02908177883574858 -0.04364805690025356 
0.06146688800831302 0.03501981381612418 -0.0188377825281284 -0.02700897932867067 
-0.02920889040978021 0.07756448317489865 -0.05912469798444396 -0.02096345785205246 
-0.0006789445923594328 0.04817876955530206 -0.004286006989099726 -0.05459028497244334 
0.06344829644005757 -0.03389152956592081 -0.02457235648554569 0.02388539648836376 
-0.1043095960723681 -0.02551701877562735 -0.03026116117692396 0.09866804259236241 
-0.09957180159488058 0.06576828059344576 -0.06809823220104894 0.09938684675393475 
0.0505465462211061 0.1002991728092177 -0.1416058164443589 -0.0213291307033049 
-0.01427026531075453 0.009297081908637546 0.01196005281570018 -6.365915209170523e-05 
0.02801670061695016 0.07699667535498339 -0.03947620643419301 -0.04960149327244866 
0.05502623329438503 -0.00880208999024462 -0.01896031893377784 0.002863515753943102 
-0.02648133357403259 -0.02149378330031124 0.03974955208458736 -0.03050055074565191 
-0.00393457182696876 -0.02369750077943541 -0.06499795431451008 0.03632425102453488 
-0.06228387742649655 0.05083604267537489 -0.0910268884662029 0.08726459564781568 
0.08418566157938179 -0.005442654789764721 -0.02055539908122645 -0.03678431969660772 
-0.02989859478896442 -0.04029889064118452 0.01699612813496545 0.04659783407588287 
-0.05841379127464766 -0.0008093817897288124 0.002592380749453858 0.08350908860475777 
-0.02420348504946764 -0.03059596741274403 -0.05162060161260877 0.1176307785416909 
-0.04783672991732409 -0.1310441771388889 0.1515040903514093 -0.04851145218638097 
-0.0443036778535529 0.04022497684851447 0.07675228643393631 -0.08090208755397454 
-0.01310102022337382 0.06113414753261316 -0.09238114605245799 -0.01477647282727473 
-0.03850129867711998 0.05027765081562044 -0.05708731234154152 0.071090734924599 
-0.01650964345797143 0.05998785998235004 -0.04868049612786833 0.06491303443750386 
-0.01695611798046604 0.09315312590024169 -0.1885793306812466 0.1262443498763673 
-0.106217961985414 -0.01816628809374771 -0.0818750290213459 0.1343578716255218 
0.06534184623140908 -0.01096234526824133 -0.03779731614630105 -0.03015500342954373 
-0.07007347808670264 0.07779232745912641 -0.02007288185186833 -0.02505237593529059 
0.09335528698500389 0.05304628514709755 -0.02815496383083698 -0.08115839586916919 
-0.07264584466230299 0.0468192792309569 0.04320297693594635 -0.06430645972280123 
0.01446724509597487 -0.01509065752390253 0.174937037615059 -0.1087581424274765 
0.004852158739967269 0.0541446302053091 -0.06406597101807412 0.02277431963597795 
-0.02470459309163037 -0.01474440287732685 0.01761653023485429 0.04080567769939377 
-0.1029230281878798 -0.08032870522938194 0.09948828704404829 -0.05014018284800032 
-0.09893291307167618 -0.03092176800306681 0.2194038976715789 -0.08534521372567556 
0.04992197945517694 -0.04577629785759409 0.02250810666932973 -0.04030934719625998 
-0.002907588975369266 0.01804722050402274 -0.01010502009296109 0.0006738064612457346 
-0.04398158010656208 -0.08219772342756985 0.0777081394720494 -0.01956372600090963 
-0.01798217701595277 0.001016471318644849 0.05902538739707781 0.0064204504500894 
-0.01559585063193559 0.06089741189814332 0.002728975946959185 -0.01326683414660066 
-0.09512685685429657 -0.04074334203373318 0.05601194024460141 0.08267310586365165 
-0.08413621648331852 0.0589791628503745 -0.07286871001616123 0.05675068957869889 
-0.01509445694197329 0.01141956847590182 0.006008278237623897 0.006401357852822648 
-0.0401021678278457 0.05727101323922171 -0.05790422549333733 0.02372305795662363 
0.08866124300467219 0.02038974875856571 -0.1143625462590514 -0.03213687485937879 
0.1241954178091287 -0.06537386176218998 -0.05339220785092064 -0.01535252969010154 
0.01792163120641165 0.01111114250889722 0.09266766038206449 -0.1147382907878327 
-0.02495808835359284 -0.002871396957339815 0.0336661954019363 -0.00950519018954778 
0.003956017951804934 0.01605734689557955 -0.005161801456251515 0.01110520998349846 
-0.02078078189748457 0.03082946151091641 -0.03197589350604164 0.05291006693592905 
0.07398189843971936 -0.04882233343690968 0.02917029556288267 -0.0927821155829707 
-0.05847378561575634 -0.02917827591237439 0.03408297906165458 0.0342251763259241 
-0.1279196020844109 -0.05695683934015703 0.1201356155061981 0.04180375276580417 
-0.02255072146410548 -0.02021639686316798 -0.006050221683005987 -0.007648162801002879 
0.1731813608426099 -0.04774803196580586 -0.0102705075989533 -0.08765126649256838 
-0.01095312092483854 -0.05271486500164499 0.0317328408294472 0.05061037561616705 
-0.1322403756196696 -0.1315600251543055 0.2245741841732101 0.09339324864599423 
-0.02017001810328559 -0.005455647205500036 0.07050140403965854 -0.005786750375868008 
-0.1120375871702073 0.115112403684886 -0.02578696655523854 -0.0008035111565485743 
0.1312817434436124 0.03994083941531978 -0.04039590384997306 -0.07873151024607344 
-0.09962836034099759 -0.02999695265904325 0.02183393010277672 0.1267681697454781 
-0.03509689991445177 -0.06648460800504236 0.02951429252914345 0.01405339542941667 
-0.0205528806571068 0.03123133912182447 -0.02116197146912738 -0.007938650425192723 
-0.05384330004275668 0.06571485388475749 0.071302860461854 -0.03256815873601141 
-0.006520163978899745 -0.02768876588777535 0.03066380601612667 -0.03046902825355847 
0.07019982276427761 -0.03101524266270936 0.01030435991033892 -0.0387210040490834 
-0.06473170331483115 -0.01207537763175356 -0.02285183421503839 0.04973001647865606 
-0.00425776147479839 0.03684582966464209 -0.03632610683609473 -0.01754561723974626 
0.006256419023397917 0.05690638783081357 -0.00384445513438627 -0.08084569905967606 
0.1851881196072552 -0.01911730312496503 -0.03813735552108111 -0.07171563674495492 
0.002491598208047543 0.04698512584141397 -0.03477616373161026 -0.01603806122061985 
0.1142864411521172 -0.009777777868431691 0.006277912274577681 -0.08054629504506523 
0.04682608255291951 -0.06561092515296935 -0.00532068345400327 0.02074629514211922 
-0.06350676953606464 0.02976920346126393 0.008115195919053773 -0.009745537931516373 
0.02500786305959375 -0.002696459774709788 0.0135503812839715 -0.02269998877807958 
0.07718714766316929 -0.02426490128211843 0.00190276117502221 -0.05458625378966672 
-0.0350799757736206 0.07466644808538819 0.01923267078393863 -0.06168891530835207 
0.05809235927030289 0.003697059044735245 -0.04136885489512764 -0.01851679056460122 
-0.0701499732136202 -0.03406065822734676 0.1394497218274869 -0.04926642480088619 
-0.03922710137378276 0.01747576364156135 0.03155761628509279 -0.05716985287099253 
0.07294761670175855 0.02663966233246626 -0.1098676881096434 -0.03524802426810089 
0.06576744118151671 -0.0007744984677913303 -0.02240984926744225 -0.04395669942003701 
-0.1274035798033743 0.1005824987095153 0.04578852982867466 -0.003838138485260435 
-0.02781731855969179 0.03986693170070551 -0.09361523878341992 0.117842827333083 
-0.1003143619979848 -0.000758445706375248 -0.06572456440727374 0.1545382400074558 
-0.02413325065589224 0.1403914757301259 -0.1012320950816756 -0.0502968284794064 
-0.02251485680297297 0.1078759894644807 -0.0008318441056910194 -0.02981598024650434 
0.02928051085427422 0.05894970726770555 -0.008136383570264916 -0.06196616548026048 
0.05919825797357534 0.06425538840141089 -0.119139584907795 -0.0127661193436374 
-0.02152418025371321 -0.00864996283537031 -0.008376787607699606 0.03751053819514556 
0.06128279096908607 0.02098779937789901 -0.08508631019773953 -0.009725954889013103 
-0.1788946769757797 0.0666813260208267 0.04258734093529409 0.04543699138670755 
-0.04918769712229241 -0.02242024092076419 0.04503302608812076 -0.03035470625972888 
-0.04013085467758504 0.03979335437589613 -0.06207474829093566 0.06448946965274326 
0.05709033239281732 -0.08292914412466086 -0.04812214864736357 0.04696211022750092 
0.150945876026092 -0.004618306423372668 -0.07573217031195216 -0.0005867883302251511 
-0.06477623366854675 0.01306745817164341 0.01810839595071953 0.06202843609524349 
-0.01362403988840872 -0.0221833703275921 -0.012674169947849 0.05342706505611422 
-0.05025629105832936 0.03920970305758722 -0.02791089113109144 0.02666649276613883 
0.09321706561477429 -0.03601722715620053 -0.04142973822046702 -0.0124507081481095 
0.01758410336444115 0.0309595061797592 0.008205719642321098 0.0143727663027442 
0.01056043977462745 -0.0240469778814255 -0.02668426788513133 0.02797008325485287 
-0.1132307275667461 0.02303137262888127 -0.03341830158568224 0.07188375405915297 
0.08615646263656218 -0.01101656977938292 -0.05090894855439619 -0.01153605299826712 
0.06335279684203667 -0.01728648081306883 -0.00882651753015045 -0.04505796928684574 
0.08547302944319918 -0.01530273258050353 -0.09194985936490131 -0.04104825062077708 
0.06578871294804496 0.008531991756764206 -0.05366293738603995 -0.03089467746086207 
-0.05692033825048753 0.1156923660044579 0.02029465719972795 -0.0156482307765987 
-0.05915761726863068 0.1208703376834079 0.002009391559585205 -0.06041796097793923 
0.003854390656932031 0.03269211221326639 0.001799610691644586 -0.09774951354837409 
0.01918379160979553 0.0115337168785755 -0.03782356939314785 0.01775907849441477 
-0.03482866382480856 0.05809444796861698 -0.1167423054373886 0.05488893687227241 
0.04218508575636686 -0.02908743091489946 0.003426339049609269 -0.005145651542830441 
-0.0169777520212408 -0.03220937406491125 0.05854181876663529 0.03392474973000531 
-0.02138785173907689 0.04063241731689334 0.100978399401878 -0.03321834493302964 
-0.013493643047534 0.04791818346678383 -0.0210971580029077 -0.05723314240314804 
0.02916972140548131 -0.08325942450609004 0.04625298705520845 0.02198128137898766 
-0.02597113407084607 0.03394611012813232 -0.02437771042158811 0.02387724882822219 
0.05356095899507077 -0.165170745547206 0.1746321415886037 0.0135680324440893 
-0.05562869475753847 -0.02450892365388729 0.06402348531755335 -0.003053166118579751 
-0.02810666806882312 -0.05452485099079967 0.08305793414525153 0.009450161720420751 
-0.02088448407685298 -0.03209972769050234 0.04544152613740568 -0.05004801575325816 
-0.01426680848533318 0.04893861873824118 -0.04813807252797266 0.02920287892038481 
0.0256765267098802 0.04902774015256887 -0.0289255836926123 -0.1305545315091289 
-0.03274499959866629 -0.05371679740037676 0.009307237269807173 0.1330423748850172 
-0.04686288619396473 0.06292412307049895 -0.1300300641117336 0.08326968283426642 
-0.05466721400018673 0.05851970779537297 -0.03977814849711505 0.02007846205389334 
0.07484445916911388 -0.01361386800718803 -0.08682964103639562 -0.01116881634165595 
-0.007258982577217088 -0.0006706853162147604 0.02254288122930307 0.03206688084024308 
-0.003076959167309623 0.04390057789607928 -0.01232435568756011 0.04274341606764505 
0.1138382067628348 -0.02245551943174165 0.02592161436170679 -0.1617517267478596 
0.03737278118436985 0.03815827083071275 -0.02659115319084637 -0.02238166837862512 
-0.0326878642011131 -0.001199582829220468 -0.02121298688167746 0.03738687275661254 
-0.02965974307801783 0.02852674222389475 -0.07983157013645682 0.02649245609035958 
-0.005046345913785193 0.06075110338604105 -0.02973931213238371 -0.02211203576803599 
-0.06466699819325254 0.09577526430637319 -0.02437299602683086 -0.009587392520955923 
-0.009617441511447299 0.1031042875322124 -0.01571517870322752 -0.02702321573585235 
0.03530355534983984 0.03241299886198756 -0.04450491752761857 -0.01207560453884305 
-0.04260199362049854 0.06191529390156925 -0.03524826047811991 0.03144215729785021 
-0.01802728318764963 -0.03989780381373043 0.05553812844176408 0.07207177827273008 
0.1163236339696316 -0.09679906334106074 -0.01694275963391063 -0.06649809063541874 
0.008241849813503791 0.07372905618068684 -0.01192134940933827 -0.06119305236906604 
-0.04650710382657824 0.0426849084811206 0.04897276292278745 -0.01930799898029503 
-0.04013126412854295 0.0187457807436038 -0.007696526936852255 0.006112792124887049 
0.03965333350237486 0.02855941530964672 -0.09116337473441044 0.03728605078727026 
-0.06876799721955831 0.004954866119343556 0.05134822041122972 0.008020151205343292 
0.01639383190394109 0.002308286287578591 -0.01572052885175031 0.008316085552906511 
-0.03746476102687595 0.02819902410722088 -0.01503023653271108 0.01623540497889317 
0.05606354735584158 -0.0694518188554296 0.03212961039700998 0.08747187442037957 
0.03949834825891552 -0.03970729460606752 0.03039607713192706 -0.01277565385119974 
0.02103698058162352 -0.1111487254724234 0.1182315290314104 0.0006554161320502139 
-0.06108199194358768 -0.07867963760337546 0.08135159380393481 0.07456290542467438 
-0.06231599545256822 -0.04920355110486817 0.1226990405576638 0.01572167188957584 
0.0737888440183949 -0.1110598593743468 0.07680333846673054 -0.01662808440914535 
0.03331685049403597 0.01035497125633485 -0.08039471410694476 0.05297832431441843 
-0.04178775781238933 -0.01408148422948671 0.03599598570028525 0.03447825138006561 
-0.04972721878654635 0.08376743303238299 -0.02929403067952367 -0.03658495975118115 
0.07723453212709108 -0.06920568774075994 0.1008097266504601 -0.06201614581801661 
0.04153538068890809 -0.01476660790463011 0.005018047527056942 -0.05723229474783955 
-0.07806235282953185 0.04370847649916501 0.04234972946117667 -0.03907789701324213 
-0.01526156652590522 -0.001619572109813173 0.03639380691742423 -0.01100394192361074 
-0.0577050939988597 0.00516579648746362 -0.003808252654575989 0.03695304469981065 
0.02148982481004957 -0.08597534668366875 -0.03421520014908559 0.04491999780050648 
0.05755742345728045 -0.009324093909371134 -0.02023186205132168 -0.03315420846521022 
-0.1073568494658145 0.05157968064010709 0.03362520274160663 0.04381603246300123 
-0.07520121649034953 0.08314826044098501 -0.0289905631759128 -0.03177991934233016 
0.01672627286565084 -0.04543268538906535 -0.01604966091221822 0.06039439735197109 
0.004116326632388595 -0.0002391989812181837 -0.001736993512767662 0.009634644346353848 
0.06100799411733675 -0.0238102543896494 -0.004565176134459329 -0.00634332124063503 
0.01875520934641388 -0.02103860521853776 0.06157817549314148 0.01437417718679478 
0.007294969113236106 0.05413632977570974 -0.08443636752043968 0.04490329082039888 
-0.09238084486218218 0.1232329217361577 -0.0001909634678319678 -0.01979840727032512 
0.02372730975474882 -0.02596877124172151 -0.02534074104416601 -0.03500552145794576 
0.09279960631852448 0.0140885154660731 -0.02966942725245351 -0.04293741272797752 
-0.0547663582367454 0.2498860303618666 -0.1639329466583448 -0.07968551559767742 
-0.0238789915255067 -0.01669725386744528 0.08259710394620465 -0.03104475874423303 
-0.02009146357165435 0.09929940924340282 -0.04309835606476226 0.009898342742848829 
0.004478063973447188 -0.1157597187717288 0.1199692777734925 0.06697867367909233 
0.0238761165856654 0.07636760511185621 -0.03202015429570974 -0.04401315198028857 
0.1093603791088297 -0.04000068258474509 -0.02517443393156416 -0.06647812894160023 
0.04803759715312184 0.002503024089179027 -0.004105922656204983 -0.03361119251669811 
-0.06742367795364493 0.07205372014541464 -0.03851328221424815 0.001648696214141462 
0.03094055180420922 -0.04770387872214652 0.02433980232137604 0.0411099317436381 
-0.0554038960299188 -0.08584113329180991 -0.01433537866374616 0.144315602425396 
-0.02193618452688507 -0.0691924306447864 0.04447694801473896 0.0967059699412547 
0.04446009008785225 -0.02397950451904208 0.002658601065611841 -0.0540638977904489 
0.001874309715602686 -0.003588766653915084 -0.003056774012091102 -0.00691567545481275 
0.009372774679455598 -0.01762777239215396 0.05129097066516259 -0.003611484823624897 
-0.05651797122825786 0.02132141281770945 0.0166362742115755 0.06757747583673307 
0.05688619207191116 -0.08029517806022902 0.0344236716977865 0.03429101584486323 
-0.01849065732302595 -0.04805229744764165 0.07639188609035162 0.03082284049535926 
0.005513972572960584 0.09203072522443653 -0.09972453959916301 -0.03140407259426506 
0.01683026649426741 0.05877223917584272 -0.04943504766067678 -0.05729831715845313 
0.01195231016396632 0.08857003143152233 -0.01447422158251932 -0.03252965873451694 
0.002628252457048333 0.04564879876015673 0.01968284238247351 0.05673822675601124 
-0.08960811190822197 0.03398228066935877 -0.1036590155593243 0.1416348568898185 
0.02747783868141736 -0.01226757467958341 0.002870597256688588 0.008634595481747675 
-0.04188938084541493 0.01468558329103593 0.008796939187578255 0.05144553031022333 
0.03671136134983336 -0.02992405372857303 0.04692852227017703 0.01520348150997784 
-0.05140341693977633 -0.03432947738066675 -0.04641473233629154 0.03785310126535641 
0.02132122891616229 0.02231057623469582 -0.02827304229535113 -0.07923140845590529 
0.03830180028596807 -0.07349565585907193 -0.01400333713362915 0.03148973181776995 
-0.1167351033426315 -0.07570261616584494 -0.1224957914023532 0.2624364169691916 
0.03294934573694247 -0.03846811965789473 -0.03499654539886 0.01852783573293137 
0.004040985850040541 -0.05273173139695821 0.07951227426771022 0.03455552468642812 
0.05313374242594158 -0.0210549575114128 0.001659002079045618 -0.01592100517166955 
-0.08325883336915094 0.01221340983285658 0.04426139330227526 -0.04611288971199259 
0.01344620757657442 -0.05562772487196969 0.06755561110106077 -0.06723447296177652 
-0.09364714168658797 -0.005423194734885362 0.06281188568229948 0.05065238255091155 
0.01186420906698451 -0.08589889456052789 0.0770074125196139 0.008267203181369755 
-0.03156367845214859 -0.05483702556417457 0.09659973335895464 0.04083978997281518 
-0.1137924856253402 0.05995852761054341 0.01299073620621685 0.03023710943288559 
0.0107432632767939 -4.023945305906146e-05 0.0206003771448821 -0.06978342787478671 
-0.006461928905819075 -0.0236892979835554 0.03464226647154187 -0.01253377024932827 
0.1109096236651101 -0.03298739498107232 -0.008646253453763176 -0.08126199918551466 
-0.05942087086023792 0.1654979554264267 -0.03749631480023774 -0.05284658201893254 
-0.06288631986738537 -0.02978810426488656 0.1455552455542527 -0.04543186526753378 
0.009728926194927609 -0.0522531974176563 -0.03361263519043021 0.06761157066005247 
-0.006636837721560654 -0.02102005536959166 0.07184398818128429 -0.08086542385662229 
0.07141303763814244 -0.09073724015146302 0.04700720533449792 -0.01819133282210077 
-0.07901477370388629 0.1679940124590552 -0.02198881761810462 -0.05310253336846739 
0.1267136196843931 -0.0571771156990049 0.007105216821426901 -0.110970183847632 
0.05605411037908566 -0.06368900095965964 0.03067496931832647 -0.009698668586764686 
-0.01117588805396449 0.03084249496514457 -0.03145338819808623 -0.02780830923253004 
-0.01016796803406673 0.007666190612509195 0.02491641016259305 -0.05901988766918208 
-0.0110195513762625 -0.005332395503839006 0.03628617333361664 -0.03795671323062827 
-0.014214647193707 0.04703224291660819 -0.01496609441391506 -0.01096166225798571 
0.01374184370475941 0.001311680348063143 0.03353712456181505 -0.02459542578369698 
-0.009224374166012942 -0.02714326898596416 0.006295951256245572 0.02238312502175925 
-0.003887004201529759 -0.01109587029886745 -0.08231932352436847 0.1405431181009819 
-0.0582738698073203 0.1216285585992285 -0.01792181275907343 -0.02208594892336151 
-0.009430635876972071 -0.05368508637856166 0.07105999734105127 0.04057023339213401 
0.1136964177520507 -0.02447144312219095 -0.04155713032074851 -0.07089130974352952 
-0.0005687987297799851 0.2140867886677611 -0.15121375777719 -0.0517666007973728 
-0.04545384638608099 0.06850859464201235 0.04780002261743829 -0.04632160538363805 
0.02053286268601025 0.0432996007909871 0.009275820197382493 -0.01677745812175578 
-0.0006591208305250182 -0.08957631392385795 -0.004054347361931445 0.07549231541908061 
-0.02178678800676649 0.1920104349138108 -0.1417795594530894 -0.06903801976218274 
0.1746239884462203 -0.12748971063747 0.03583163144541932 -0.06899796085239568 
0.008593835765526246 0.04911963742155477 0.006418720542896247 -0.04250653369044333 
-0.05231191862723982 0.1082083548029598 0.009083875419708466 -0.01337280380437112 
0.008585292951614056 0.01220754720461913 0.008550157581361888 0.03438552107577572 
-0.05764743146088368 -0.03170374918037193 -0.02740242620480334 0.09644344432922285 
0.002839936899061991 0.01376783831943425 -0.02306550419781302 0.04453933241424226 
-0.0005133967326389367 -0.04332508274054835 0.05185185094262112 0.05780140063143848 
0.04183775988066731 -0.04972202739550155 -0.02852443565212168 0.01748067672824402 
0.02396151950758574 0.07689310336516739 -0.02831567710735073 -0.005262299524775605 
-0.1410351607783256 -0.0156942119314417 0.01714544292529451 0.14842729136122 
-0.02334173344300122 -0.0246294800713622 -0.01739576795134743 0.05414321658187163 
-0.05067793536971502 -0.02665305981569872 -0.002990879143294803 0.0652923142207449 
-0.009048808496392113 -0.02348877834846883 0.008101597700370049 0.04529309073265829 
0.0701350000788495 0.006941327572326899 -0.007082772932614452 -0.04270956049517681 
-0.04751616813976989 0.06359008047614148 -0.01826219533908697 -0.006604746811720898 
-0.00816997751503877 0.002644901814593561 0.01978041525243822 0.006305879488865609 
-0.04919320203925864 -0.04777729152687675 -0.02205446291768899 0.02229925803838432 
0.01690688540235942 -0.007366491995589956 -0.03293900880764636 0.03738786490368808 
0.05245174801036952 -0.01909680794594342 0.01265844149796282 0.01377677185428253 
0.06007400174751026 -0.1205618134783983 -0.004470762927066416 0.04370931520799297 
-0.04311754752458613 -0.08416051505548168 -0.03708485988666142 0.07316742485646116 
-0.06809015942322662 0.0240135061943987 0.007923549721639408 0.04427849820070213 
-0.01093250814066133 0.01773946989032854 0.004673576248431658 0.1016710409868482 
-0.06671128604149003 -0.04711367279048737 -0.02103407780196563 0.08657091251981047 
-0.0289469382389161 -0.03987905630014302 -0.008642951315237476 0.07039989469211436 
-0.03218132988054193 -0.09657721608018927 0.08213596695490596 0.05898296325578355 
0.04721928536494165 -0.01798241758406839 0.0002691647608368255 -0.000924405246393074 
-0.08766510941238263 0.01135628192722139 0.01500273676795574 -0.01571026005665891 
-0.129380736798553 0.0465944506635844 0.1188382940722932 -0.08319453567615767 
-0.03670214584906142 0.06796043687548139 0.05423396991873199 0.0008505864420799133 
-0.08912510541505232 0.05609740519312355 0.02994742505742704 0.03304647405252086 
0.03873772655063614 0.04411653731085396 -0.0291476486822369 -0.04304949018265079 
-0.01823556520158077 -0.002493976164751658 0.06570675011850712 -0.067996454500901 
-0.02635822970706149 -0.0759710102349225 0.1438178032523529 -0.09299495623131887 
-0.009755823924046992 0.01717396767720738 -0.005205436774417782 0.004936387670490093 
0.02441515235610867 -0.007980603345999834 -0.00451360636876878 -0.007763604587270699 
-0.03343338629612344 0.0704289031832893 -0.01160741841496736 -0.02956990094389292 
-0.05305422565692816 -0.01587117296191538 0.02641480161679225 0.01973178672097277 
-0.01980376912973337 -0.05267548369461606 -0.02619028181557319 0.09494463355165315 
-0.01969996325466299 0.04601936793951347 0.00615814488325102 0.007489847896684281 
0.04604128658325729 -0.05476452404251006 0.00782735747544825 -0.05053379380389393 
0.009568032209574244 0.08543601112808583 -0.05430440767851033 -0.01342687466511696 
0.1323022466800403 -0.01141516400640895 -0.03830740821215292 -0.1492358002592341 
0.04649876987848791 -0.1128517853601544 0.006699425991331972 0.0898941466615249 
0.0148202813400559 0.05777881112855735 -0.03626239019382051 -0.03368586277786204 
-0.04523519482219495 -0.007185898149007622 0.05676757677114693 0.01015856908828322 
-0.03650680814438709 0.002806006429505941 -0.02632983490865331 0.03375984403953677 
0.01771738294443651 -0.06589566810811835 -0.01479778238806682 0.04957063054729022 
-0.0103860222511583 0.007161359030302107 -0.07046210624727922 0.07398815603600153 
-0.02154444962093367 -0.03693926346658184 -0.00503565069272884 0.05361393668566931 
-0.001070488998505796 -0.1037791039824581 0.08053214400268309 0.0285052056178933 
-0.01647645963908587 -0.002861515746120859 -0.008773364258090572 0.03859468785817778 
0.03635349961929367 -0.0281094827055574 -0.001002695156743426 0.01025840114418912 
0.005133040418013703 0.01954749405332139 -0.0140430847623806 0.005418691425128999 
0.06529616608953452 0.08733839614749483 -0.1464462494239749 0.01414155205595293 
-0.09206707169743147 0.1180458165771359 -0.04989245493690517 -0.05206039030340023 
-0.09958727707550517 0.1036225086753573 -0.02597850264990166 0.03548954287311835 
0.03403717857362172 -0.007655564060477732 0.04341451027979437 -0.01502884330254578 
-0.07295296813342893 0.1617851438985978 -0.1143789230924493 -0.02340840483924391 
0.01252220572228354 -0.01393336250296833 0.05863520140485363 -0.02200330941753903 
-0.01216371966930774 0.02862221076217966 0.009595056737814073 -0.01604583178262616 
-0.0236604413142545 0.08066413328209306 -0.02686814919448837 -0.03595942986610127 
0.01184367619956035 0.06350556808020677 -0.0831036327662191 0.05760225876848508 
0.1097840596413844 -0.05291723556112105 -0.05539514159389151 0.0446372505389148 
0.0134246971367326 -0.06777951659154821 0.05296938310257561 0.04284238826587193 
0.01120896424425586 -0.07795846087165118 -0.02260703337743923 0.09049817891194248 
0.01821964947859494 -0.03832621521564045 0.01229274725400411 0.01317150230086564 
-0.03395050107292207 0.07656274530419592 -0.002958991159482139 -0.0329445850437056 
0.02533473046166511 0.001980778969571789 0.03404017606723665 0.02475745043664632 
-0.0949130983791772 -0.04159544158958205 -0.03940625690160871 0.1654086598611366 
-0.03948268854379736 -0.06023814402050141 -0.04787589676353245 0.1152009141050954 
-0.01988158440662549 -0.1044827658751065 0.03477468455556152 0.07967658133615135 
0.06594031262047267 -0.02969542358619085 -0.0279759719407584 -0.02016713445490608 
-0.007232010672337494 0.02148681912372382 0.05939499370168855 -0.001933112072798481 
-0.07770845345607985 -0.01631892019483683 0.06700734518768084 0.02501741583212978 
-0.140132753104538 -0.05935868265166627 0.01176008410377993 0.1546657283748276 
-0.05771339695571791 -0.1239088375194369 0.02670127471120362 0.1698739600723898 
0.02021082284641622 -0.004459458512950126 -0.0223939913473185 0.03948286550711695 
0.03911204440602193 -0.04731870759703166 -0.03021891943609333 -0.0252104577919402 
-0.08638728948535294 -0.05441978989225899 -0.0465885491823217 0.1137759255051176 
-0.01813019629932246 0.09873994672803119 -0.00547099817945071 -0.02792871310902316 
-0.06797924255421695 0.01901782609105149 0.02443227530204219 0.06468768570733216 
0.04521465312858915 -0.05020104084146207 -0.02517203901205325 -0.01687330540200611 
0.0965968020695032 -0.01210103635060421 -0.02210339871925999 -0.04861495023968149 
0.02491476229081617 0.1451467924522096 -0.05692143685955024 -0.05318123293673974 
0.05432461310108478 -0.01081307087868026 0.002702171363772573 -0.04183548149261586 
-0.05600771535116197 0.04429769456817516 0.06287088702597035 -0.05474894867899953 
-0.02611626569282365 0.06287470724824304 -0.005958738331067854 -0.05969757041734593 
-0.07453250905864128 0.2242653200715462 -0.117414411316183 -0.03016579729353361 
-0.05768284332448086 -0.01877134419174434 0.05585928787048425 -0.02521317172966346 
-0.06678282866451374 0.1421827416772101 -0.01094397534423102 -0.01921311973963569 
-0.01001532263284913 -0.07039282352167354 0.09474752435867398 -0.05386852670337003 
0.02398078546624337 -0.05096811093379108 0.05657945065868501 -0.04783154721857787 
-0.1013205312366372 -6.031973567807532e-05 0.1015547728658978 -0.03097282931777927 
0.02370452120689976 -0.02324731252708647 0.03306598196009701 -0.007419048735187877 
-0.05589901551709769 0.002183732493637081 0.03791774826421715 0.02692144233211867 
-0.04256754822965911 0.002615542471536306 0.01737060608754099 0.02365775486762041 
-0.06008886881254873 -0.02802217215579679 0.04679242280277188 0.01279066238481181 
-0.08576129988380543 0.0230262806856075 0.06514891369005202 0.02278492601588444 
-0.07140846126730044 -0.004298438950590088 0.01739321971356592 -0.008950304169574293 
-0.03218179360319055 0.006155966459249264 0.01556404561925231 0.0156961362123987 
0.09871896212024162 0.005680648964232561 -0.0398817210500163 -0.07788550915340194 
0.08703204632121821 -0.09024817548095963 0.05438704809569531 -0.0412048604045806 
0.0435518922639864 0.05647652431419156 0.002293599208461956 -0.02972437106759109 
0.0006364932491183856 -0.06171354692886441 0.1108821691783014 -0.02082399881740953 
-0.03713113863454115 0.005491240983602754 0.01816822713180729 -0.02827639913580688 
-0.06812767402141433 -0.06240465601672487 0.0537281458988014 0.02908756866701755 
0.1180800956414587 -0.01166419023874372 -0.02792181615515885 -0.0788906427465757 
-0.06241931690952294 0.03421345614147844 0.05024816600282672 -0.006517572972597763 
-0.09157964592770693 -0.174107042981577 0.2145534090591562 0.0008873065701615798 
-0.02226053520237212 0.07412210775320563 0.003345563482259657 -0.05768401561732039 
0.009813893027677514 0.0003881452794849555 0.07675068035091188 -0.08390131278279228 
0.01047617425175072 0.08773717723217365 -0.1262012213590995 0.03031756808061088 
-0.1124923359239319 0.01959075034923553 0.06693422784731126 0.06033281819402427 
-0.02489245667131762 0.04506576212157102 0.02476187452091441 -0.04492313015722084 
-0.02595561726067545 0.1400916341705001 -0.03638190112553733 -0.05572772389533628 
0.008541537086792492 0.07815501870715053 -0.04086878957580941 -0.0381091527924045 
-0.07661062598930864 0.08421819716010431 -0.02885030323768634 -9.26917831367146e-05 
-0.0914891945242166 -0.08685803712544039 0.05029051010070268 0.1021204798809554 
0.0459488928286794 -0.008205153246574516 -0.06754401803508919 -0.010967549477395 
-0.05350709220514546 0.0785145531215326 -0.02696878809772154 0.008624831491228276 
-0.004795041663760377 0.05924957356411496 0.01917715388984825 -0.07692916898482079 
0.007097846588962483 0.01385151773132507 -0.008504014056296092 -0.05445430096897785 
0.04167079041652674 -0.0228793860089687 -0.01183194511454027 -0.03093387814196379 
-0.02413329337355814 -0.009366030079124624 0.02202112268201658 0.04824466761232174 
0.1550108233484179 -0.008279992309641195 -0.02398867383468548 -0.08904545723710845 
0.1471095516546662 -0.007672048915127995 -0.08645365022040449 -0.09945007476430276 
0.04817107765481163 0.0478734273908525 -0.02041101419472182 -0.05068389257495208 
0.004198791800506343 -0.005730267300666312 0.006131767550050889 -0.02761607771587262 
0.07236026461723725 -0.04632113138788171 -0.03514418970335537 -0.05390219832162367 
0.09596672596341721 -0.06848755030009003 0.02804490472920175 -0.003097796916920496 
0.0004401645761578926 -0.01532822510601567 -0.006693632192987797 0.01713384959897658 
0.05460564316102758 0.007915679407075545 -0.03537989349314484 -0.03531611628665655 
-0.0684412799054171 0.1891950042456399 -0.05506645920690699 -0.0367265895795044 
0.1210935078000633 0.01183626607487673 -0.06311980177176545 -0.0618210831258508 
-0.1526537153197166 -0.149955122731046 0.08281130675957317 0.2217855100878734 
-0.01497467675172003 -0.009118487898214676 0.05355886398029958 -0.008120052250658375 
0.1429797506931932 -0.03717323070342001 -0.04799091683250505 -0.03810783980036161 
0.07099310872273755 0.007487506682076976 -0.07496919257632147 -0.02806318127613232 
0.005106017886376412 0.01796199205091798 -0.06102188542288622 0.03493076794175252 
-0.03291546634866785 -0.03152562728384917 0.0262002322518883 0.07328206362607682 
-0.02360811563277453 0.1177386338256895 -0.02753692699582221 -0.05723596385586833 
-0.0007043561854613507 0.02040515462022895 -0.06564719506487078 0.02732571130829125 
0.003922510542461254 0.04970865309748504 -0.004126979441463861 0.007680430741724074 
0.04787537639870415 0.007007385278594602 -0.02308214397338771 -0.00442373879083562 
0.01054956041929634 0.02332323551635651 -0.02241720060976587 0.04037021050547285 
-0.002177616539684494 -0.06161924535210111 0.0200184437829818 0.05187564165955004 
0.01214768412422458 0.1341178822947311 -0.05301039002759757 -0.07139792582069532 
-0.1294367490788176 0.04027041027964526 0.08941487791891078 -0.09081073189527768 
-0.05168394877774814 -0.005416259605222185 -0.02046437723595667 0.06816632780273241 
-0.01815466201376944 -0.07098413658359765 0.03422307281767371 0.1053416517742907 
0.02014081283345271 -0.04082173427694274 0.02914404631467596 -0.01614225744309864 
0.1195355253675053 0.03049161846345305 -0.122135928656826 -0.05795692917878165 
-0.01557872841410005 -0.01122971594992787 0.04636834067449654 -0.03772860041049616 
-0.02832946791027455 0.005193018870697994 0.00764141865263247 0.06448393698402263 
-0.04480093308812998 0.05320980788292682 0.07017744807619163 -0.03852785922737051 
0.04237196819011985 0.06717088137434082 -0.03261300153578742 -0.1166533915052416 
-0.06050421399846365 -0.06281106154069743 0.06493375567052727 0.05067851596033143 
0.007115532577678939 -0.005986580622106753 -0.03386693188573816 0.02489558280058091 
-0.01821757064132062 -0.08215552839952885 0.04770091386037085 0.03402258072034464 
0.04093181967833367 -0.05178763911494001 -0.006613787139456777 0.02397995685497966 
0.07301064843042522 -0.05237424738603864 -0.02879052735943151 -0.006144664581211437 
0.1036331784899186 -0.02294772707128435 -0.04564119456795272 -0.01688708542470209 
0.04527856906187411 -0.0008014635310001456 0.01099596334855283 -0.07223052601863009 
-0.03023313023725896 0.04925381824034224 -0.007018536912382586 0.01474492734375479 
0.05279616176050311 -0.03693039630636172 -0.02037569354153518 -0.06496373671902998 
0.03277018083610957 0.003661032460616186 -0.002719783795277008 -0.01374649252776238 
0.04884236932947462 -0.01873601452555917 0.02985642686180829 -0.04735648731744553 
-0.03051122920708695 0.08156663193605085 -0.0553547134707381 -0.05518974408529245 
-0.004322529699552547 0.007092215874577431 -0.003791202826489959 0.04281059198029508 
-0.03265689483999386 -0.07453526382866801 0.06705292657037697 0.03257254760833528 
-0.05547635642575109 0.1571465887916834 -0.03642385703555427 -0.09175207419633233 
0.01490646221442673 0.01910504956516384 -0.009500528429801694 -0.04856910944455109 
0.02497614926178842 0.006901821615360292 0.001830505122122915 -0.01106278750411533 
0.03213588441698212 -0.02778490680236851 0.03693661684824424 -0.02872274695608764 
3.349028631476819e-06 0.009718043256621402 0.01983687655196242 -0.03995358062945145 
0.008976910862297075 -0.0006893566629292555 0.00610758756025596 0.002634067743585411 
-0.05704459082453473 0.03213670985606502 -0.04353438703654745 0.08102714823205576 
0.02615202874650665 -0.02646282987202115 0.0294638137048812 0.03309277840122998 
0.04012849070290952 -0.003947286032163484 0.03539774698236319 -0.04917792636835237 
0.05888447380493205 0.008831046762504886 -0.01071441439631737 -0.05089305965697524 
0.02281722685681049 -0.04597726268136624 0.01411823776880613 0.03202100242153647 
-0.002305284397013115 0.09889084142372283 -0.0167315129040629 -0.04370506650377451 
-0.1202275638751046 0.05201118846590638 0.01273166592267407 0.05328084913486628 
0.05887475694574707 -0.08633283404270614 0.02778992051797006 -0.02904510956674706 
